UBP3_HUMAN 0.27173138 -0.19654769 0.060942385 -1.354048 0.56969035 -0.6655936 1.2168525 -1.307 -0.09073468 0.04496131 1.187374 -0.84702015 0.5018862 -0.25393224 0.23079038 -0.54107875 0.8430842 -0.48754728 0.61714566 -1.0962007 0.16596957 -0.8620445 -0.87983096 -0.16742213 -0.43529585 -0.89948153 -0.65588796 0.51766616 -0.31499326 -0.41292816 0.5701452 0.9702329 1.2488226 -1.3194565 -0.8637124 -0.9533892 -0.034761667 -0.21760964 -0.97132224 0.2739658 0.025066122 1.0549347 -0.7785926 0.2679848 -0.85708886 -0.28833896 0.3478312 -0.24894018 -0.44311485 -0.7479866 0.94789267 -1.1310759 0.84336257 -0.11692501 -1.108374 -0.95506 -0.84527785 0.8279005 0.12488671 0.45014983 0.31370935 -0.5468612 -0.20822187 0.43671763 0.23319443 0.905705 0.5706929 -0.65764916 0.095596224 -0.629849 1.0879571 -0.5283436 0.31232783 0.23847935 1.3749324 -0.7067998 0.47383463 -0.23890373 0.06564844 -0.781814 -0.83245426 -0.13911703 -0.6864928 -0.9211291 0.5738784 0.30512342 0.8512771 0.33083656 -0.2915703 -0.5718647 -0.3466485 -1.0644566 0.025070695 0.55404675 0.16958268 -0.149806 0.058944926 0.7404228 0.39745313 -0.7139647 -0.9160331 -0.60998243 0.53517085 -0.95149326 0.28606236 0.04831998 0.60315925 -0.22936575 -0.84150386 0.6893617 -0.28542995 0.9875788 -0.6379522 0.29877028 -0.107364826 -0.29734007 -0.097865984 0.12530848 -0.52091575 -0.27385056 1.0654984 1.289722 -0.7643434 1.094028 0.6405606 -0.49708995 -0.6858171 0.31518063 -0.67425567 -0.73309445 -0.17381418 0.25533634 -0.089709476 0.5754787 -1.2352388 1.1844541 0.89315015 -0.25627324 -0.7382226 0.13049802 0.39138693 -0.7914876 0.1463221 0.41236472 -1.1265692 0.20045632 -0.22784641 0.66113424 -0.4899849 -0.040829465 0.103737995 -0.8692733 -0.96004057 0.059219647 -0.56926906 -0.38845283 -0.8702583 0.38671166 1.0323963 0.49452496 0.5629351 -0.33401978 0.5786323 0.74004465 -0.31075042 -0.95281464 1.0329086 0.34525022 -1.1772863 -0.43313134 -0.8264115 0.9714244 0.2502501 0.2553479 0.55966043 0.54539895 0.42449132 -0.4122695 -0.44530505 -0.8406543 -0.14764328 0.6662783 -0.59895444 0.6513348 -0.8221608 0.49839014 -0.9738025 0.5740822 -0.45186228 -0.037385542 -0.6615093 -0.6904254 -0.44055772 1.3943058 -0.029839508 0.20671663 -0.2556638 0.47939444 -0.53205967 -0.36631042 -0.14896885 1.4351361 -0.1304104 -0.18571451 -0.7276553 -0.8481527 0.95521414 -0.40073496 -1.4509097 -0.49653178 -0.6775816 -0.22836244 0.007340014 0.22343487 0.21855286 -0.1858152 -0.00559365 -0.72904724 -0.5766806 -0.24295199 0.2285164 0.25089478 -1.324705 0.0304275 0.53570133 1.1975513 1.0615547 -0.024043484 0.9136541 -0.29779473 0.42260066 0.71806026 0.66425335 0.7385483 -1.0566185 0.20916247 -0.36705077 1.5448644 0.6959857 -0.07983906 0.76840496 0.3918633 -0.14907983 -0.98022705 0.19199099 -0.13788046 -0.33837953 -1.4944332 0.4574812 -0.9069878 0.20252979 -1.1876944 0.70614773 -0.35670617 1.3360873 -0.37993783 -1.6548201 -1.0305612 -1.0031867 -0.5827947 -0.16938609 0.61382234 0.4733202 -0.09069039 -0.4497506 -0.02065013 0.17199431 0.21481033 0.6703154 -0.21140423 0.28096622 -0.6293448 -0.22185616 -1.3385184 -0.25396425 0.0069283694 -0.061367907 0.10698043 0.53941345 0.112942666 -0.214591 0.69276744 0.095546566 -0.7772599 0.29242858 -0.2568645 -0.62664926 0.26162887 -0.5677575 -0.90868276 -0.39179188 0.39795232 -0.6914907 -0.15815413 -0.16770878 0.33477977 -0.52203697 0.92845714 -0.052009396 -0.99096507 0.051087137 0.4209602 0.11037017 0.33587396 0.47753704 -0.7393438 -0.992809 0.34524345 -0.8415938 0.07837413 -0.2057791 0.09172225 -0.93838876 0.2676059 -0.29076865 -1.2828636 -0.13075987 0.5322401 0.65302086 0.14795984 0.15974158 -0.5815898 -0.19746932 -0.5692475 0.003425181 -0.44380376 0.31820354 -0.38686055 1.2358195 -0.6236429 0.25582352 -0.9402157 -1.3166221 0.51805043 0.19725749 0.43262935 0.91963357 -0.58544445 -0.83267576 0.4597067 -0.006194696 0.22297569 0.7290733 -0.29268757 -0.94635546 -0.9726963 0.30828547 0.46751982 -0.87510204 -0.63656396 0.6822436 -0.47368196 0.03377652 -0.84312415 0.055283688 -0.3722936 0.45928332 -0.64985 -0.5157956 1.2225631 -0.1632409 0.4352803 0.74372053 -0.34877497 -0.56842136 -0.071260184 -1.145248 -1.4151534 -0.8585602 0.60486054 -0.77608305 0.26826373 -0.33032194 -0.34529865 -0.9336772 0.7227332 0.748695 1.1012813 -0.08419044 -0.70604706 0.29695746 0.5183002 0.07935556 0.63324916 0.14895165 0.0356497 0.0044824444 -0.012433656 1.259295 -0.5336712 -1.460663 -0.45329386 0.5546237 0.72534364 -0.32270306 0.24944666 -0.15787856 0.6038338 -1.2000344 0.28120118 1.047747 -0.17348789 0.1924918 0.387929 0.28946418 -0.89866465 -0.115784675 0.04470496 0.7902672 -0.5442073 0.37869093 0.14719188 0.3041746 1.2339394 -0.3491602 0.1861203 0.03030599 -0.73015726 0.070112325 -0.20303541 0.33329988 0.31322274 -0.38363186 -0.89943 -0.71306044 0.59340805 0.33913246 1.0130079 0.5779164 -0.679579 -0.39595675 0.35301614 -0.28142646 -0.14484493 -0.75429165 -0.23178874 -0.30109578 -0.76773876 -0.7548048 1.1724532 -0.27954978 -0.47715026 0.50008184 -0.6059788 -0.3332351 0.082367875 0.21120213 -0.40476087 0.3835714 1.2773497 -0.06619163 -0.46808976 0.20361823 -0.21349911 0.9081164 0.790267 1.1998687 0.30595055 0.59295917 0.21118808 0.49022213 -0.815789 -0.14191933 -0.8332289 -0.16508803 -0.29888582 -0.64251846 1.3286433 0.47501072 0.076474056 -0.5311717 -0.0014847955 0.3037811 0.009350151 -0.3173257 0.5190847 -1.2812197 -0.21677974 0.97959214 -0.48365843 -0.17001718 -0.1959718 -0.6275741 0.98677236 0.6954559 -0.3283261 -0.41817522 -0.056877658 -0.22148469 -0.70029706 -0.53169715 -0.30547315 0.2406913 0.2214818 1.3138125 0.30990654 0.58514696 1.144113 1.3687775 0.27851355 0.30710536 0.25197995 0.11151879 -0.36451206 0.70920557 0.13240732 -0.36177078 0.8145719 -1.1064007 -0.47955325 -0.25399074 -0.69939286 0.84886265 0.104668595 -0.07570613 -1.0750544 0.12701164 -0.0848749 0.9418991 -2.0409863 -0.21994442 0.45039067 1.1908956 -0.5130806 1.2969735 0.21577018 -0.6658605 0.7630824 0.8648837 -1.4592974 1.0937351 -1.1478487 0.017437335 -1.5402025 -0.64658076 -0.6396395 -0.58143413 -0.91704446 -0.024168104 1.0098472 -0.47833222 -1.133889 1.0068974 1.0652134 1.2701532 -1.3672307 -0.83500946 -0.7364855 -0.35773474 -0.16493113 -0.8969181 0.6975944 -0.1261653 0.080554664 -1.3668315 -0.013755381 -1.8026422 0.406718 1.0151193 -1.0954129 -0.5439842 -1.0011648 0.9708453 -1.01888 0.86276233 0.44763312 -1.3447793 -1.6947155 -0.7027339 -0.08766353 -0.14387356 1.0186725 0.3857795 -0.58940905 0.20510152 0.045603275 0.6748097 1.0646181 0.25530323 -0.556957 0.23126693 -1.3024073 0.8945199 -0.89042866 1.1551716 -0.91370565 1.100034 -1.1280147 1.0679058 -0.9187073 -0.146565 -1.0411044 -1.3344412 0.41049644 -0.38629833 -0.93405175 -0.53503513 0.081453696 1.7128943 1.7232369 -0.44867444 -0.59667486 -0.4484222 -1.0442688 0.56153965 1.0159597 0.5392818 -0.4036199 0.5391575 0.7493698 -0.02705954 -0.9466005 -0.66872936 -0.60492635 -0.15713477 -1.4333322 0.5385387 0.05757008 0.8801044 -0.23531906 -0.2638998 1.1653023 -0.7462613 0.15221131 0.35661787 -0.17096642 -0.2934752 0.9723598 -0.06977992 -0.06503691 -0.3956075 -0.28705847 0.6302556 1.3042889 -0.5404772 1.1676202 0.7774563 -0.1846405 -1.9944007 0.2252093 0.41062605 -0.37716562 -0.56472814 0.6104206 -0.102023676 0.82635564 -1.236934 0.8164412 0.84526104 -0.30914384 -0.81351006 0.6934202 -0.7052704 -1.0048804 -0.69185036 -0.24379623 -0.48585448 -0.0946065 -0.57563996 0.6439948 0.112626225 -0.10096015 0.69998777 -1.3243518 -0.74777967 -0.6810273 -1.1130047 -0.43731546 -1.5211964 0.024405688 1.2173141 -0.05033067 1.1657655 0.29881042 0.069027215 0.8635802 0.2116568 -1.7241904 1.7131242 0.32646042 -1.5528855 -0.14012927 0.19791326 0.65541357 0.25470605 -0.5083134 0.9943627 0.5021591 0.41918185 -0.5623194 -0.4445191 -1.9347285 -0.51286995 1.3936212 -0.24008282 0.89145386 -1.0941293 -0.27478683 -1.4923668 0.6318339 -0.8474964 0.7648535 0.42340404 -0.14383127 -1.1330975 1.7187904 -0.9850597 -0.12655026 -0.9822476 0.2578175 -0.38692692 -0.4595692 -0.5908204 1.1012597 -0.13579953 -0.47593355 -0.79240036 -0.986073 1.042681 -0.08348878 -1.6874638 -1.6592453 -0.92148894 -0.55179596 0.26266333 0.76858217 -0.38817722 0.19779618 0.3375097 0.11369687 -0.38515794 0.5646736 0.3288327 0.1554019 -1.5737429 0.18385172 0.4423209 1.4005316 2.059567 0.01755336 0.38069826 -0.7632518 0.9002406 0.3422842 0.05252254 1.5921249 -1.5824325 0.5716136 -1.1660353 2.182094 0.44869363 -0.18064302 0.98808753 0.3319618 0.46304935 -1.5361359 0.1537422 -0.7094178 -0.52163893 -1.4370086 0.41858214 -1.4855611 0.7084054 -0.9789763 0.60542136 -1.2169651 0.6983541 -0.63750756 -1.8992422 -1.13473 -1.7272017 -0.5477226 0.36025342 0.3908827 0.5669325 -0.4862319 -0.62141514 0.50692046 0.88225234 0.019498125 1.0680169 0.8418353 0.6889441 -0.9813254 -0.9866541 -1.351226 -1.1763949 -0.059227377 -1.2726742 0.7057791 0.7378534 -1.1977513 -1.1867908 1.3504144 0.8406496 -0.35424358 0.32741234 -0.64201 -1.0246415 0.52786875 -0.3229751 -0.6690744 -0.9874673 0.057167575 -1.0256786 -0.1811975 -0.87784266 0.50136805 0.026439667 1.0091416 -0.33505514 -1.0679171 -0.37936234 0.45446327 -0.024405554 -0.16293332 1.2305375 -0.7587526 -1.3680574 0.18849888 -0.15714452 0.3468405 0.34726658 0.046292707 -0.5398364 0.9099411 -0.3495048 -1.4506693 -0.8528372 0.71216 1.8130933 -0.1585205 0.04353489 0.5953696 0.7739509 -0.1828288 0.115762115 -0.78087664 -0.2614341 -0.03320907 1.2331421 -1.3208642 0.388444 -1.0344701 -0.85374224 0.3621457 0.5793925 0.2715249 1.655094 -0.64497536 -0.9072993 -0.117048144 -0.8494364 1.022949 1.7603867 -0.5075389 -0.6369163 -2.3744967 -0.033616893 0.18400373 -1.0178732 -1.1693649 0.7460204 -0.96185243 -0.7918881 -0.63286626 0.13236496 -0.5684095 0.3624772 -0.16276774 -0.2827509 0.93419576 -0.0573218 0.055138707 0.89473456 -0.5388751 -0.46996325 -0.6330968 -0.60903114 -0.10904938 -0.95212495 0.69896513 -0.82332826 -0.39896068 -0.48993883 -0.42446736 -0.7460082 0.57016855 0.7945511 1.2837858 -0.29020524 -1.1325475 0.03236627 0.49244022 -0.47584474 0.22453141 -0.43161327 -0.60885286 0.57118446 -0.14245163 1.3249922 0.40275046 -1.6874883 -0.5619236 0.3796557 1.3901477 0.17500404 0.39417702 -0.08993539 -0.26097506 -2.1876726 0.57421106 1.6264346 -0.33057874 1.168819 -0.34493837 -0.0932553 -0.94074583 -0.23545823 0.12867592 0.5633 0.19022168 -0.0784802 -0.42139417 0.72502315 1.772458 -0.019597322 -0.60500747 0.05692305 0.71606636 0.9224037 -0.7270577 0.40345794 -0.07286087 -0.6963631 -2.6187253 -0.97384757 0.78184575 -0.19036302 -0.3507649 0.6641299 -0.48697776 -0.22631833 0.5517049 0.085476354 -0.69598573 0.01891604 -0.53040284 -0.7585994 -1.3259137 -1.4052938 1.1561302 -0.9667671 -0.047272168 0.745156 0.24339208 -0.08535047 0.37905043 -0.4275091 -0.2574345 1.1859574 1.2184006 0.9805826 -0.23199366 0.2169214 0.4340099 1.5218662 0.1552135 1.1816692 -0.57886577 1.0538907 0.8296038 0.8975632 -0.42473805 -0.4945221 0.10836801 -0.5667128 0.20406191 -0.9541691 0.8905682 0.8074767 -0.34253603 -0.90235966 0.2441554 0.3892182 -0.36047888 -0.4185295 0.39511257 -1.5364339 0.12447497 1.7456828 -0.7824611 0.22047447 -0.41597092 -0.9072137 0.98273087 0.80522954 0.13695799 -0.37058643 -0.32384628 -0.11426897 -0.5636217 -0.8424184 -0.66458684 0.6498024 0.70252955 1.6439238 1.0747877 -0.28140613 0.51378226 1.7012384 0.65924525 0.48561716 -0.8202622 0.46462807 -0.15551484 0.96565735 -0.46460062 -0.445688 0.1145623 -1.1890018 -1.4818199 -0.26352826 -0.1607649
UBP13_HUMAN 0.18499053 -0.2101242 0.017209131 -1.373795 0.5143475 -0.82814884 1.19068 -1.263819 -0.06513187 -0.01741328 1.1031322 -0.6951453 0.33510906 -0.29536766 0.19974987 -0.59698915 0.7953056 -0.40227896 0.42167693 -1.1493003 0.24501789 -0.82528466 -0.731159 -0.17789465 -0.37977394 -1.0190846 -0.46147642 0.35721228 -0.33095282 -0.30832395 0.45437855 0.97831863 1.3234522 -1.4581712 -0.82134557 -0.8808503 -0.09795129 -0.06856618 -0.98102915 0.30486533 0.21368644 0.96553385 -0.6305629 0.24818823 -0.90199685 -0.36556083 0.37814397 -0.26973957 -0.60408366 -0.8022852 0.8801054 -1.035708 0.9176681 -0.3493841 -0.92931175 -0.8567238 -0.8403951 0.95411694 0.1927939 0.33608 0.23582816 -0.47923198 -0.10166067 0.5595859 0.24594845 0.93200135 0.5225942 -0.4761305 0.05187884 -0.58203375 1.1336184 -0.4195029 0.27829343 0.31176987 1.2771937 -0.73504245 0.48322582 -0.27692902 0.19551875 -0.7469976 -0.84562933 -0.019592062 -0.6200985 -0.91226876 0.55834335 0.4185719 0.8033682 0.18282406 -0.26316577 -0.55396545 -0.36476803 -1.0318385 0.009900963 0.50026697 0.16134764 -0.14156705 -0.019899644 0.86293256 0.4418018 -0.6162584 -0.79919046 -0.6539883 0.58526087 -0.895754 0.369345 -0.10692969 0.66466427 -0.11523245 -1.0448258 0.5579532 -0.22491553 1.0721015 -0.49586898 0.117846556 -0.15919629 -0.19994098 0.010504685 0.1373787 -0.40437073 -0.36755115 1.1497238 1.1965127 -0.7826131 1.2715542 0.74545294 -0.42334542 -0.8383757 0.34117514 -0.64366436 -0.7319123 -0.1734544 0.32461083 -0.054830186 0.6368043 -1.2308254 1.0337821 0.98925877 -0.31138897 -0.71538067 0.2562855 0.4706424 -0.9135225 0.056971565 0.43000606 -1.0234169 0.14873758 -0.39035016 0.6102061 -0.41950643 -0.10724323 0.22103392 -0.82257736 -0.74033237 0.028146725 -0.59582865 -0.4765054 -0.8086598 0.15315516 0.98692423 0.5921453 0.6548913 -0.40859127 0.58198047 0.9342723 -0.31363258 -0.9387094 1.2723846 0.28599837 -1.1190325 -0.44636062 -0.8391107 1.0318804 0.13109732 0.28610903 0.5811744 0.46734238 0.37465918 -0.32141316 -0.46326366 -0.7411628 -0.28970477 0.5404565 -0.6230451 0.5610037 -0.8495009 0.3847618 -1.0060972 0.40280956 -0.5482205 0.044394962 -0.78027123 -0.59833705 -0.42779166 1.2617565 0.2000731 0.1222591 -0.18012643 0.44087034 -0.51156664 -0.3327232 -0.14724864 1.4320512 -0.25942847 -0.24746668 -0.77080023 -0.76954985 0.93694735 -0.5570073 -1.3077021 -0.40261453 -0.70241845 -0.39634877 0.060892828 0.3375978 0.14902924 -0.18867457 -0.07828079 -0.5973282 -0.6164948 -0.12048209 0.23564304 0.29659754 -1.3189585 -0.06352961 0.5258992 1.1725131 0.98787105 -0.122350186 0.79577136 -0.088721834 0.32032096 0.680786 0.59150714 0.5868847 -1.0631008 0.13729236 -0.44509283 1.5215508 0.6108189 -0.16370247 0.66962326 0.3498692 -0.17417541 -0.89258647 0.24923967 -0.16706818 -0.30605695 -1.4301758 0.43986142 -0.91415155 0.2731933 -1.1753883 0.7569703 -0.25897732 1.2552962 -0.51938975 -1.5784082 -1.0321126 -0.99613833 -0.55656767 -0.07338734 0.5221896 0.40301135 -0.15253872 -0.46858746 -0.03566631 0.13471365 0.14087477 0.7095054 -0.26129118 0.3804656 -0.75015855 -0.14067629 -1.3352418 -0.29527876 -0.12029366 -0.15898313 0.10184711 0.557002 0.19527951 -0.120494924 0.66463923 0.014626814 -0.8150251 0.07844488 -0.31426388 -0.668136 0.2020718 -0.53894866 -1.0437529 -0.48771423 0.5202786 -0.5746095 -0.18427247 -0.18423279 0.5180583 -0.5985514 1.0050066 0.013839103 -1.0288632 0.09135279 0.16255826 0.09783083 0.43613857 0.2855821 -0.6587625 -0.9238223 0.06459777 -0.7757299 -0.05159174 -0.15521976 0.14399704 -0.88729787 0.21480398 -0.3500103 -1.3235855 -0.032960445 0.47615582 0.734758 0.20015624 0.16806817 -0.6173074 -0.2619668 -0.61269176 -0.0032186247 -0.49315995 0.25660932 -0.2990018 1.2420378 -0.7140176 0.16037264 -0.93970704 -1.5225416 0.44891217 0.2699328 0.25442284 0.91653204 -0.6801896 -0.747493 0.3571468 0.07905227 0.10288462 0.6645191 -0.3112316 -0.83928466 -0.85333633 0.31553608 0.5131827 -0.8295232 -0.46023896 0.620577 -0.35219717 0.07758065 -0.7244265 0.002165161 -0.15041581 0.43161273 -0.5568427 -0.48955774 1.2915746 -0.18853363 0.27572066 0.7327075 -0.2662062 -0.42162418 -0.09515478 -1.1454985 -1.3889346 -0.93361866 0.5912786 -0.8421818 0.2940368 -0.50005925 -0.3941145 -0.89565945 0.6780524 0.7897397 1.050178 -0.15857339 -0.6896396 0.36359823 0.42963624 0.15130883 0.47177482 0.14411332 -0.024503667 0.09569526 -0.06754352 1.2553428 -0.5001689 -1.4576235 -0.44698435 0.53578603 0.5673877 -0.21448816 0.21339244 -0.13572513 0.62629586 -1.1003993 0.18051559 0.9275592 -0.14821452 0.03662231 0.41797063 0.4115978 -0.98229384 0.021828867 0.16769782 0.83800447 -0.72902465 0.27528122 0.29281566 0.16074595 1.1346529 -0.35227698 0.23351867 -0.030670064 -0.8270216 0.07748945 -0.23527811 0.2797425 0.33376485 -0.26511157 -0.940488 -0.5758561 0.72705686 0.35051662 1.0313835 0.43705535 -0.72457635 -0.45487678 0.48894414 -0.27979603 -0.070349805 -0.7239931 -0.17092893 -0.2872212 -0.8671824 -0.7511907 1.0924549 -0.11140588 -0.46000665 0.49597445 -0.629041 -0.24870153 -0.00953963 0.1926238 -0.3969001 0.40507594 1.1148686 -0.11191908 -0.63995075 0.19495332 -0.36848247 0.8413468 0.7768439 1.146451 0.12621522 0.5090897 0.33881137 0.43392846 -0.9654887 -0.075656205 -0.87401265 -0.14103863 -0.5163385 -0.46687222 1.3098099 0.56161666 0.24967827 -0.48108095 -0.024694683 0.20308256 -0.024395823 -0.26171947 0.54279757 -1.4602588 -0.16840854 0.99450254 -0.56205803 -0.23939133 -0.12382667 -0.7645867 1.036788 0.83921283 -0.36510944 -0.47195658 -0.1263684 -0.2277871 -0.6315964 -0.64549005 -0.3124059 0.30539164 0.059945464 1.4407184 0.23235619 0.52729523 1.2294955 1.4238937 0.3571157 0.30698162 0.25963494 0.12329601 -0.25031745 0.6128499 0.08823967 -0.43537995 0.78908956 -0.9770386 -0.42013252 -0.19553217 -0.81454253 0.6169767 0.13946228 -0.21969108 -1.0391365 0.29826277 -0.2323511 0.8518234 -2.0048223 -0.0742356 0.5781414 1.0579357 -0.8639599 0.9857426 0.20679146 -0.5571935 0.56470037 0.7824318 -1.0878925 1.0380558 -1.0300046 0.2069512 -1.364627 -0.47076207 -0.68061423 -0.74502504 -0.73387015 0.031225592 0.90863556 -0.13188685 -1.2307997 0.72148675 1.0706322 1.4357061 -1.2919588 -0.6215138 -0.7838545 -0.40002406 -0.15080559 -0.7072871 0.6719443 -0.07849292 0.42786616 -1.524144 0.122705184 -1.8525782 0.32606208 0.98913234 -0.97987145 -0.22171153 -0.5844156 1.2875786 -0.72429717 0.73106134 0.59877133 -1.4278544 -1.4165775 -0.54955035 -0.057504207 -0.06367515 1.0974951 0.32430667 -0.5449052 0.43444625 0.12479472 0.5229769 0.9865091 0.42907006 -0.98873484 0.34771374 -1.2997345 0.9781618 -0.86581814 1.1064003 -0.68373096 0.86540776 -1.1562932 0.89790744 -0.90992707 0.10195996 -0.77550817 -1.1993394 0.40718174 -0.417971 -1.0358362 -0.514882 0.16183501 1.5537783 1.5743666 -0.24506314 -0.36385936 -0.7902549 -1.0799258 0.5237284 0.9880781 0.3954935 -0.2637602 0.35407227 0.9076916 0.07981399 -1.0983436 -0.47593588 -0.68914473 -0.18230796 -1.4042768 0.54209524 -0.1140888 0.95826566 -0.1564722 -0.16397306 1.0631468 -0.7975892 0.011465102 0.10437523 -0.2111685 -0.29607967 0.96016014 -0.17237507 -0.028060157 -0.36669213 -0.3149882 0.61542416 1.1132429 -0.44475806 1.0177159 0.8234111 -0.110043325 -2.0616252 0.18815574 0.5402911 -0.6143839 -0.49616557 0.48423374 -0.16405748 0.8931408 -1.1747286 0.7770349 1.0317737 -0.48237085 -0.92526084 0.61326146 -0.5417171 -1.0561132 -0.45620984 -0.24629663 -0.47210455 -0.047577932 -0.639334 0.68790054 0.035803184 0.038629092 0.71061194 -1.1396513 -0.82167697 -0.59691155 -1.0103889 -0.5645022 -1.331545 -0.05356972 1.1628802 -0.31517047 1.0209494 0.083281204 0.35172513 1.0019158 0.15238489 -1.7059679 1.5992147 0.33378854 -1.3459369 -0.15227956 0.151559 0.72313684 0.26316145 -0.47967225 1.057106 0.3387861 0.5351444 -0.6535086 -0.35538864 -1.6228529 -0.44444174 1.4148276 -0.46647924 0.8426228 -1.1542084 -0.1950494 -1.3504816 0.5884773 -0.62686193 0.72293615 0.29151094 -0.046274178 -0.7663734 1.727246 -0.8788128 -0.19052956 -0.805992 0.10741773 -0.56610596 -0.42385352 -0.6488104 1.0440922 -0.20594016 -1.3763709 -0.5883296 -0.8260832 1.0024402 -0.16009942 -1.4221134 -1.5886414 -0.9523717 -0.69870925 0.1637603 0.55817115 -0.42263937 0.13829839 0.16186196 0.12787707 -0.40848795 0.48623767 0.31487837 0.25071317 -1.2788683 0.0765988 0.6801181 1.5538969 1.8010588 0.008489281 0.3251022 -0.6582521 0.88556826 0.43542913 0.16250832 1.337257 -1.756294 0.3254306 -1.0124233 1.8056452 0.46028504 -0.24378043 1.0168352 0.28233093 0.21517068 -1.4440081 0.16634455 -0.6595054 -0.5878619 -1.3882675 0.3882506 -1.5650709 0.8078705 -1.0732968 0.43891078 -0.99762005 0.70042634 -0.49360323 -1.7264385 -0.7481879 -1.6447198 -0.36739582 0.12050744 0.48277646 0.2813462 -0.27915913 -0.45746693 0.7215183 0.83543324 -0.03501112 0.7398981 1.010781 0.7959175 -1.0644567 -1.0091898 -1.3955054 -1.0227811 -0.3114229 -1.1282711 0.76425505 0.49239674 -0.85467356 -1.177461 1.5680747 0.49016285 -0.59234107 0.4054672 -0.48610675 -1.0324233 0.32726586 -0.6112275 -0.7718364 -0.6797872 0.18030459 -1.0771158 -0.1301802 -0.7897829 0.6227312 0.1451079 0.88394344 -0.1454544 -0.97031075 -0.5056053 0.52704984 0.06758165 -0.1781683 1.08296 -0.8057371 -1.1291602 0.037015706 -0.31613135 0.29963112 0.62656224 -0.09997534 -0.574584 0.7979908 -0.36698937 -1.3487097 -0.65106153 0.86802775 1.6383741 -0.31811035 -0.09895642 0.20321167 0.6988864 -0.18538556 0.40019488 -0.8833405 -0.34240147 -0.13647047 1.3852551 -1.3796372 0.29889917 -1.0154922 -1.0995538 0.19488275 0.6701071 0.042042464 1.4907088 -0.69992733 -0.8828906 0.13966689 -1.0964346 1.0252068 1.8781673 -0.42252457 -0.7323518 -2.1329322 0.08267069 -0.1722211 -0.83198214 -0.9406271 0.6959892 -1.1184039 -0.7682829 -0.44690654 0.1987925 -0.41187295 0.47281653 -0.36606815 -0.38093942 0.9742928 -0.022173718 0.10929769 0.68337595 -0.61402905 -0.54610395 -0.38487703 -0.66129535 -0.30357808 -0.84076613 0.41992596 -0.8493978 -0.13243616 -0.41230893 -0.6118845 -0.8122016 0.49722257 0.72366476 1.3647482 -0.1585969 -0.93261373 0.15901598 0.65896237 -0.4821821 0.3989655 -0.52792937 -0.47828758 0.2790185 -0.35430732 1.3603033 0.62978673 -1.5834618 -0.6577852 0.54282486 1.2696896 0.13209456 0.29220837 0.09616116 -0.07355739 -1.8843141 0.72255075 1.6839898 -0.4460154 1.06474 -0.3317408 -0.10261696 -0.9410331 -0.08965872 0.22586349 0.5944077 0.2969749 0.06821108 -0.4571972 0.6704267 1.8432736 -0.13313913 -0.41962007 -0.14830214 0.65355206 0.83054054 -0.4817533 0.51588005 0.07539248 -0.7729468 -2.6016712 -0.792392 0.5703894 -0.18986309 -0.11641544 0.5807067 -0.724568 -0.40572238 0.6137351 -0.06106487 -0.74462724 -0.15247473 -0.40987638 -0.65947104 -1.3988645 -1.4883692 0.9158795 -0.9130211 -0.060318068 0.8973074 0.031268552 -0.121991366 0.31411922 -0.30940196 -0.27236748 1.0165989 1.0275153 0.6984559 -0.24554724 0.15037504 0.20492268 1.3072741 0.1461328 1.2958649 -0.6738017 0.7179132 0.8413017 0.8409341 -0.48543465 -0.29148987 0.06031683 -0.38743606 0.0061903372 -0.7782609 0.9267117 0.70563334 -0.40377057 -0.8387059 -0.009625107 0.3131559 -0.40954894 -0.3441903 0.5258252 -1.2405436 0.15957941 1.4471297 -0.52617085 0.34849948 -0.34070158 -0.8300244 1.0484247 0.6187189 0.05295044 -0.25526845 -0.25387293 -0.3219679 -0.45118552 -0.8511215 -0.64790666 0.6604861 0.5648561 1.5989636 0.9782039 -0.1531094 0.68679136 1.4827223 0.72719467 0.20145209 -0.69233096 0.57114625 -0.35694024 1.0429583 -0.2871315 -0.7027397 0.19736043 -1.0714743 -1.3799099 -0.13784854 -0.51914537
UBP7_HUMAN 0.22673261 -0.16849953 -0.008098938 -1.4415253 0.50570875 -0.87119156 1.1439725 -1.3276365 -0.06848908 -0.033323206 1.0405425 -0.6978946 0.3074229 -0.3609691 0.1917994 -0.6073166 0.81700486 -0.41917357 0.35049784 -1.2816602 0.1758409 -0.87106824 -0.6691077 -0.13228437 -0.40626636 -1.10437 -0.37420282 0.24495102 -0.31991664 -0.29867607 0.42590788 0.9772957 1.4122972 -1.652373 -0.84759307 -0.96007544 -0.1831858 -0.006574715 -1.0838889 0.33772823 0.3423771 0.9256356 -0.62354505 0.20305514 -0.8450367 -0.37621102 0.3810339 -0.24714895 -0.64023453 -0.8775336 0.89203423 -1.0923501 0.9712685 -0.41789618 -0.915705 -0.7905062 -0.96491575 1.0605644 0.18505557 0.23468757 0.22356725 -0.42896262 -0.08738067 0.53048784 0.19389276 1.0037318 0.49940267 -0.4106543 -0.044809323 -0.5387865 1.1076044 -0.4153417 0.2707069 0.3290082 1.336484 -0.76176953 0.4612042 -0.2996402 0.14323352 -0.77929014 -0.85912365 0.01040294 -0.645266 -0.82625276 0.5835397 0.49052605 0.75546616 0.17138708 -0.3315505 -0.6611703 -0.40066624 -1.0665808 0.013406175 0.51169604 0.13046171 -0.15082397 -0.06654399 0.96661276 0.43755224 -0.5426594 -0.7924866 -0.6385405 0.61139315 -0.9106698 0.39133787 -0.14434743 0.6512262 -0.103840806 -1.1061339 0.5055068 -0.18777025 1.1974756 -0.4324232 0.06552938 -0.14763628 -0.16334821 0.08051818 0.16586758 -0.29490247 -0.45709834 1.2247677 1.2127773 -0.84886664 1.3017933 0.82856154 -0.4032203 -0.8933905 0.34444693 -0.6860349 -0.7314427 -0.25630465 0.39636216 -0.05139345 0.62783664 -1.2403907 1.0083019 1.0846363 -0.347324 -0.75288206 0.2703255 0.54016757 -0.91610795 0.02419193 0.49153933 -1.0396094 0.20140417 -0.47240493 0.5977583 -0.45589033 -0.15256447 0.27795312 -0.84230214 -0.65446526 -0.0031006758 -0.5809856 -0.47516766 -0.8170863 0.03505376 1.0074135 0.6798492 0.75694054 -0.43299544 0.68438405 1.0143495 -0.33824944 -0.9017108 1.3861641 0.27200007 -1.166746 -0.5091354 -1.023766 1.1586121 0.09231328 0.2988074 0.49990597 0.52153367 0.39174512 -0.1938899 -0.53730816 -0.72936016 -0.2658862 0.47970033 -0.6355718 0.59052896 -0.9077762 0.34406808 -1.0497531 0.36267087 -0.5369404 0.04059963 -0.8808872 -0.623946 -0.44617867 1.2011396 0.27163664 0.11370742 -0.1763844 0.46094856 -0.514633 -0.31543776 -0.16145869 1.4211773 -0.23495682 -0.22048481 -0.76594025 -0.773436 0.97271806 -0.62267095 -1.3084738 -0.40988925 -0.68688697 -0.5020514 0.093048014 0.3404518 0.12913455 -0.23633504 -0.041244563 -0.5358567 -0.6218279 -0.1488988 0.26438254 0.33318278 -1.4032313 -0.0710099 0.52634674 1.2175171 1.0367833 -0.080222435 0.7887888 0.034252837 0.31424865 0.7202902 0.59466183 0.54277617 -1.0274771 0.17536408 -0.4964224 1.5547389 0.5693314 -0.18906678 0.6410176 0.36872587 -0.20553358 -0.95868343 0.2525235 -0.13582961 -0.33452395 -1.4866071 0.47822532 -0.9008355 0.27547303 -1.1860127 0.74850446 -0.23836909 1.3198144 -0.60700077 -1.588405 -1.0772389 -0.97771853 -0.53602594 -0.08996499 0.5761753 0.46375188 -0.15965573 -0.48059177 -0.10583923 0.1041317 0.15045495 0.76813823 -0.25839517 0.3723944 -0.88065904 -0.036377266 -1.4101893 -0.35056925 -0.15565984 -0.12835687 0.1128451 0.5498385 0.15571246 -0.08074883 0.61190945 0.07082068 -0.8050194 0.019792298 -0.3007619 -0.67789745 0.15401126 -0.6018603 -1.1183492 -0.48175752 0.54482657 -0.54419994 -0.19203484 -0.13541 0.594239 -0.5866175 1.0978427 0.0065848804 -1.0089009 0.16370475 0.073159434 0.11120675 0.40411887 0.20271297 -0.6294684 -0.920621 -0.020976633 -0.76578426 -0.09417263 -0.18376827 0.21430285 -0.924725 0.19890742 -0.29937267 -1.3604283 -0.012406965 0.49430192 0.7882709 0.27245912 0.2404239 -0.64529175 -0.34155273 -0.6989541 -0.017572863 -0.47800234 0.2744445 -0.2575405 1.3419374 -0.7159333 0.14116383 -0.9088761 -1.6563724 0.45386767 0.3367778 0.1634104 0.9835778 -0.7004126 -0.70091146 0.38823143 0.09480185 0.083776005 0.7070349 -0.35220742 -0.83256537 -0.78886527 0.39930153 0.5583837 -0.805175 -0.41422936 0.6215487 -0.399724 0.10041972 -0.6645485 0.020251928 -0.1349859 0.4837509 -0.4302921 -0.44668135 1.342033 -0.19898891 0.22779632 0.75145626 -0.2856891 -0.41148496 -0.12369879 -1.2091906 -1.5306267 -1.0436783 0.5683662 -0.87939674 0.29315576 -0.56379336 -0.41983303 -0.92192847 0.6811917 0.7811074 1.0068012 -0.17224632 -0.6810558 0.4145236 0.43774036 0.19677202 0.48405826 0.06611126 -0.012990168 0.15069543 -0.054271456 1.2495806 -0.49394575 -1.4612287 -0.46351925 0.5172027 0.5040455 -0.16666323 0.22989058 -0.16963454 0.6947432 -1.1207106 0.18383431 0.9342149 -0.22327845 -0.055771247 0.41986838 0.48305607 -0.9834597 0.016546154 0.1917613 0.8877887 -0.8321753 0.18822344 0.41843343 0.12139184 1.1778193 -0.37901092 0.22829372 0.011640251 -0.846977 0.100653976 -0.31791332 0.25358358 0.362626 -0.2316627 -0.9723578 -0.60266274 0.8322177 0.37929845 1.156979 0.3695126 -0.7392234 -0.49200627 0.5948423 -0.25525048 -0.099400364 -0.7321348 -0.13918057 -0.26282397 -0.85140276 -0.7973776 1.0998466 -0.053903386 -0.46924058 0.5192453 -0.6244708 -0.19255859 -0.079470836 0.25196758 -0.4768323 0.44244993 1.0275655 -0.13209443 -0.7665722 0.17039871 -0.39137852 0.80826974 0.7513361 1.1184483 0.093186356 0.45316875 0.34150252 0.35983613 -1.0119528 0.03969699 -0.96990424 -0.05399443 -0.60172606 -0.45921758 1.273255 0.6081896 0.2896963 -0.4989113 0.006170834 0.16406344 -0.029229552 -0.28928602 0.47614837 -1.6062618 -0.23078205 1.0410115 -0.6164053 -0.3191315 -0.15659465 -0.79495764 1.0630969 0.8917857 -0.40955958 -0.54621744 -0.1429416 -0.2635601 -0.5798472 -0.7259965 -0.34395203 0.3343674 0.0066005685 1.4800682 0.24162161 0.60472393 1.3451191 1.4765152 0.26211348 0.3420322 0.19439189 0.12889133 -0.3081653 0.5926047 0.12655361 -0.39032602 0.81253195 -0.98546654 -0.43689203 -0.12944846 -0.9248814 0.6271052 0.14988147 -0.092028 -1.0692993 0.20588453 -0.24324344 0.8736747 -2.0458286 -0.08176354 0.5594327 1.0884186 -0.89457816 1.0489303 0.1568209 -0.57604885 0.45934892 0.8916691 -1.140212 1.0115086 -1.0503749 0.21008809 -1.3991604 -0.52275413 -0.59602606 -0.7361575 -0.76699466 -0.07414242 0.9374947 -0.17481966 -1.1719613 0.7904244 1.0507741 1.384118 -1.3059484 -0.61151284 -0.7513945 -0.35575238 -0.16537857 -0.79964477 0.6227016 -0.10114781 0.39384994 -1.4513068 0.11316484 -1.8045813 0.2708182 0.9252636 -0.9820002 -0.28089857 -0.76607805 1.2559844 -0.77683115 0.7265889 0.56994927 -1.3893476 -1.374148 -0.57679856 -0.009827912 -0.10074671 0.95651436 0.36541188 -0.5687206 0.3546659 0.12792367 0.5097394 1.0078081 0.32817075 -0.92320126 0.2548726 -1.268648 1.05678 -0.8953021 1.0665965 -0.66538745 1.0005025 -1.1534528 0.91542023 -0.8666994 0.06702136 -0.8084809 -1.21737 0.35957178 -0.4662732 -0.9504435 -0.4583262 0.1610059 1.5174845 1.514932 -0.29245627 -0.47630334 -0.7217495 -1.0247093 0.48659804 0.9937232 0.4532342 -0.26166463 0.37749228 0.90380335 0.07488934 -1.0307297 -0.5468329 -0.6905346 -0.19158308 -1.4064908 0.50541 -0.069463804 0.98412776 -0.16937697 -0.19426519 1.0266724 -0.76194316 0.10519254 0.20666802 -0.20662971 -0.21292491 0.9617307 -0.18587832 -0.07880963 -0.44095588 -0.29372835 0.6978405 1.2106586 -0.57779676 1.0351732 0.87722856 -0.14078607 -2.000754 0.123767614 0.4514269 -0.6045325 -0.48773423 0.45164147 -0.22314167 0.8045741 -1.2230042 0.77280027 1.0011768 -0.43035546 -0.91357046 0.6794658 -0.64539546 -0.9975948 -0.39596573 -0.23325044 -0.47105667 -0.10225904 -0.60648423 0.64616203 0.00813216 -0.058206987 0.67621064 -1.1413361 -0.8483169 -0.62637585 -1.1316484 -0.4300921 -1.364512 0.007023563 1.2705824 -0.23037677 0.9857691 0.0593505 0.17382365 0.9609929 0.14946555 -1.6840123 1.6230036 0.3698617 -1.4180058 -0.13302733 0.100911655 0.67925555 0.26511747 -0.5423526 1.0000399 0.39539906 0.4795328 -0.6026773 -0.36846435 -1.687404 -0.41688338 1.3945675 -0.38856044 0.878989 -1.1429659 -0.15437408 -1.4351832 0.56836396 -0.6402585 0.69457 0.2649384 -0.13446517 -0.9258439 1.6684185 -0.9047515 -0.19556327 -0.8520155 0.21098895 -0.48945308 -0.5201401 -0.59787315 1.0649658 -0.17192064 -1.4330473 -0.6096713 -0.9225505 1.0378761 -0.18417187 -1.5283622 -1.5207133 -0.8664098 -0.6352025 0.15335976 0.6566357 -0.35104036 0.085768364 0.17319834 -0.0006104509 -0.3816643 0.45653197 0.2958624 0.18706858 -1.3375715 0.14736404 0.73035604 1.5303386 1.7994944 -0.016407266 0.32992056 -0.7049749 0.9251733 0.45785776 0.21364641 1.3086764 -1.6325455 0.3879288 -1.0049973 1.9000393 0.49360588 -0.15310448 0.942841 0.2383389 0.24428004 -1.4595968 0.09495533 -0.6247106 -0.5692894 -1.4291569 0.3522613 -1.5008792 0.6921317 -1.034855 0.38925275 -0.9510223 0.7875476 -0.4685928 -1.7901422 -0.9182687 -1.629746 -0.39361706 0.14319794 0.46143076 0.3404012 -0.29932868 -0.41284403 0.7306998 0.7392814 -0.05880065 0.7689969 0.95715547 0.7621723 -1.0493479 -0.9402647 -1.4018427 -1.0009559 -0.27566218 -1.0302503 0.645346 0.5263389 -0.8704016 -1.0938863 1.5478483 0.54178745 -0.48217615 0.39906016 -0.50220233 -0.95131475 0.31601036 -0.62263995 -0.825875 -0.7432192 0.3075486 -1.0587643 -0.14033951 -0.67310303 0.5894628 -0.014463355 0.93275243 -0.16463363 -0.96445924 -0.46720096 0.57028025 -0.0006253322 -0.07234737 1.032327 -0.8293646 -1.1053541 0.1282851 -0.32012185 0.31695306 0.5863298 -0.067053534 -0.59568304 0.79011554 -0.34708217 -1.3535682 -0.6199539 0.8319767 1.7146953 -0.33528972 -0.057654545 0.2817358 0.7317255 -0.24639218 0.304512 -0.8515355 -0.2853488 -0.12800835 1.3381613 -1.341014 0.34093127 -1.0039448 -1.0642308 0.2900517 0.6317875 0.059209973 1.4650745 -0.6713821 -0.84358263 0.08850538 -0.99643105 1.079645 1.8174763 -0.43420112 -0.63849896 -2.190561 0.08548993 -0.0268163 -0.8118647 -0.9327304 0.74820447 -1.1075711 -0.7702022 -0.62088877 0.2557534 -0.5258259 0.45539466 -0.35509062 -0.25399864 0.96349233 0.020537978 0.14482509 0.63214326 -0.5968333 -0.5446603 -0.35134256 -0.62540716 -0.3135743 -0.86456776 0.5977606 -0.7845681 -0.09498259 -0.45270228 -0.57325894 -0.73494595 0.533958 0.8030947 1.246082 -0.1908813 -1.0109519 0.12002347 0.63664514 -0.5077278 0.39860913 -0.4825959 -0.4980774 0.3179706 -0.31582075 1.3017491 0.52225244 -1.6093751 -0.59099984 0.4990468 1.3032457 0.11530235 0.26274845 0.052739486 -0.11772115 -2.0229034 0.62169147 1.662671 -0.45343956 1.0432075 -0.23146367 -0.0024118274 -0.97620517 -0.14203092 0.23972158 0.5422217 0.3014277 0.1102793 -0.41467094 0.6630566 1.7612251 -0.058258798 -0.4161524 -0.08873209 0.5750535 0.8233239 -0.53067213 0.43337604 0.061880644 -0.71405476 -2.466318 -0.88634306 0.52539825 -0.12221972 -0.12841006 0.51679784 -0.6392602 -0.33941746 0.6041161 -0.019601936 -0.75232714 -0.09548384 -0.42638898 -0.62684464 -1.3466357 -1.4167825 1.029193 -0.96107024 -0.021953797 0.85118014 0.058418315 -0.12256432 0.32379904 -0.30682603 -0.35132456 1.0011333 0.9994733 0.6867142 -0.2792365 0.18689942 0.2229728 1.3618819 0.1438501 1.2566742 -0.6188876 0.7744315 0.82266665 0.87470764 -0.46761945 -0.3353168 -0.014586429 -0.50634646 0.0902892 -0.8387191 0.9554662 0.7314965 -0.39456773 -0.8627436 0.094918944 0.34702012 -0.36716828 -0.36293697 0.50044173 -1.2737432 0.14681754 1.504511 -0.6375161 0.2681524 -0.36600924 -0.92170316 0.9702428 0.62675184 0.11765853 -0.28606412 -0.25949535 -0.34718928 -0.52113503 -0.85824895 -0.63143736 0.67294 0.5847933 1.6633257 0.992338 -0.118403085 0.7137405 1.5394043 0.6997955 0.29579234 -0.6354831 0.42032185 -0.2755951 0.9752814 -0.30879584 -0.48594737 0.18623841 -1.0771251 -1.384705 -0.16366993 -0.37786698
UBP8_HUMAN 0.18647909 -0.12964968 -0.05657409 -1.4211748 0.482874 -0.86139184 1.0881839 -1.2960258 -0.010438891 -0.053863306 0.9400061 -0.6619233 0.29376218 -0.36840603 0.16040161 -0.6014918 0.79984593 -0.38518512 0.28803533 -1.3414348 0.06812705 -0.83917314 -0.5921959 -0.11750458 -0.38671067 -1.1259851 -0.24617165 0.11482418 -0.3098237 -0.30108273 0.39319775 0.91238904 1.3917785 -1.74262 -0.8488084 -0.9923702 -0.23545104 0.049117208 -1.1688083 0.3811074 0.43479183 0.82318217 -0.54777366 0.14231901 -0.74347246 -0.38457698 0.35085353 -0.21479009 -0.6641404 -0.93178236 0.83731216 -1.0809448 0.97358644 -0.46372432 -0.87438977 -0.68862563 -1.0262532 1.0901699 0.16821516 0.1741631 0.21938886 -0.37398782 -0.08247137 0.485849 0.15838572 1.0833427 0.43448973 -0.33316928 -0.09501468 -0.4515344 1.0083718 -0.3670127 0.2612234 0.32704788 1.3290203 -0.7400832 0.44839573 -0.30189613 0.062052265 -0.7214912 -0.8027772 0.04475888 -0.68693626 -0.71553105 0.6004971 0.5927393 0.68671894 0.1635605 -0.33435208 -0.7158787 -0.388626 -1.0288264 -0.016131151 0.49377573 0.07484288 -0.15636289 -0.12938792 1.0074044 0.41058892 -0.46599108 -0.773144 -0.6038844 0.5483085 -0.93841743 0.41056424 -0.21501136 0.59635055 -0.05050247 -1.0899203 0.439361 -0.19179524 1.2307582 -0.3458916 0.007018052 -0.13720667 -0.14687437 0.13220096 0.1906499 -0.15420887 -0.51734364 1.2255824 1.1570495 -0.81237155 1.2802527 0.8459215 -0.34663922 -0.880646 0.34899807 -0.68692553 -0.7305396 -0.33385614 0.48973054 -0.01658014 0.61645 -1.2533112 0.92672765 1.117044 -0.38714844 -0.7507106 0.26184088 0.58560705 -0.9247984 0.026811745 0.48915434 -1.0438969 0.22568622 -0.525194 0.59156436 -0.4382527 -0.17672977 0.32532325 -0.828775 -0.564521 -0.033733793 -0.5514849 -0.42149937 -0.79172313 -0.08424755 0.95921 0.735907 0.8394057 -0.41234094 0.7408613 1.0828598 -0.32044744 -0.8103951 1.362643 0.2355427 -1.1835194 -0.55726933 -1.1032261 1.2200754 0.007944599 0.3101049 0.39644605 0.5305633 0.402582 -0.050932117 -0.5807876 -0.677885 -0.2811386 0.35982016 -0.6376852 0.6422728 -0.93196213 0.28889713 -1.0223244 0.34106073 -0.51433843 0.03044494 -0.9354858 -0.6149434 -0.4153362 1.1196889 0.3102563 0.121625036 -0.15196458 0.4469084 -0.49534374 -0.27361605 -0.12661278 1.3336453 -0.24597037 -0.20048217 -0.742347 -0.7940854 0.9511889 -0.6512254 -1.3266804 -0.3750396 -0.67950445 -0.5477321 0.13905224 0.3100587 0.11593755 -0.21323833 -0.02473595 -0.48276943 -0.66424215 -0.15153328 0.3091523 0.33702388 -1.4145137 -0.060480088 0.47849655 1.1264322 1.0170525 -0.015012935 0.7556951 0.15137036 0.2855026 0.72333413 0.58128726 0.45926303 -0.9408159 0.15473989 -0.5362873 1.5195444 0.5216536 -0.22198173 0.61774814 0.39819878 -0.29713345 -0.9486681 0.25776923 -0.14631383 -0.39691138 -1.4924655 0.47702247 -0.9104581 0.27903146 -1.16289 0.7248634 -0.22000444 1.3545429 -0.6494111 -1.5238192 -1.0738991 -0.9993567 -0.53171027 -0.08545152 0.6155788 0.5019998 -0.16186678 -0.49410006 -0.18226211 0.1179512 0.16936943 0.8071139 -0.2379326 0.3799569 -0.95040447 -0.018051896 -1.4101045 -0.37460074 -0.16191366 -0.077643394 0.16703415 0.531124 0.11253794 -0.02986037 0.5551155 0.112867266 -0.7930099 -0.074859455 -0.3016366 -0.670745 0.120184004 -0.6366662 -1.1584933 -0.48431522 0.5083529 -0.48238325 -0.1841203 -0.15587345 0.63464665 -0.5299289 1.154784 -0.023822987 -0.90746796 0.2259024 0.016785428 0.10310404 0.35657093 0.08151177 -0.5759612 -0.8988421 -0.08293795 -0.7071216 -0.12683555 -0.23280981 0.3004328 -0.91816103 0.14365943 -0.24219069 -1.360563 0.0023220219 0.483926 0.82640433 0.32206118 0.2849397 -0.6509018 -0.3397466 -0.7256126 -0.04365591 -0.4563402 0.28083178 -0.24572925 1.3985605 -0.6624911 0.11006393 -0.8371142 -1.7445354 0.45807323 0.3826692 0.029911295 1.0039937 -0.6746902 -0.63675237 0.38588172 0.113202475 0.088373855 0.7166258 -0.344799 -0.80915546 -0.68094206 0.48372158 0.539488 -0.7586697 -0.3403486 0.5812704 -0.4654632 0.14694457 -0.5658479 0.035716843 -0.08931116 0.53347814 -0.2984958 -0.40156645 1.3871253 -0.21775235 0.18747827 0.75227225 -0.26253438 -0.3612204 -0.16691503 -1.2404372 -1.6206546 -1.0941241 0.5363222 -0.9305288 0.2936678 -0.5797844 -0.42810786 -0.88992536 0.68018156 0.7346511 0.95524645 -0.13797899 -0.6230012 0.45539206 0.41539395 0.26091003 0.4946044 0.0056532137 -0.0030926038 0.16759315 -0.091430925 1.2256725 -0.50075084 -1.3701262 -0.44844526 0.49528325 0.42270344 -0.13972132 0.25000322 -0.1580427 0.6748195 -1.0645205 0.19729401 0.9134152 -0.28732443 -0.1357704 0.40352577 0.5274356 -0.96014863 0.0557652 0.2102911 0.9128865 -0.88708746 0.093144685 0.50590646 0.09111456 1.1359589 -0.4046425 0.20938636 0.022134023 -0.7907442 0.08376868 -0.36970842 0.2729783 0.38512042 -0.18214256 -0.99756 -0.5629271 0.91047513 0.39021105 1.22686 0.27590844 -0.7285493 -0.47226688 0.6810472 -0.2740793 -0.076800734 -0.7130089 -0.10007171 -0.21167806 -0.8150208 -0.80597895 1.078439 0.00377509 -0.45562303 0.5459228 -0.56851995 -0.121591255 -0.15662757 0.29166242 -0.540732 0.44390056 0.92290586 -0.18483953 -0.8419229 0.16272394 -0.41103822 0.6714062 0.7345921 1.1136389 0.05469667 0.39678642 0.29877996 0.26977718 -1.0011151 0.121723235 -0.9945165 0.061787307 -0.6375905 -0.45241106 1.1613973 0.6312723 0.29164958 -0.49832693 -0.019127764 0.08492566 -0.044887137 -0.33444768 0.41979957 -1.6648934 -0.28449804 1.0625615 -0.6192691 -0.32096696 -0.16142559 -0.7745049 1.052856 0.9538282 -0.42370936 -0.63073814 -0.16963524 -0.28399485 -0.51768374 -0.79061586 -0.33104926 0.31434226 -0.038403716 1.4616688 0.2189813 0.67081296 1.3976538 1.48458 0.1384237 0.34522623 0.111086324 0.10522629 -0.35829994 0.5618899 0.15933698 -0.33228672 0.8382945 -0.96216 -0.41325575 -0.05944842 -0.9956408 0.5802043 0.175756 -0.090151876 -1.0330386 0.22499318 -0.23888347 0.81631374 -2.0251355 -0.015960164 0.596088 1.0025141 -0.88806057 1.0086179 0.1628492 -0.56599444 0.48198673 0.8437425 -1.0630155 1.0374534 -1.0204418 0.19634116 -1.3554286 -0.46727055 -0.62733155 -0.7468755 -0.73545057 -0.01480221 0.89654994 -0.105347075 -1.2410731 0.69731545 0.97790956 1.3954108 -1.2904296 -0.58135563 -0.7375212 -0.34460986 -0.14028417 -0.7218034 0.66013 -0.046664268 0.45252705 -1.447084 0.1617515 -1.8107994 0.28760615 0.88689023 -0.96401966 -0.24129024 -0.70156 1.3313744 -0.6908102 0.66224444 0.6049293 -1.3596883 -1.3004351 -0.52333474 0.009417005 -0.09643318 0.9556167 0.3696904 -0.55629414 0.37868285 0.15490398 0.47070867 0.9868789 0.30831015 -0.9556177 0.30384615 -1.2060134 1.0117552 -0.8568777 1.0730865 -0.6428093 0.9122757 -1.12848 0.8748889 -0.88513803 0.12812784 -0.7800653 -1.127672 0.37757277 -0.45634046 -0.9502697 -0.5033848 0.19151488 1.4749597 1.5107589 -0.26714206 -0.4840129 -0.78738964 -0.98672926 0.5097418 0.95766777 0.3869834 -0.2054551 0.31261396 0.89602506 0.039224446 -1.0192217 -0.46801302 -0.7294909 -0.22742194 -1.3753775 0.49475682 -0.08118338 1.000542 -0.17341153 -0.14788209 0.96922696 -0.7517479 0.04535032 0.19002509 -0.23513173 -0.2124195 0.96351063 -0.24680933 -0.10104555 -0.44145554 -0.27879068 0.69014585 1.127849 -0.5165897 1.0503335 0.8548572 -0.12758175 -2.0056322 0.11105269 0.5209694 -0.5909277 -0.46002483 0.43422902 -0.19119263 0.8042042 -1.1644047 0.8092259 0.98971206 -0.52928495 -0.92562526 0.6525425 -0.64536047 -0.9700144 -0.43964615 -0.24439162 -0.44574243 -0.08137949 -0.6316294 0.62107265 0.013271555 0.007925194 0.67250633 -1.1375093 -0.83392304 -0.61027706 -1.0691988 -0.39417103 -1.3110638 -0.03765689 1.2486119 -0.30715126 0.9681362 0.007228285 0.21245797 0.95605224 0.15611076 -1.6615732 1.6047435 0.38409668 -1.3632622 -0.12921025 0.09734222 0.6768347 0.2558114 -0.525417 1.0226396 0.39819276 0.44582456 -0.58739215 -0.34956825 -1.6666164 -0.4271755 1.3549372 -0.3992594 0.91577595 -1.1708182 -0.15556234 -1.3855145 0.6342983 -0.5763028 0.697732 0.2895593 -0.0486931 -0.87801766 1.6258696 -0.9273107 -0.22732821 -0.8353626 0.14156055 -0.48764816 -0.52374744 -0.6353572 1.0173218 -0.1669516 -1.5372418 -0.57865846 -0.9112695 1.0044432 -0.24033393 -1.4653668 -1.4679235 -0.8980783 -0.6638746 0.16210182 0.5992791 -0.36844516 0.07862862 0.1695742 0.024329804 -0.38168567 0.4865481 0.2770935 0.20821506 -1.268306 0.10120908 0.7584147 1.4758229 1.7362862 -0.009772215 0.3024273 -0.72216254 0.950984 0.47127664 0.23979738 1.2673264 -1.6189361 0.3371896 -1.0091946 1.7863352 0.48663446 -0.14777717 0.94483936 0.20509925 0.23292717 -1.4345772 0.10815575 -0.63332784 -0.56300354 -1.3908027 0.33835185 -1.5518069 0.7107804 -0.9542472 0.38746583 -0.97371453 0.7394922 -0.43365026 -1.7459161 -0.82577115 -1.6586596 -0.36993948 0.06751946 0.45623043 0.29115325 -0.21492526 -0.4129116 0.7707256 0.72625417 -0.03808257 0.71289074 0.9733643 0.8156923 -1.0590405 -0.91448385 -1.3613999 -1.0121951 -0.32815337 -0.9748439 0.64847237 0.47733155 -0.82217336 -1.1005243 1.5707526 0.49930024 -0.50111866 0.45667574 -0.50561774 -0.9031756 0.27783105 -0.6196907 -0.8244029 -0.6471149 0.3458116 -1.0513158 -0.13104498 -0.69918287 0.62099504 0.015843108 0.91460437 -0.13729584 -0.95351243 -0.4914084 0.5661296 0.016180646 -0.10256944 0.99710166 -0.7276224 -1.0483775 0.08942637 -0.28419653 0.27327627 0.6252196 -0.10095468 -0.56266135 0.74880236 -0.35684586 -1.2974935 -0.6008202 0.8903622 1.6910273 -0.410279 -0.073270075 0.2284129 0.75969124 -0.23159261 0.35956228 -0.91436744 -0.30917996 -0.14456762 1.3230922 -1.3415875 0.31124574 -1.0553628 -1.0860612 0.25357878 0.6893722 0.0020928606 1.394391 -0.6376996 -0.83489 0.12086007 -1.0498348 1.1236223 1.8103337 -0.43068808 -0.5987572 -2.109867 0.08830185 -0.06866803 -0.75241315 -0.85025406 0.7426079 -1.1550117 -0.8192905 -0.572186 0.25794214 -0.4727918 0.46352512 -0.36369482 -0.21940184 0.95716137 0.0069311857 0.17646785 0.54263747 -0.6136057 -0.5105943 -0.33112657 -0.5918602 -0.33255917 -0.84047925 0.5294115 -0.7492244 -0.07992917 -0.45435253 -0.5939361 -0.67690814 0.5536397 0.74183327 1.2246836 -0.08062427 -0.9539138 0.12246135 0.63907176 -0.47255015 0.37571517 -0.50792134 -0.5190768 0.25283146 -0.39818907 1.2826142 0.64493835 -1.6341047 -0.55401015 0.5063951 1.2446868 0.118179716 0.28104925 0.08992772 -0.13257098 -1.9303241 0.6792917 1.6585554 -0.48972932 0.97724026 -0.24377574 -0.03811056 -0.9668316 -0.14144558 0.2652121 0.5446579 0.39059782 0.041952007 -0.42520803 0.6753068 1.7281301 -0.08091405 -0.38465714 -0.14866382 0.6048535 0.81247914 -0.53468204 0.48796096 0.066681534 -0.7823231 -2.4745314 -0.82625186 0.49062318 -0.15109837 -0.16121034 0.48556596 -0.68630904 -0.32316583 0.6269522 -0.07254237 -0.7740159 -0.1084506 -0.37501425 -0.5825478 -1.3499289 -1.4500093 0.9869983 -0.9702632 -0.0013549253 0.8349223 0.024429597 -0.13989884 0.2882004 -0.32157993 -0.3615021 1.0141943 0.94538367 0.67234284 -0.32812947 0.17177634 0.1582354 1.3092041 0.12703483 1.2223867 -0.7057353 0.70001084 0.8722159 0.8602113 -0.42335647 -0.24064314 0.020782396 -0.50405276 0.061700042 -0.79588956 0.9480939 0.7097975 -0.37812054 -0.8471694 0.040097926 0.33913827 -0.4239186 -0.3652869 0.49365938 -1.2183931 0.2059362 1.3986177 -0.6410596 0.3201819 -0.36887735 -0.9533428 0.94105756 0.57790184 0.07293312 -0.2793529 -0.25445393 -0.37949476 -0.52449733 -0.83543414 -0.61772656 0.6778082 0.5540559 1.6039987 1.0001318 -0.070975736 0.6740608 1.4850365 0.6734185 0.24680328 -0.6661546 0.46519428 -0.3126681 1.0008223 -0.2909698 -0.48666582 0.17081651 -1.0125643 -1.3792467 -0.11316407 -0.45657873
UBP21_HUMAN 0.17672434 -0.08773776 -0.08008106 -1.3917835 0.46141052 -0.8611644 1.0034955 -1.2792147 0.023027213 -0.10178993 0.8909898 -0.6733887 0.3060442 -0.35396916 0.1375905 -0.5919615 0.77882564 -0.33933622 0.23638745 -1.4289782 -0.04064942 -0.8526756 -0.5480592 -0.09785744 -0.3305325 -1.1254389 -0.16959839 0.02268973 -0.27846828 -0.31261522 0.36003014 0.85965395 1.3566494 -1.8231713 -0.84515923 -1.0609887 -0.30465326 0.06928297 -1.2582042 0.44000587 0.5239042 0.719028 -0.5019914 0.093970045 -0.65495074 -0.38256574 0.33308882 -0.17873523 -0.6790894 -0.9852253 0.7866312 -1.0822718 0.9786299 -0.5006962 -0.84553194 -0.61014074 -1.0785923 1.093961 0.1580212 0.16217914 0.24362206 -0.34483963 -0.085064754 0.44570225 0.13133189 1.1209667 0.38718656 -0.29440203 -0.13357759 -0.38691646 0.923938 -0.33074802 0.2400641 0.3370623 1.3379492 -0.7160833 0.46614242 -0.29103935 0.0026476115 -0.66476244 -0.7931626 0.052021123 -0.7339715 -0.6459192 0.62203586 0.66861236 0.6041116 0.15166786 -0.34973556 -0.74022883 -0.38300508 -1.005398 -0.047914438 0.50596464 0.014336851 -0.2025923 -0.17395623 1.0333141 0.4169922 -0.39307743 -0.77305067 -0.53616315 0.49164516 -0.9826993 0.4406337 -0.2780659 0.5552172 0.0012996197 -1.0570716 0.41249067 -0.19301835 1.2386885 -0.2394081 -0.04671882 -0.12884298 -0.15052618 0.17091891 0.17916843 -0.05060661 -0.5739764 1.220165 1.10254 -0.8030861 1.2911053 0.8622038 -0.3136832 -0.86656415 0.35208806 -0.709359 -0.7543743 -0.43010855 0.56389797 0.015573749 0.6144074 -1.2753426 0.8468648 1.1504731 -0.41167003 -0.76612127 0.22462407 0.61333954 -0.93208426 0.061427366 0.49788657 -1.0530865 0.25196618 -0.57307637 0.6060232 -0.42231688 -0.17126474 0.36755306 -0.82774436 -0.50731933 -0.044469252 -0.522387 -0.3656194 -0.76237637 -0.18250227 0.92787564 0.79748946 0.92612773 -0.413872 0.7899412 1.1383108 -0.30300695 -0.7405779 1.3471642 0.22200373 -1.2199577 -0.5994024 -1.1736761 1.2676461 -0.0574762 0.31182426 0.31154317 0.5575336 0.43000975 0.06256577 -0.602767 -0.65864325 -0.29462695 0.26180086 -0.664189 0.66905373 -0.9541768 0.24587233 -1.0188221 0.28826323 -0.49391103 -0.0054962384 -0.99307215 -0.63839036 -0.36943123 1.0805078 0.34616858 0.13470398 -0.1724701 0.44209233 -0.46478167 -0.24632421 -0.08700101 1.2660981 -0.2339957 -0.18295893 -0.7323915 -0.8416936 0.9510781 -0.66341144 -1.3593458 -0.3441768 -0.6373957 -0.5869281 0.17706339 0.2586151 0.11842239 -0.19925977 0.014351115 -0.4561277 -0.70742935 -0.17105237 0.3379482 0.3364398 -1.4424933 -0.03475694 0.4537447 1.0827303 1.0171006 0.031024659 0.763007 0.25025734 0.24974117 0.7364268 0.577859 0.3995212 -0.8504912 0.14588653 -0.5447772 1.498885 0.5035327 -0.23572898 0.626789 0.41957217 -0.38669887 -0.95680064 0.25771728 -0.13606644 -0.5042614 -1.5381582 0.49400073 -0.908933 0.28893316 -1.1847421 0.6823892 -0.1964452 1.4057543 -0.69471914 -1.4734402 -1.1016607 -1.0053446 -0.5467801 -0.082563676 0.68707836 0.5600392 -0.19239244 -0.49716607 -0.21249811 0.17119148 0.1668576 0.8348862 -0.18057981 0.36397204 -1.006789 -0.030625612 -1.4174504 -0.4031516 -0.115027405 -0.04346068 0.22363952 0.5189102 0.05417617 0.008847967 0.4810082 0.15092674 -0.77962554 -0.17593285 -0.30639964 -0.6757604 0.09050093 -0.6843772 -1.2088034 -0.559829 0.44434443 -0.43200755 -0.16497919 -0.13907236 0.6774856 -0.44661227 1.206283 -0.07002518 -0.82852685 0.2751619 -0.039301813 0.08632475 0.3289976 -0.046723407 -0.56325555 -0.8744791 -0.13409905 -0.6730782 -0.12764466 -0.2833112 0.3955164 -0.9232788 0.11817561 -0.18928549 -1.3814765 -0.0023080588 0.4672982 0.8673339 0.37597173 0.31404722 -0.69137955 -0.36416435 -0.7517234 -0.06733543 -0.4232514 0.29987913 -0.23951554 1.4589486 -0.61792314 0.13353431 -0.77247787 -1.8229965 0.44472522 0.44292277 -0.034698892 1.0133824 -0.65753704 -0.5796738 0.4107534 0.1424627 0.08683465 0.7148913 -0.34946218 -0.82656324 -0.6215144 0.59347373 0.5239846 -0.71607816 -0.29115915 0.53733087 -0.5455139 0.22498775 -0.48496956 0.07080543 -0.045261856 0.6102028 -0.19421555 -0.3694718 1.4420668 -0.26010466 0.17765327 0.7704134 -0.23602311 -0.34272847 -0.20673509 -1.2817667 -1.7130896 -1.1417425 0.5003459 -0.99182713 0.2994727 -0.60154796 -0.4480967 -0.8618258 0.66003215 0.7208308 0.9206195 -0.13123071 -0.5671647 0.47426254 0.42697072 0.30897972 0.54217976 -0.046930317 0.0013000645 0.18318452 -0.11348261 1.2369705 -0.5286186 -1.3195107 -0.45619306 0.48394498 0.3746791 -0.13481009 0.26768374 -0.16046095 0.65405613 -1.0115658 0.21494058 0.9193679 -0.33363312 -0.2019495 0.36086679 0.5657403 -0.9537425 0.11445942 0.2518521 0.93122613 -0.9541771 -0.004766607 0.6051928 0.040366374 1.1271021 -0.43341407 0.20854299 0.03862991 -0.7379675 0.080888994 -0.42342862 0.28335375 0.37264183 -0.117792085 -1.0255741 -0.5243736 0.9909037 0.42835227 1.3103559 0.16754723 -0.71721303 -0.47975487 0.76546323 -0.30305108 -0.046764363 -0.7000155 -0.093518764 -0.17599544 -0.7690824 -0.80507773 1.0499134 0.02424786 -0.46173495 0.5766296 -0.51479834 -0.05934348 -0.22886641 0.3312795 -0.6226789 0.4263982 0.83488846 -0.20112213 -0.91392106 0.17510323 -0.40914315 0.5506867 0.6987424 1.1267874 0.04187103 0.3519835 0.23476887 0.18984455 -0.9754915 0.18506232 -1.0310047 0.15175357 -0.64386195 -0.49474755 1.0747588 0.6574349 0.29121387 -0.5352065 -0.049583763 0.021721149 -0.06356726 -0.3731939 0.3563766 -1.7301357 -0.34586722 1.1071475 -0.5787843 -0.31613928 -0.18367036 -0.7500804 1.0483208 1.0259917 -0.45294467 -0.7225496 -0.19846348 -0.3192352 -0.48081893 -0.8828615 -0.2953964 0.29643032 -0.049401704 1.4266442 0.22388616 0.7540592 1.4253606 1.5050379 0.03773675 0.31622294 0.0384893 0.075963244 -0.41683578 0.5227035 0.1970338 -0.2844816 0.872789 -0.9677765 -0.41586176 -0.0034602224 -1.0507268 0.54770935 0.14657943 -0.07983536 -1.0071576 0.21078646 -0.24279442 0.7941993 -1.9518907 -0.03528649 0.5532557 0.99724996 -0.87278557 0.99665177 0.15020142 -0.5527999 0.4256959 0.8292593 -1.0546443 0.98171884 -0.99430573 0.2174881 -1.3013934 -0.51592827 -0.5988293 -0.73712856 -0.679695 -0.087802954 0.879087 -0.13013443 -1.1515464 0.70160997 0.94225675 1.336915 -1.2371494 -0.59051734 -0.6679822 -0.31182426 -0.14975175 -0.71591914 0.6226364 -0.034275364 0.42984486 -1.385965 0.118978225 -1.6959738 0.25003472 0.85123575 -0.95448464 -0.26852602 -0.71616757 1.2940207 -0.6666108 0.63065755 0.5837523 -1.3329107 -1.2329121 -0.51057816 0.04736966 -0.07841723 0.9414011 0.39079452 -0.5785762 0.33614343 0.17412324 0.46655875 0.9447335 0.28847715 -0.9322176 0.26854748 -1.1797076 1.0020715 -0.8082239 1.014948 -0.60204 0.9406358 -1.0743634 0.8410738 -0.8530157 0.09544012 -0.76433575 -1.1151298 0.3693462 -0.428545 -0.9490814 -0.4807543 0.16801623 1.4423013 1.4395478 -0.26395935 -0.4463458 -0.731012 -0.99970925 0.4706599 0.946838 0.4123384 -0.22202761 0.29999608 0.8518265 0.040562015 -1.0106485 -0.49013376 -0.71538013 -0.21999387 -1.3230116 0.4803958 -0.0875911 0.9234293 -0.14669439 -0.17547849 0.95180637 -0.7182975 0.07763239 0.19800028 -0.20184965 -0.17513676 0.8534907 -0.2311564 -0.10813429 -0.511093 -0.27024826 0.6902887 1.1177423 -0.5370628 1.0294033 0.86447275 -0.14770553 -1.9439859 0.11678092 0.43289876 -0.61570764 -0.4260702 0.4131837 -0.21479042 0.7976014 -1.120492 0.8265835 1.0152383 -0.48738354 -0.87774926 0.648359 -0.63225794 -0.9375309 -0.34349307 -0.25243503 -0.47756535 -0.072101995 -0.6321536 0.61611986 0.0093831625 -0.022029247 0.6233867 -1.0887156 -0.8459176 -0.6016901 -1.0558542 -0.35069633 -1.2758458 0.004107222 1.241338 -0.27056298 0.9285819 -0.0026188015 0.16456564 0.9231154 0.16062465 -1.6247774 1.5648016 0.3729113 -1.3752272 -0.09951903 0.061258476 0.6779641 0.2701424 -0.5377132 0.9760064 0.3997223 0.43745202 -0.5573288 -0.34471694 -1.6008123 -0.38646236 1.300003 -0.35930532 0.89691246 -1.1491028 -0.09142905 -1.3609155 0.5923981 -0.5667778 0.6432093 0.26573187 -0.11848652 -0.86046946 1.5974282 -0.8799375 -0.22101991 -0.8369424 0.16855812 -0.47062665 -0.5454658 -0.5929836 0.98380107 -0.19180682 -1.5295779 -0.5784789 -0.8981741 0.99117136 -0.27103227 -1.4766607 -1.3711944 -0.80245227 -0.61345655 0.1725592 0.6000393 -0.29335922 0.049777143 0.15311031 -0.051796068 -0.37634435 0.41941506 0.25948757 0.18158539 -1.2431898 0.13286391 0.7683016 1.4397541 1.6996288 -0.04272112 0.28619057 -0.7430099 0.8895525 0.4529348 0.24647017 1.2300042 -1.5103487 0.38033637 -0.9294809 1.7612457 0.46582603 -0.10404513 0.85784686 0.17414825 0.21996817 -1.3999714 0.12340865 -0.58506835 -0.5819216 -1.4039332 0.3260194 -1.5213058 0.66246915 -0.94282264 0.3650859 -0.9327316 0.7453416 -0.43012515 -1.7098818 -0.8497542 -1.5879767 -0.37936693 0.03549061 0.4634334 0.29885343 -0.2110621 -0.4043258 0.7601221 0.6983036 -0.06272278 0.67857903 0.920869 0.7729447 -1.0107573 -0.86565816 -1.3139818 -0.95709217 -0.28995755 -0.9367199 0.62172043 0.49110422 -0.8013355 -1.0141567 1.4931653 0.46026152 -0.4844655 0.4310903 -0.46371794 -0.8481227 0.24731836 -0.6377514 -0.84284306 -0.68226707 0.36864132 -0.9825487 -0.092982136 -0.6349491 0.6229532 -0.024887353 0.8815732 -0.16434424 -0.94310254 -0.48229986 0.55697334 -0.042989098 -0.059931654 0.9645383 -0.764494 -1.0269504 0.14409855 -0.32667202 0.31202608 0.59552735 -0.084390536 -0.58741266 0.706833 -0.3381702 -1.2508421 -0.54881966 0.8323019 1.6548399 -0.40468898 -0.017230833 0.24410503 0.70539457 -0.25559595 0.31069225 -0.88227004 -0.24897215 -0.13820413 1.2715681 -1.2587717 0.30880025 -1.0502087 -1.0783811 0.26107734 0.6175406 0.06648324 1.3129447 -0.62497514 -0.80365914 0.11678072 -0.9904149 1.1023554 1.7159822 -0.3789678 -0.5682396 -2.0102065 0.066838905 -0.027090201 -0.7300247 -0.8082504 0.71173227 -1.0969403 -0.7819095 -0.6503703 0.2399883 -0.46772543 0.43656415 -0.344433 -0.19635417 0.9495624 0.0064971447 0.2485255 0.4887045 -0.5895491 -0.5242109 -0.28256798 -0.5841671 -0.32816306 -0.83658427 0.54271615 -0.73495567 -0.05780195 -0.43712002 -0.5534151 -0.6433337 0.5479406 0.72315913 1.1220229 -0.09435641 -0.8838488 0.1338553 0.657703 -0.4706567 0.40439233 -0.43678683 -0.5092304 0.25700283 -0.38859496 1.2245352 0.5709767 -1.5857773 -0.5472992 0.46671352 1.2026656 0.060067248 0.28341815 0.08298574 -0.12903535 -1.8971455 0.6323457 1.5814373 -0.45898622 0.92012537 -0.21287541 0.0060588745 -0.9931756 -0.13530028 0.2591879 0.5249623 0.34539145 0.060883284 -0.3871284 0.6743935 1.6480119 -0.07550324 -0.32555437 -0.14522716 0.55353427 0.7642108 -0.5152804 0.4773191 0.07166489 -0.70725936 -2.301442 -0.80798894 0.46512404 -0.06414471 -0.12573321 0.48873264 -0.669371 -0.29202855 0.615209 -0.13547345 -0.73659146 -0.1166898 -0.35764056 -0.5352152 -1.3050287 -1.3778684 1.0177667 -0.93290824 0.033062987 0.78485745 0.015322978 -0.10998429 0.29809505 -0.2990944 -0.35787925 0.96229905 0.9120113 0.63484347 -0.35319427 0.15706652 0.18259092 1.325869 0.12391086 1.1893219 -0.66924214 0.68639225 0.8198226 0.8387228 -0.45303732 -0.2571184 -0.0056685745 -0.52345574 0.0766003 -0.82862186 0.9656061 0.6786419 -0.37305096 -0.85590804 0.052441042 0.32802472 -0.4265886 -0.3560411 0.4901988 -1.192789 0.12179494 1.3906887 -0.6244112 0.3003637 -0.40366077 -0.96996534 0.9524627 0.5921916 0.081140205 -0.28413922 -0.2421596 -0.37066388 -0.5485578 -0.80196285 -0.5822777 0.67729014 0.5364003 1.5761255 0.9683976 -0.048772953 0.68612057 1.4518328 0.640875 0.27094543 -0.5642777 0.4125495 -0.2752676 0.9583169 -0.28701007 -0.44019014 0.20179439 -1.011384 -1.3478117 -0.11616206 -0.41530353
USP9X_HUMAN 0.17107521 -0.0576141 -0.10758776 -1.3807011 0.45327058 -0.87465 0.9432142 -1.2706575 0.050739717 -0.10427701 0.88096976 -0.6707316 0.3244418 -0.3578793 0.13622843 -0.57312006 0.7586008 -0.30866945 0.19180922 -1.468047 -0.09228635 -0.86659503 -0.521038 -0.072795935 -0.28869388 -1.1463717 -0.11136413 -0.02338543 -0.25781 -0.3455501 0.34083703 0.853703 1.3374988 -1.8715359 -0.8383441 -1.1048981 -0.3572956 0.07832846 -1.3244191 0.47620776 0.5869737 0.65694934 -0.49049088 0.07060293 -0.62839615 -0.38114297 0.30747584 -0.15482362 -0.6741325 -1.0054969 0.7509024 -1.0729661 0.989718 -0.51732945 -0.83386546 -0.5675758 -1.1192225 1.0929846 0.13875724 0.1616942 0.26463497 -0.31880847 -0.09784154 0.4215878 0.10513168 1.1321436 0.36793944 -0.2652044 -0.16735679 -0.3329328 0.87413263 -0.31021073 0.22149386 0.37147364 1.3439975 -0.7015502 0.46622774 -0.2776355 -0.042989463 -0.6437144 -0.8000832 0.04989558 -0.7871354 -0.6132887 0.6518371 0.7271587 0.55478144 0.12453434 -0.36364284 -0.76807016 -0.3805494 -0.995251 -0.07521716 0.5185458 0.0040877834 -0.22576912 -0.20585935 1.0451466 0.42526844 -0.3628125 -0.7642185 -0.5024592 0.4832858 -1.0059944 0.4718522 -0.30903962 0.5475963 0.026066795 -1.0296966 0.4029074 -0.17795573 1.2294906 -0.17834248 -0.08259191 -0.11240981 -0.1756139 0.19344531 0.1618882 0.015920078 -0.58496803 1.2353659 1.0733651 -0.79915935 1.2878273 0.8478586 -0.30379525 -0.85972816 0.35500464 -0.7321923 -0.773942 -0.48105082 0.5918341 0.038464863 0.61591846 -1.2924128 0.8010683 1.1753241 -0.44332543 -0.79946524 0.21285015 0.61610585 -0.9317627 0.0855939 0.5045498 -1.0765697 0.27206296 -0.6010879 0.61794955 -0.40900663 -0.15956295 0.40201068 -0.83223754 -0.4810908 -0.057146728 -0.50479907 -0.32834002 -0.7592971 -0.23648031 0.9216004 0.83806276 0.9626775 -0.43257582 0.8087049 1.1584885 -0.29260424 -0.67777276 1.3714644 0.20595747 -1.2453264 -0.62784284 -1.2358834 1.3072218 -0.10507164 0.3250717 0.27404144 0.56853396 0.45430604 0.12383128 -0.6303709 -0.64279145 -0.2831243 0.20349574 -0.6882589 0.70318073 -0.9798529 0.23652732 -1.041581 0.23842506 -0.47404918 -0.032441188 -1.046578 -0.634286 -0.35071754 1.0658675 0.38757956 0.1540912 -0.17793755 0.4519196 -0.43919122 -0.22549331 -0.08955306 1.2514052 -0.23146518 -0.15145184 -0.74447393 -0.88989407 0.95239043 -0.6676977 -1.3809566 -0.34453142 -0.62603796 -0.5939166 0.21747886 0.22708005 0.110942036 -0.20256108 0.019793347 -0.43974915 -0.7363128 -0.18171084 0.33463678 0.34778452 -1.4616394 -0.014240253 0.44099483 1.0586929 1.0219723 0.063824035 0.78172207 0.31411085 0.23442174 0.7444101 0.5839391 0.3652346 -0.8125171 0.14146018 -0.56388074 1.4698373 0.499146 -0.2404661 0.6286926 0.44780543 -0.4390905 -0.96656585 0.26557 -0.113364585 -0.5752812 -1.5561315 0.49062595 -0.9019098 0.2884366 -1.1981407 0.6644672 -0.17464702 1.4474335 -0.71512693 -1.4480737 -1.119765 -1.0120568 -0.55267423 -0.08082495 0.73652434 0.5759982 -0.19594985 -0.48967567 -0.23904212 0.18719374 0.14702703 0.8627164 -0.16715722 0.37307668 -1.0491745 -0.013630524 -1.4321858 -0.42352661 -0.097574554 -0.017191302 0.25755858 0.5269665 0.009449132 0.02591022 0.4416127 0.18430895 -0.7537518 -0.2340647 -0.2940553 -0.6840698 0.06251165 -0.7127964 -1.2336582 -0.59704 0.41421187 -0.40699753 -0.16275589 -0.12623943 0.71776134 -0.387449 1.2434064 -0.09188064 -0.7774351 0.30181065 -0.07102281 0.07028092 0.30735543 -0.13012943 -0.5529784 -0.8719837 -0.1580133 -0.6591309 -0.140043 -0.28465715 0.43833956 -0.925829 0.11937476 -0.14713378 -1.3854179 -0.008828702 0.46464455 0.89904004 0.42539477 0.31269482 -0.7244032 -0.36868072 -0.77443916 -0.067306705 -0.38492456 0.3195317 -0.22086151 1.50223 -0.5813646 0.1669259 -0.7284188 -1.864236 0.41538224 0.48342714 -0.0830986 1.0121878 -0.6316703 -0.55156046 0.4078753 0.14866461 0.08908114 0.71333855 -0.3705783 -0.85660726 -0.61546016 0.66216683 0.5377254 -0.6886623 -0.2939704 0.53648275 -0.5955321 0.29933345 -0.43736792 0.11447596 -0.035557184 0.6744035 -0.13333574 -0.35366103 1.4830605 -0.30708686 0.17298947 0.7863801 -0.22330998 -0.32631144 -0.2381155 -1.3039268 -1.7714443 -1.1686808 0.49532852 -1.0356708 0.2905586 -0.65292937 -0.44626823 -0.8395414 0.6464402 0.6878156 0.9062887 -0.12915312 -0.52965933 0.48795256 0.4287884 0.34019515 0.55975044 -0.08118404 0.034095954 0.1990398 -0.1013473 1.2310458 -0.54552096 -1.2918553 -0.46895 0.48941982 0.35485277 -0.14930296 0.28476968 -0.16436978 0.65615165 -0.98970884 0.2356442 0.9066102 -0.35071877 -0.24729769 0.34810898 0.6083556 -0.93041325 0.14122479 0.2734883 0.96162885 -1.0040671 -0.0656415 0.6743447 -0.0031154503 1.120035 -0.44923863 0.1924448 0.048692998 -0.7263891 0.07673237 -0.4756786 0.2894792 0.36566603 -0.073797666 -1.0493933 -0.52375895 1.0336889 0.45696545 1.3732384 0.08812051 -0.7006549 -0.5085478 0.80735946 -0.29629964 -0.025167987 -0.68360186 -0.08064803 -0.1716687 -0.7414475 -0.81697196 1.0255822 0.036915064 -0.46026227 0.5756891 -0.48514786 -0.015526977 -0.25337508 0.34389845 -0.69175744 0.40949962 0.7956745 -0.20688105 -0.9580141 0.18955688 -0.42150748 0.48822233 0.704606 1.1524774 0.043376107 0.33474556 0.20365532 0.15973955 -0.9621895 0.23668332 -1.0634869 0.21035647 -0.6542822 -0.5319945 1.0096624 0.67759037 0.30597094 -0.54200906 -0.07761336 -0.011602064 -0.074411765 -0.37513188 0.3374888 -1.7828093 -0.3890967 1.1367642 -0.5433752 -0.33638993 -0.19118805 -0.7421189 1.0431299 1.0543363 -0.46936572 -0.77642316 -0.23526043 -0.32325658 -0.46318054 -0.9456876 -0.29974124 0.2777365 -0.05648303 1.3961276 0.24058485 0.79496676 1.4489263 1.5153071 -0.03617314 0.31400064 -0.009408946 0.07377254 -0.45409027 0.50105596 0.21164449 -0.25206998 0.8866535 -0.97147036 -0.4150945 0.035395365 -1.1124793 0.5276582 0.16273187 -0.064037286 -0.9965194 0.20633854 -0.25479522 0.74739105 -1.9714361 -0.009715888 0.5902119 0.997914 -0.85215974 1.027348 0.15593858 -0.5599229 0.4400046 0.81963915 -1.0486253 0.9940285 -0.99275523 0.22120063 -1.3151948 -0.4988221 -0.6055507 -0.7331374 -0.6672438 -0.05563995 0.8744727 -0.081489265 -1.2052166 0.6561865 0.9151357 1.3431641 -1.2301773 -0.5938064 -0.6927336 -0.31742564 -0.1282679 -0.6827469 0.6382334 0.004298852 0.4368247 -1.3937625 0.16230078 -1.722743 0.2587986 0.82842857 -0.9678123 -0.23547523 -0.6820378 1.3359365 -0.6455934 0.60346466 0.6007426 -1.32033 -1.2174071 -0.47962582 0.03007684 -0.07505712 0.9669123 0.39445856 -0.59095794 0.35957572 0.18761723 0.45184457 0.9191332 0.28850666 -0.9312053 0.28788248 -1.1446825 0.99245596 -0.7855458 1.0157825 -0.5963815 0.91712046 -1.0761613 0.81754845 -0.86802036 0.13606139 -0.77237874 -1.1224908 0.36855602 -0.4365605 -0.95866156 -0.4960355 0.16189165 1.4214061 1.452465 -0.2732903 -0.45809472 -0.7697634 -0.9791863 0.49272183 0.94476813 0.39317146 -0.21070476 0.2780114 0.85701084 0.026862232 -1.0179974 -0.45215175 -0.7361489 -0.22244948 -1.2965735 0.49563965 -0.088427685 0.9529658 -0.14439116 -0.13190658 0.93130034 -0.7253427 0.03296342 0.20670421 -0.22405632 -0.16140974 0.85888845 -0.27606943 -0.14548665 -0.52478206 -0.26452515 0.6994681 1.0868026 -0.5405072 1.0483013 0.8635702 -0.16218391 -1.9524978 0.0942736 0.46913898 -0.6013183 -0.42045355 0.40347186 -0.21851023 0.8014944 -1.0626382 0.82233644 1.0168649 -0.55660206 -0.9180749 0.6493878 -0.6676132 -0.918776 -0.38114738 -0.2602494 -0.45870316 -0.07583076 -0.6599441 0.59134465 0.017173069 0.019085797 0.61333174 -1.1125108 -0.8533314 -0.6113146 -1.0580388 -0.3218406 -1.2788253 -0.017500227 1.2478148 -0.29848555 0.9465311 -0.03522384 0.16234982 0.9266282 0.16491796 -1.6262208 1.5918361 0.38717738 -1.3639067 -0.10814259 0.053380445 0.69695884 0.24259043 -0.55594814 0.97684765 0.41310513 0.43107536 -0.5374916 -0.33999252 -1.6196095 -0.37797973 1.3066949 -0.36045316 0.9378118 -1.1670977 -0.09643518 -1.3623223 0.61862546 -0.5499809 0.6643397 0.27790034 -0.085728206 -0.85601884 1.5966347 -0.8958781 -0.24617898 -0.8465411 0.14536905 -0.46301517 -0.55675846 -0.6333969 0.9683564 -0.18620747 -1.5959209 -0.5766186 -0.9296169 0.9807668 -0.30612335 -1.4632128 -1.3529795 -0.8056626 -0.6260583 0.17799826 0.5684319 -0.3043752 0.028842539 0.13714926 -0.02747277 -0.3738232 0.43155256 0.22677898 0.17499427 -1.2114874 0.12993868 0.8064578 1.458738 1.6940168 -0.054926977 0.2699405 -0.7835064 0.9201042 0.46798608 0.27336577 1.2063936 -1.5233685 0.36597225 -0.9682457 1.7210294 0.44843197 -0.10667797 0.84297293 0.16829826 0.24301392 -1.4115793 0.12804449 -0.587281 -0.58849925 -1.4011055 0.314456 -1.5606652 0.6739028 -0.89441514 0.35046625 -0.95746285 0.71656275 -0.43198052 -1.713416 -0.8197605 -1.6225647 -0.36363402 -0.0048390976 0.47034132 0.27639115 -0.16907196 -0.39337662 0.8078475 0.6815116 -0.06855754 0.6538003 0.94505286 0.80054396 -1.0232302 -0.85821885 -1.3026471 -0.9883948 -0.31229725 -0.9432661 0.61920315 0.47248042 -0.8056653 -0.9999521 1.5163898 0.4583962 -0.46377707 0.45544553 -0.44554856 -0.84468156 0.21982622 -0.6558381 -0.875228 -0.6601715 0.38389423 -0.9894697 -0.06780887 -0.61473995 0.6447714 -0.010754672 0.8795282 -0.1673826 -0.9731865 -0.49674463 0.56080514 -0.0750005 -0.06729048 0.9296586 -0.73954964 -1.0103031 0.12501328 -0.3077527 0.2825974 0.6282054 -0.091280185 -0.5760413 0.71526194 -0.34524283 -1.23366 -0.5483446 0.87945086 1.6713508 -0.44982985 -0.03407124 0.21159528 0.7214382 -0.25998482 0.35716543 -0.9078748 -0.24572174 -0.1303354 1.2731167 -1.2605987 0.32609552 -1.0783101 -1.0838944 0.22179312 0.64781326 0.043158576 1.3029026 -0.59673196 -0.79850763 0.13815123 -1.0332137 1.1487255 1.7224431 -0.37773964 -0.52668715 -1.9977738 0.06317773 -0.027194774 -0.68457437 -0.78972626 0.72979444 -1.1414429 -0.80891114 -0.65473026 0.2684078 -0.45876202 0.45114043 -0.3414762 -0.18463336 0.9585975 -0.010639116 0.288263 0.4670383 -0.60146546 -0.5152671 -0.266274 -0.54966426 -0.31913397 -0.82816404 0.5208204 -0.7196793 -0.050019026 -0.44158503 -0.5649623 -0.60422045 0.55046517 0.6965354 1.1179353 -0.065209456 -0.85283965 0.14302953 0.679779 -0.45489588 0.40334997 -0.4333905 -0.51079464 0.23771079 -0.42646405 1.2171712 0.6487437 -1.6259073 -0.5399577 0.49879944 1.1926 0.049885243 0.27914327 0.10494884 -0.1505011 -1.8679053 0.6656125 1.5816364 -0.47860157 0.89515 -0.24483715 0.0023417522 -0.98905224 -0.13550626 0.29254052 0.52250284 0.39573792 0.0020241488 -0.38820794 0.67735 1.6478449 -0.08975035 -0.29821977 -0.15003465 0.5566896 0.79144126 -0.51675344 0.5075643 0.07586434 -0.75050884 -2.3081832 -0.78476876 0.4690552 -0.06535252 -0.15302797 0.44978675 -0.68507344 -0.29751366 0.6396892 -0.15818365 -0.7627955 -0.11531329 -0.351269 -0.5348497 -1.3241869 -1.4178842 0.99418855 -0.9596389 0.052295778 0.7704094 -0.009410565 -0.11948171 0.29318848 -0.30300343 -0.36947283 1.0043422 0.8847305 0.64468414 -0.36104038 0.14450912 0.16564526 1.3276968 0.10986292 1.1995225 -0.7183466 0.6653883 0.83587617 0.84323215 -0.43060473 -0.20890588 0.00925536 -0.5145817 0.07205007 -0.8366409 0.9583934 0.6900554 -0.3711795 -0.8493728 0.02778183 0.312986 -0.45357814 -0.33517408 0.48594722 -1.1720029 0.14421989 1.3728304 -0.6250245 0.3072377 -0.41500232 -1.0219514 0.93564266 0.56752026 0.046637595 -0.28256622 -0.2503747 -0.39155054 -0.56188816 -0.80600333 -0.58361936 0.69048184 0.516573 1.5378437 0.9896295 -0.017970204 0.66759396 1.434646 0.63710326 0.2551407 -0.5871518 0.4677818 -0.28028738 0.96546125 -0.27831724 -0.4424595 0.20296173 -0.9732656 -1.3625153 -0.104510695 -0.4600824
UBP16_HUMAN 0.18081155 -0.05489393 -0.14451562 -1.3846964 0.44243217 -0.89665616 0.9230462 -1.2678572 0.0760769 -0.09734946 0.8730119 -0.6747929 0.3279768 -0.36923853 0.1511892 -0.54751086 0.7472714 -0.28845614 0.1657856 -1.4786912 -0.12706643 -0.86261237 -0.49958202 -0.074592575 -0.2986692 -1.167654 -0.082185544 -0.04406988 -0.256487 -0.3574851 0.33394846 0.852915 1.3454684 -1.8907993 -0.8418929 -1.1116546 -0.35265955 0.069747336 -1.355696 0.4790465 0.59993446 0.629679 -0.5062399 0.064627044 -0.6208053 -0.37117285 0.29241857 -0.14430407 -0.6826963 -1.0059103 0.7398198 -1.0727146 1.0063719 -0.5322986 -0.8350567 -0.55417997 -1.1257588 1.0950286 0.1283716 0.14486167 0.2966609 -0.27613503 -0.09129673 0.4161938 0.08445655 1.1328834 0.34924313 -0.25912878 -0.16745387 -0.31713575 0.85912716 -0.30231434 0.21151903 0.39846134 1.3235501 -0.6958126 0.45689267 -0.26155996 -0.0702914 -0.6543249 -0.7820927 0.04055363 -0.8054703 -0.6098601 0.65122473 0.7352732 0.5403867 0.11255513 -0.3624503 -0.7742642 -0.37206417 -0.9940159 -0.09692792 0.5236383 0.011793256 -0.21240316 -0.22066377 1.0406878 0.4186041 -0.34633332 -0.7516641 -0.5076887 0.47928715 -1.0144768 0.49366528 -0.32390955 0.5453383 0.032990932 -1.0307811 0.38455078 -0.15392543 1.2222298 -0.15371229 -0.0965771 -0.10706407 -0.1890242 0.22134867 0.16267638 0.04388687 -0.5790234 1.2472225 1.0710661 -0.7892171 1.2912883 0.8360149 -0.30057034 -0.85443753 0.34767577 -0.7366046 -0.76939994 -0.49311033 0.59515744 0.030839665 0.6208655 -1.2916156 0.78425074 1.1661669 -0.45592856 -0.7989866 0.21372621 0.6209966 -0.91919583 0.07237368 0.51489455 -1.0827839 0.27869186 -0.61487526 0.61130375 -0.4117886 -0.181857 0.42046493 -0.84473103 -0.46336395 -0.0716818 -0.50278294 -0.31412575 -0.7592608 -0.25579497 0.9090336 0.8554651 0.9580182 -0.46385074 0.8035878 1.1569475 -0.30354753 -0.65887433 1.4033257 0.20200898 -1.2476826 -0.6306859 -1.2594782 1.3175142 -0.11746615 0.32686135 0.26356894 0.56774336 0.46892658 0.13857587 -0.64228505 -0.6467851 -0.26300877 0.1762357 -0.68761 0.7236791 -0.9691449 0.22748531 -1.0329797 0.20758697 -0.47322026 -0.040232223 -1.0669082 -0.60847706 -0.35374302 1.0639684 0.42101717 0.15734409 -0.17190376 0.45432514 -0.43471768 -0.20789865 -0.107928954 1.2512897 -0.24396312 -0.1276578 -0.7472684 -0.8984334 0.9572156 -0.68361795 -1.3628818 -0.358577 -0.6550333 -0.59919417 0.24791446 0.22545044 0.10835409 -0.20025718 0.015082357 -0.41857427 -0.7374262 -0.17028883 0.3480932 0.3554671 -1.4699217 -0.004929136 0.43917304 1.0414206 1.0271808 0.08131844 0.7909091 0.3468204 0.2212945 0.7472075 0.57097614 0.34923264 -0.8172747 0.1570306 -0.5649887 1.4487572 0.49457622 -0.2590601 0.6120825 0.44990486 -0.45297042 -0.96616143 0.2576373 -0.08699361 -0.5855795 -1.5490218 0.4846866 -0.887648 0.30702353 -1.1956187 0.6745812 -0.1699229 1.457669 -0.7513312 -1.437965 -1.1225091 -1.0022348 -0.56951576 -0.072891556 0.7409528 0.5589024 -0.19131707 -0.49487576 -0.26625636 0.18136148 0.14076197 0.8956465 -0.17898972 0.39357513 -1.0914929 0.018808436 -1.4354241 -0.43411747 -0.118938215 0.0037057751 0.2632751 0.5333701 0.008625661 0.017761985 0.43181434 0.18264273 -0.7399384 -0.24646446 -0.2919311 -0.6799427 0.03681593 -0.7162433 -1.2305062 -0.5815307 0.41549015 -0.4000561 -0.16080274 -0.11220618 0.7484389 -0.3797545 1.2559308 -0.08212004 -0.7626315 0.3281281 -0.08767418 0.061698873 0.30422136 -0.13500448 -0.5332638 -0.88567096 -0.17564532 -0.65068 -0.14650735 -0.2744514 0.4431929 -0.9355351 0.13193667 -0.13306887 -1.3781421 -0.00055562175 0.45469624 0.90048844 0.4450918 0.29888695 -0.72585434 -0.35991845 -0.76730347 -0.0634296 -0.37707123 0.3376822 -0.20105664 1.5118439 -0.57779086 0.16833618 -0.7080036 -1.8894823 0.40275723 0.49512 -0.10731808 1.0145892 -0.624992 -0.54907393 0.38154677 0.13989438 0.091031305 0.7215061 -0.3756388 -0.85107356 -0.61603004 0.6613889 0.5432049 -0.68631214 -0.318219 0.5425022 -0.59246117 0.3191707 -0.3981265 0.12921113 -0.033052057 0.6826566 -0.099409215 -0.34054714 1.5043563 -0.3238512 0.1690145 0.7935332 -0.22638667 -0.31475392 -0.26526016 -1.3060385 -1.7861788 -1.1708925 0.50579494 -1.0560861 0.28126317 -0.67604095 -0.45291233 -0.8510024 0.6468301 0.6731739 0.90189636 -0.124699965 -0.5246817 0.5145233 0.41477022 0.35876688 0.57435405 -0.09859224 0.04071581 0.20766895 -0.10532467 1.2002589 -0.5528491 -1.2831366 -0.47461972 0.49063888 0.32885596 -0.1288281 0.28759545 -0.17179833 0.66184294 -0.96876174 0.23722215 0.88803655 -0.36795864 -0.2731897 0.3410682 0.63349664 -0.92794853 0.13711739 0.26276997 0.9927926 -1.0488613 -0.09018074 0.69395727 -0.019513426 1.1057597 -0.4624577 0.17776577 0.039307106 -0.7225376 0.061130423 -0.4944138 0.31632724 0.3514509 -0.06709146 -1.0543238 -0.53740937 1.03177 0.45374632 1.3993695 0.07704491 -0.6964747 -0.5217086 0.82887805 -0.2963846 -0.02781056 -0.67509234 -0.049968667 -0.17299917 -0.72104937 -0.8312217 1.0128105 0.027376816 -0.4670159 0.56623894 -0.47776222 0.022104545 -0.2515489 0.35269532 -0.71566117 0.39204273 0.78842723 -0.18426092 -0.9883727 0.19744147 -0.42499706 0.4657733 0.73033065 1.142049 0.03553962 0.31791714 0.18883671 0.15720282 -0.95455796 0.25999203 -1.0762984 0.2343553 -0.66660875 -0.53455955 0.9885645 0.6949843 0.33319542 -0.5163534 -0.086704254 -0.025238505 -0.06537137 -0.3496863 0.32271188 -1.800455 -0.39697307 1.1438694 -0.5263036 -0.36746714 -0.20101285 -0.75838786 1.023464 1.057098 -0.47806484 -0.7845143 -0.2446066 -0.29968593 -0.46161672 -0.9782719 -0.3002102 0.2872855 -0.06567498 1.3861132 0.25991753 0.7876695 1.4636422 1.5079812 -0.061132167 0.3025282 -0.022955403 0.073508404 -0.46207002 0.48992345 0.21367404 -0.23643187 0.8657606 -0.98219115 -0.42249656 0.0531325 -1.155462 0.51435924 0.1384398 -0.07778717 -0.9878095 0.20957546 -0.26311162 0.72588474 -1.9545926 0.006072852 0.5918221 0.979447 -0.8375576 1.0588248 0.1522868 -0.54675376 0.43439457 0.81777555 -1.0725228 0.9574209 -0.96540254 0.22619326 -1.2965533 -0.49355727 -0.5920378 -0.75018317 -0.62189907 -0.09626383 0.853158 -0.08365579 -1.1926807 0.6363308 0.90402186 1.3055203 -1.1923962 -0.5974983 -0.66924036 -0.2653546 -0.119064145 -0.69508827 0.61290246 -0.0052847075 0.41129336 -1.3740652 0.1678481 -1.7035553 0.26843566 0.81440324 -0.9792339 -0.24178061 -0.6751528 1.3397347 -0.62502396 0.58215237 0.5939612 -1.3046905 -1.1887447 -0.45389667 0.05293209 -0.08579802 0.9503167 0.4405431 -0.57545567 0.342388 0.17867632 0.45258924 0.9111366 0.25877967 -0.9185445 0.27080458 -1.1302415 0.9799691 -0.76774013 1.0069877 -0.58380127 0.8974751 -1.060264 0.8183258 -0.8498698 0.11949153 -0.77678233 -1.1138494 0.36051914 -0.4401896 -0.95328015 -0.50636846 0.15511511 1.4119358 1.4359319 -0.2683739 -0.43058974 -0.75754565 -0.976551 0.47454235 0.9382228 0.42887568 -0.18441702 0.23884521 0.84598064 -0.012768024 -1.0155917 -0.45484373 -0.74021876 -0.19619343 -1.268922 0.504574 -0.0886684 0.91790766 -0.10923188 -0.15216753 0.91896623 -0.7002618 0.029858556 0.22844471 -0.20375694 -0.14616786 0.8014949 -0.26271245 -0.1747792 -0.54806894 -0.23962304 0.70545244 1.0806572 -0.55215496 1.0402796 0.8696076 -0.16081966 -1.9540097 0.08925397 0.4232047 -0.6210089 -0.38219944 0.3895276 -0.26358163 0.8031153 -1.0164503 0.81710136 1.0124338 -0.54898053 -0.9066958 0.6601189 -0.68507206 -0.89957196 -0.33533257 -0.24918652 -0.47061703 -0.06743147 -0.6505919 0.5682086 0.030446703 -0.011787604 0.59554666 -1.0960718 -0.8559814 -0.63633853 -1.0603248 -0.2797877 -1.2792318 -0.012004576 1.2521772 -0.27617607 0.90452945 -0.049384307 0.12079506 0.9088314 0.1761605 -1.6150894 1.5700074 0.37427482 -1.3700857 -0.08271609 0.03535699 0.6932847 0.25614625 -0.59651846 0.96256816 0.41827288 0.4466577 -0.5093277 -0.34065646 -1.6095413 -0.33657822 1.2951239 -0.32229206 0.94247735 -1.1664469 -0.057456207 -1.3546499 0.60677516 -0.53941077 0.672743 0.27522117 -0.097561285 -0.8469752 1.600502 -0.893331 -0.24614151 -0.84871596 0.17276481 -0.46666622 -0.5645452 -0.6054106 0.95270723 -0.2116796 -1.5905474 -0.57180065 -0.91718525 0.97242135 -0.34997648 -1.4931661 -1.3222487 -0.78992224 -0.6000474 0.18836114 0.5893802 -0.26726642 0.017970188 0.106352575 -0.07597586 -0.3637065 0.4041216 0.23902638 0.14984532 -1.2139394 0.16492489 0.81290424 1.4300104 1.6766077 -0.07172985 0.2522276 -0.8165859 0.91966784 0.4763042 0.2750512 1.1923888 -1.4766871 0.39590856 -0.94465333 1.7000551 0.42482036 -0.09287553 0.78180456 0.16646938 0.2268636 -1.3903247 0.15365079 -0.57049567 -0.5974869 -1.4095932 0.31476304 -1.5755922 0.6617895 -0.87495273 0.32412943 -0.9493038 0.70348936 -0.43849778 -1.7245781 -0.8224929 -1.5906183 -0.35253435 -0.021393972 0.46204975 0.2605901 -0.16712904 -0.38429284 0.8298122 0.6489499 -0.07525834 0.65052444 0.91491455 0.7943087 -1.0160612 -0.8508398 -1.2912208 -0.97045374 -0.31634733 -0.9309453 0.614216 0.466456 -0.8183042 -0.9502631 1.5141307 0.44726256 -0.4565681 0.45138773 -0.43787763 -0.81591976 0.18109822 -0.68445385 -0.9023719 -0.6448248 0.43368313 -0.98114437 -0.036323458 -0.576606 0.6777757 -0.040399414 0.8608741 -0.1729964 -0.96463746 -0.48063412 0.5855455 -0.13817121 -0.043139517 0.91835076 -0.76244456 -1.0257099 0.15359126 -0.30728325 0.33401015 0.62234694 -0.09998063 -0.56903636 0.702462 -0.3298764 -1.2115905 -0.5409531 0.86833376 1.6696242 -0.4761929 -0.020568077 0.23026037 0.7432322 -0.2664592 0.34696606 -0.9095121 -0.18550815 -0.12916179 1.2400001 -1.2278093 0.32321945 -1.0485219 -1.075814 0.21628502 0.6204713 0.04794123 1.2645025 -0.59926337 -0.78615725 0.14163701 -1.0126503 1.2103946 1.7170655 -0.3231535 -0.48101708 -1.96716 0.028930208 -0.009898554 -0.6690871 -0.78386956 0.71428925 -1.1223141 -0.80705804 -0.72120047 0.26411605 -0.46332106 0.43388715 -0.33472678 -0.17263654 0.9627298 -0.0026122055 0.29737663 0.46884054 -0.60840684 -0.5326672 -0.25161728 -0.53615373 -0.2869968 -0.825152 0.53679305 -0.71724087 -0.034952108 -0.41566038 -0.53863263 -0.5777803 0.53988653 0.66843265 1.0781858 -0.06192231 -0.82679546 0.16257088 0.69062597 -0.43040007 0.42713746 -0.39628598 -0.52069527 0.25235134 -0.44472092 1.1745845 0.619459 -1.6171223 -0.5330955 0.48598623 1.1823528 0.008820259 0.27135387 0.10727116 -0.14949073 -1.8636312 0.63192874 1.5570147 -0.47633785 0.87625927 -0.23642662 0.044840086 -1.0115682 -0.1438447 0.28224418 0.5334827 0.38840535 0.009385986 -0.40115204 0.65838367 1.5916822 -0.082894005 -0.27381468 -0.15617073 0.5508331 0.77531403 -0.49825183 0.51240176 0.07544074 -0.7160279 -2.2429373 -0.7896265 0.44039276 -0.03576643 -0.13794078 0.4564888 -0.69417995 -0.2820702 0.66341084 -0.191493 -0.7773057 -0.11474464 -0.32170415 -0.51066494 -1.297837 -1.4008845 1.0149411 -0.94976485 0.07114263 0.728981 -0.037308726 -0.11106738 0.30911112 -0.30189392 -0.36707476 1.0023631 0.8554403 0.6460435 -0.3971537 0.121052064 0.1974772 1.3504623 0.10834614 1.1771481 -0.72513765 0.67467403 0.80077076 0.8405164 -0.4394081 -0.2266164 0.014302143 -0.5042063 0.08437741 -0.8670429 0.9680772 0.6781352 -0.358327 -0.8438244 0.03568972 0.29907778 -0.43710476 -0.33197302 0.4913701 -1.1637653 0.09475041 1.3883358 -0.6224843 0.29692432 -0.4434879 -1.0301644 0.93153125 0.5433946 0.06268292 -0.2715767 -0.23831399 -0.39299706 -0.5874155 -0.80974185 -0.60149425 0.7003778 0.5118194 1.5170702 0.9903949 0.003838833 0.6926198 1.4314488 0.61922455 0.26278546 -0.53628343 0.45180175 -0.25135058 0.96836203 -0.26543295 -0.40513948 0.18569031 -0.99431354 -1.3669164 -0.09792095 -0.45879278
ATX3_HUMAN 0.1893044 -0.044169556 -0.1591021 -1.4049866 0.44971198 -0.91707295 0.9333236 -1.2879736 0.099257424 -0.10139802 0.8818169 -0.7060988 0.32444423 -0.3992329 0.17223008 -0.5458312 0.7546574 -0.2793825 0.16472219 -1.5079343 -0.14650428 -0.8820447 -0.4938685 -0.059713192 -0.30412707 -1.1963588 -0.084926955 -0.057785477 -0.24707545 -0.3778057 0.33623654 0.8684104 1.3662484 -1.933486 -0.8599726 -1.1342467 -0.35090762 0.058322135 -1.3980905 0.48710114 0.62475324 0.6344563 -0.5416491 0.068131596 -0.6237853 -0.35981536 0.2871936 -0.13875961 -0.698545 -1.0236802 0.7384392 -1.0893891 1.0285289 -0.53081524 -0.8344053 -0.53102386 -1.1536219 1.1108457 0.13878872 0.13745977 0.32970685 -0.2607333 -0.08148475 0.41970208 0.049854837 1.155204 0.3453373 -0.28706172 -0.17720255 -0.31879652 0.8727561 -0.30659464 0.21649106 0.41575146 1.349636 -0.7019249 0.46958596 -0.25676736 -0.08059363 -0.6570527 -0.7718707 0.0248263 -0.8238196 -0.603199 0.6638088 0.7564677 0.5489414 0.13036561 -0.36934155 -0.79217714 -0.3910025 -1.0007889 -0.120141 0.5369372 0.025252786 -0.22614804 -0.23445472 1.0484312 0.41853154 -0.34649622 -0.76163524 -0.50473434 0.4706394 -1.0422642 0.49521145 -0.338503 0.549321 0.026974974 -1.0354294 0.38441992 -0.13139975 1.2373226 -0.13732427 -0.0949025 -0.11749802 -0.21309546 0.22668019 0.17383173 0.063316435 -0.58012193 1.2706054 1.088328 -0.79263705 1.3180395 0.8558397 -0.30252808 -0.8537701 0.35902098 -0.7410556 -0.78322196 -0.51056993 0.61270106 0.034583874 0.63824505 -1.2948651 0.779903 1.1782608 -0.46597213 -0.81960803 0.21803579 0.6338222 -0.927061 0.07687115 0.51910156 -1.1049145 0.28594005 -0.62790644 0.61257786 -0.42818338 -0.18287542 0.43425393 -0.86339223 -0.4594802 -0.08815849 -0.5125811 -0.30044347 -0.7760552 -0.2695636 0.9165553 0.87871635 0.9578017 -0.5063237 0.8177041 1.1805559 -0.31348836 -0.6562918 1.4371741 0.20035031 -1.2593374 -0.6440267 -1.2841195 1.3430732 -0.13625786 0.32550445 0.26730332 0.5773443 0.48640335 0.13183346 -0.6655816 -0.65514636 -0.24366029 0.16980597 -0.7005913 0.7514716 -0.98518646 0.22660238 -1.0470994 0.19817567 -0.46816307 -0.04819534 -1.0959218 -0.5984349 -0.361798 1.09073 0.44333905 0.17146002 -0.16076499 0.46813792 -0.42679477 -0.18107904 -0.119216666 1.2711332 -0.25524664 -0.110937044 -0.75008726 -0.9118669 0.9855903 -0.6969446 -1.364239 -0.38055375 -0.68667054 -0.62591803 0.2589513 0.2177376 0.1198964 -0.2021127 0.019548144 -0.41596645 -0.7470684 -0.1738064 0.36889306 0.37406695 -1.503059 0.0038476689 0.44402987 1.0361639 1.0511235 0.08231463 0.82493746 0.3665684 0.22817117 0.7645794 0.5754915 0.35576177 -0.8319137 0.16916732 -0.56637084 1.4535697 0.49984893 -0.26664355 0.6222345 0.45273793 -0.4547584 -0.98772323 0.2516572 -0.07348732 -0.6167515 -1.5854863 0.49643254 -0.86846715 0.32012218 -1.215287 0.6969079 -0.17529789 1.4746532 -0.7730696 -1.469235 -1.1432776 -0.9966676 -0.59595346 -0.08309744 0.7642946 0.56227213 -0.19342157 -0.50312406 -0.2830524 0.1774854 0.14187916 0.9224035 -0.18581852 0.40061438 -1.1324875 0.04618951 -1.4675857 -0.43567985 -0.11495812 0.019097697 0.27895242 0.5390986 0.0027818233 0.003629811 0.42597035 0.2001062 -0.7288668 -0.26016515 -0.2946781 -0.676001 0.017509516 -0.70835507 -1.2251909 -0.5940068 0.4054603 -0.39939165 -0.16711977 -0.11006114 0.77731466 -0.36792287 1.2839737 -0.08604707 -0.7578527 0.33082798 -0.09206669 0.06298699 0.2989001 -0.13891685 -0.52929157 -0.8888982 -0.18494448 -0.6499322 -0.16417038 -0.28485045 0.44339848 -0.9571183 0.15046431 -0.1091102 -1.3984333 0.0043649925 0.4617591 0.9107571 0.4534678 0.28210863 -0.7415619 -0.366431 -0.76171815 -0.07162757 -0.36790073 0.3587697 -0.20199531 1.5495393 -0.56915534 0.15639752 -0.6997151 -1.9277693 0.40985256 0.5244145 -0.10327421 1.0415947 -0.62927985 -0.5545761 0.37861282 0.14506936 0.07958656 0.7431396 -0.38598794 -0.87143075 -0.6254339 0.66307116 0.5527692 -0.6904581 -0.34748045 0.5668042 -0.60957915 0.33882973 -0.38730752 0.14103341 -0.05369652 0.69936776 -0.08202641 -0.3280983 1.5333278 -0.33740664 0.16727819 0.8160143 -0.22781612 -0.32734466 -0.29120338 -1.3343564 -1.8338789 -1.1853237 0.5146736 -1.0876629 0.28226092 -0.6989675 -0.47476485 -0.87112284 0.66211545 0.6855773 0.9145705 -0.1345143 -0.5267763 0.53845274 0.41095605 0.36892352 0.59516823 -0.12644148 0.020066677 0.20894736 -0.10712069 1.2061625 -0.5675098 -1.308862 -0.47850245 0.5030055 0.31918478 -0.12600528 0.291386 -0.19012828 0.6806922 -0.9786782 0.24471006 0.8879775 -0.38515428 -0.2964474 0.34529433 0.6498649 -0.94000554 0.14044434 0.26836833 1.0035051 -1.0935198 -0.10056473 0.70561683 -0.033607155 1.1238741 -0.46755427 0.17373843 0.038991656 -0.7222794 0.04741258 -0.5211259 0.34442294 0.34407365 -0.046578303 -1.0825499 -0.559292 1.0448455 0.43852538 1.4458507 0.059277944 -0.6995505 -0.54172957 0.8478814 -0.30749762 -0.037955947 -0.67932594 -0.037362967 -0.181421 -0.702048 -0.8710498 1.0288345 0.022188969 -0.48707682 0.5702953 -0.47658268 0.017273348 -0.24806698 0.3701529 -0.7543744 0.3959763 0.78886735 -0.17019905 -1.0197662 0.18818468 -0.4220856 0.4605982 0.7430107 1.1648107 0.041498933 0.30107713 0.17947233 0.15567845 -0.97135055 0.27020615 -1.1174959 0.24254724 -0.6795653 -0.54403514 0.9829149 0.71515715 0.34127393 -0.5000596 -0.08555734 -0.029658258 -0.036375254 -0.35192603 0.3297726 -1.8281896 -0.40574765 1.172864 -0.5195546 -0.39817807 -0.20927216 -0.7728106 1.0159318 1.0595039 -0.47110823 -0.8080228 -0.2398595 -0.27716166 -0.461773 -1.0083271 -0.29959002 0.28428468 -0.06917718 1.4009016 0.2735354 0.8040466 1.4943724 1.5213296 -0.06093886 0.30551898 -0.041452564 0.056959018 -0.49491626 0.5102096 0.2270016 -0.22430967 0.8587742 -0.9995704 -0.43311033 0.051339373 -1.1973832 0.509173 0.14092422 -0.059658945 -0.9870387 0.2360518 -0.28427058 0.7227812 -1.9821119 0.029609865 0.609285 0.9830066 -0.86576784 1.0611465 0.12944779 -0.5270395 0.42848736 0.81351626 -1.064685 0.9781754 -0.97384447 0.23846468 -1.3019743 -0.49544922 -0.58999974 -0.7680777 -0.6109705 -0.114496194 0.83517355 -0.04763348 -1.2387564 0.6169992 0.91034055 1.329442 -1.1791112 -0.62875915 -0.68641144 -0.2560578 -0.112098746 -0.67917717 0.61843115 0.006616297 0.4584842 -1.4092231 0.2051386 -1.7317091 0.2640348 0.8068914 -0.9728626 -0.24392897 -0.65395224 1.3945782 -0.6210909 0.58516246 0.6157329 -1.2981068 -1.1643605 -0.43724918 0.06972409 -0.055678762 0.97140765 0.47658324 -0.58985114 0.36507672 0.2033565 0.4241542 0.9057451 0.26273832 -0.9559624 0.2813969 -1.1320971 0.99905 -0.7616275 1.0409702 -0.58810866 0.9133098 -1.0692972 0.8122852 -0.84555954 0.16127986 -0.7722021 -1.097211 0.3635661 -0.4430865 -0.9655305 -0.5026799 0.15940847 1.4212594 1.4741561 -0.2639362 -0.4340778 -0.82393545 -0.9856914 0.45558348 0.93454397 0.42749637 -0.18356766 0.20344183 0.8716781 -0.034677804 -1.0376685 -0.4310683 -0.7586215 -0.19444104 -1.265413 0.50062627 -0.08356843 0.92508155 -0.11385012 -0.13440469 0.92449 -0.68946445 0.00921686 0.2208678 -0.19577011 -0.15973692 0.7831625 -0.28840977 -0.18535946 -0.5724355 -0.26445287 0.7237303 1.0871224 -0.55624646 1.0762658 0.88374496 -0.17400973 -1.9593391 0.08088638 0.43906575 -0.6403117 -0.37179706 0.4015158 -0.25070274 0.822913 -0.9826888 0.83147347 1.0128961 -0.5741225 -0.93099105 0.67939174 -0.70575154 -0.88954556 -0.35094917 -0.26651862 -0.4786802 -0.054598033 -0.6607847 0.56598276 0.021044722 8.24295e-05 0.59525335 -1.1155155 -0.86915874 -0.6432499 -1.0765262 -0.26826847 -1.2986779 -0.009886373 1.2693012 -0.28800714 0.9135357 -0.098277405 0.14306112 0.9497266 0.18657646 -1.6294396 1.592787 0.38071063 -1.3722204 -0.084063575 0.01789439 0.7229605 0.24220985 -0.61201286 0.97553235 0.4524983 0.4555819 -0.5092359 -0.35824496 -1.619514 -0.32756323 1.3145365 -0.3267359 0.97676194 -1.1865611 -0.034270607 -1.3622472 0.64754605 -0.5082888 0.68875015 0.276354 -0.09762256 -0.8319029 1.6364833 -0.90641767 -0.25882336 -0.84510374 0.17844068 -0.46822336 -0.5637707 -0.624924 0.9730823 -0.21601972 -1.6274117 -0.5743072 -0.9321368 0.98282206 -0.38734028 -1.488459 -1.3246652 -0.8147897 -0.61359453 0.1857535 0.5627117 -0.26614657 -0.0027160197 0.111162655 -0.066620275 -0.36310044 0.4032653 0.24443161 0.15935664 -1.2225213 0.16634376 0.8510569 1.451341 1.6844188 -0.09216252 0.25588012 -0.84483266 0.9394554 0.51079595 0.2963001 1.2020999 -1.4985652 0.3920688 -0.9508264 1.6929493 0.43862697 -0.1051242 0.7753266 0.14115131 0.2451601 -1.4106004 0.1514278 -0.5755225 -0.6215271 -1.4542184 0.3202185 -1.5980864 0.6683062 -0.84985095 0.33105528 -0.9741638 0.6994672 -0.42616138 -1.7702587 -0.81281006 -1.6207134 -0.36609244 -0.06639379 0.47986203 0.2577724 -0.15950337 -0.3967134 0.8865237 0.6404662 -0.06333454 0.65383327 0.9251543 0.797408 -1.033707 -0.83361125 -1.3074534 -0.9842183 -0.3250559 -0.9360721 0.6269554 0.45440894 -0.8134342 -0.9501549 1.5367383 0.4548294 -0.46582162 0.47539222 -0.45351022 -0.8071771 0.15974008 -0.67988855 -0.90380573 -0.6538847 0.43059212 -0.9839096 -0.036266215 -0.5783893 0.7028328 -0.03473387 0.870906 -0.1690019 -1.0018708 -0.5152108 0.5964274 -0.15811905 -0.04084435 0.9147986 -0.73845947 -1.0130165 0.14742972 -0.29372025 0.3390959 0.6159568 -0.12152861 -0.5774637 0.70703876 -0.3283871 -1.2210897 -0.5221351 0.9110613 1.6805518 -0.52234066 -0.027016908 0.20053953 0.7488892 -0.27667323 0.3616594 -0.9356243 -0.16236609 -0.15487868 1.2706889 -1.2220795 0.29287934 -1.0768859 -1.1093786 0.22942924 0.66608846 0.07280713 1.2731224 -0.5922141 -0.8039992 0.17777297 -1.0344727 1.2551488 1.7430238 -0.3052793 -0.47463226 -1.9663771 0.016827598 0.009358266 -0.6770533 -0.7849262 0.7532487 -1.1593407 -0.83862543 -0.75458115 0.255296 -0.49057555 0.45092943 -0.35514823 -0.16293755 0.9753835 -0.0048248954 0.3410075 0.47276723 -0.6148893 -0.5631692 -0.2400524 -0.54200834 -0.31199825 -0.82940704 0.52765507 -0.7355654 -0.021799795 -0.4087823 -0.5720428 -0.55822855 0.5566153 0.6861548 1.0998492 -0.054564238 -0.8177458 0.19100828 0.7021753 -0.41811717 0.45410722 -0.3998416 -0.5697567 0.23675436 -0.47763363 1.2009051 0.6695131 -1.6593571 -0.5237433 0.5145785 1.1759052 -0.008544898 0.2701332 0.11114681 -0.13736282 -1.8635502 0.6757356 1.5508229 -0.498204 0.8566583 -0.23756285 0.048501037 -1.031909 -0.13661513 0.31967962 0.52366096 0.40928662 -0.0010070466 -0.40766513 0.66057867 1.6208179 -0.08070833 -0.237379 -0.15669896 0.55475867 0.78119785 -0.49043977 0.56825876 0.093350835 -0.7435579 -2.2436004 -0.78810287 0.43755722 -0.048289534 -0.12803629 0.44763705 -0.7260682 -0.2944408 0.67369205 -0.2288187 -0.8064524 -0.13226862 -0.32537603 -0.51437914 -1.2941624 -1.4523824 1.0312628 -0.96974134 0.053207986 0.72102684 -0.070474535 -0.15464121 0.29985452 -0.29486296 -0.3756848 1.0479971 0.8546289 0.6775695 -0.42285764 0.07692908 0.19453645 1.3769275 0.09664838 1.2072272 -0.75404376 0.63911873 0.81927526 0.84649765 -0.44509208 -0.22966933 0.0039000958 -0.50686854 0.083731286 -0.8794463 1.0068791 0.6895965 -0.36091766 -0.84304523 0.008568883 0.2885526 -0.4030915 -0.3429175 0.4910148 -1.1470991 0.10421255 1.3919517 -0.6201949 0.28338778 -0.46454138 -1.0667456 0.94399697 0.53082794 0.06159135 -0.2697084 -0.21772853 -0.39699802 -0.60692674 -0.8060183 -0.5968079 0.7173969 0.48600274 1.5007657 1.0046794 0.049637154 0.6952368 1.4509866 0.6355063 0.26722613 -0.54780126 0.4686998 -0.28440222 1.0148702 -0.25946215 -0.39487714 0.17849389 -0.9788055 -1.3840815 -0.09537104 -0.49029267
