UBP13_ARATH 0.30885327 -0.35602772 0.009609327 -1.3989532 0.6192183 -0.6932477 1.3200458 -1.3047941 0.05194078 0.077329 1.0984598 -0.9373423 0.49747548 -0.32739958 0.3705801 -0.56881815 0.9001956 -0.40930685 0.5842957 -1.1263369 0.21833658 -0.8494823 -0.7570753 -0.13884512 -0.40320808 -0.9417987 -0.69849086 0.5007342 -0.2992147 -0.4696809 0.5452043 1.0084014 1.3281026 -1.3190928 -0.7679401 -0.9150728 -0.025878344 -0.27007595 -1.1589167 0.25765345 0.038086228 1.1141483 -0.8163381 0.16310385 -0.89185077 -0.27064252 0.26541018 -0.23018661 -0.4832362 -0.73681146 0.9636469 -1.1859181 0.8908329 -0.20590892 -1.071106 -0.81689584 -0.86071676 0.90132284 0.23623136 0.36855912 0.44515952 -0.56540596 -0.2102108 0.4694048 0.21243188 0.97688204 0.57834965 -0.725381 0.12548247 -0.6993742 1.1606947 -0.4945268 0.2090314 0.19313453 1.400221 -0.7721971 0.56603104 -0.23746781 0.0694671 -0.7483069 -0.8164999 -0.12885384 -0.6920444 -0.95403475 0.5676605 0.3548847 0.92461145 0.25339228 -0.2995819 -0.6115014 -0.50976217 -1.1228191 -0.08080884 0.55281794 0.16034971 -0.149672 -0.0043170303 0.7643815 0.45181063 -0.7360235 -0.87860847 -0.65534437 0.62857556 -1.067666 0.30326068 0.037861027 0.57194656 -0.28162515 -0.8807 0.6341476 -0.32965964 1.0526656 -0.6774846 0.29945642 -0.210834 -0.26660922 -0.04837802 0.13596848 -0.5161541 -0.29646143 1.0293267 1.2698472 -0.7259776 1.2122335 0.7122756 -0.33201286 -0.71136785 0.41095793 -0.6980843 -0.658006 -0.15902674 0.27151352 0.09702095 0.7319452 -1.2697679 1.1588403 0.9318433 -0.15878764 -0.83443314 0.21882969 0.3830726 -0.8471118 0.2229825 0.4104852 -1.064978 0.22783193 -0.25063968 0.6453073 -0.45432937 -0.07168624 0.19960149 -0.7980787 -0.9345747 0.045062337 -0.6018312 -0.40565643 -0.9789751 0.29029143 1.0811121 0.4871435 0.5574852 -0.43456647 0.5860749 0.8776335 -0.31718147 -0.8992727 1.0860785 0.40698546 -1.0881025 -0.5329161 -0.7684558 1.0122206 0.18705207 0.19413483 0.54471296 0.5304791 0.46175086 -0.49608573 -0.537174 -0.7824064 -0.12159468 0.63058585 -0.6901866 0.6391274 -0.7928405 0.5220481 -0.97887915 0.5901745 -0.50060344 0.026134778 -0.7637568 -0.63762975 -0.4670928 1.3673344 0.022597447 0.24118865 -0.12734786 0.46991873 -0.5252468 -0.31117553 -0.19996466 1.4119956 -0.109270334 -0.15687495 -0.7723893 -0.86236244 1.0533886 -0.44644094 -1.4462869 -0.48362866 -0.90858924 -0.4015628 -0.004004687 0.2507053 0.24206616 -0.11159524 -0.058641464 -0.7545642 -0.60900074 -0.27025172 0.2373404 0.2711556 -1.3886267 0.06911729 0.51408446 1.2076691 1.1239523 -0.027310971 0.9667904 -0.25981605 0.46183088 0.6796802 0.5389048 0.7579736 -1.1497446 0.15101084 -0.4648137 1.5869004 0.6378934 -0.066708334 0.8279763 0.33918887 -0.038016506 -1.0237072 0.27431712 -0.27607298 -0.39167657 -1.6306275 0.39395532 -0.7607451 0.28375062 -1.2853091 0.7779287 -0.30582407 1.3244952 -0.36451682 -1.6945121 -0.9712596 -1.0036297 -0.66355413 -0.13452226 0.5512449 0.38968724 -0.052403785 -0.37054014 0.060070932 0.15251072 0.27279666 0.656265 -0.19947834 0.27507523 -0.6893536 -0.17614296 -1.3623667 -0.20480067 -0.04687213 -0.08341704 0.025749497 0.47944266 0.16189012 -0.29274228 0.7020778 0.014408993 -0.7883533 0.17406721 -0.28749168 -0.5587881 0.20237562 -0.667286 -0.8991306 -0.4875314 0.41205516 -0.6595017 -0.16908179 -0.17140429 0.44479215 -0.5603463 0.98186433 -0.036908627 -0.9954362 0.071805984 0.41955346 0.21536322 0.48910588 0.40392032 -0.7436613 -0.9381695 0.38057128 -0.8394074 0.10655226 -0.17860252 0.039627224 -0.9332711 0.30395404 -0.28128594 -1.376759 -0.026507556 0.53733826 0.7470016 0.091609985 0.15894523 -0.5800363 -0.19349766 -0.5545293 -0.008928031 -0.5346205 0.33503127 -0.37937972 1.2619369 -0.7225626 0.18104436 -0.9392396 -1.4804877 0.6089871 0.20501813 0.38734326 0.9817072 -0.57752854 -0.84537727 0.500653 -0.0016953871 0.15869474 0.81194055 -0.22629122 -0.9526594 -0.9666788 0.32882643 0.5066607 -0.88321805 -0.62310034 0.75044894 -0.3876431 -0.03404723 -0.8607159 0.004106734 -0.40847614 0.46957833 -0.69986165 -0.5433016 1.2760899 -0.12483581 0.27992803 0.798676 -0.26247728 -0.6228311 -0.12497027 -1.1523336 -1.4681084 -0.90559983 0.7005107 -0.92330855 0.3236697 -0.3134662 -0.43812627 -0.94711035 0.69965434 0.81845933 1.0633154 -0.059837937 -0.79460937 0.3278786 0.43189204 0.080906644 0.6797751 0.15941712 -0.014581125 0.002625011 -0.04377048 1.2649462 -0.5275303 -1.4349332 -0.4832592 0.5522528 0.56009674 -0.2633905 0.23252709 -0.2354072 0.5577632 -1.2533301 0.33914185 1.0260106 -0.21127293 0.16178864 0.43933862 0.2852702 -0.91399544 -0.17927364 0.1598118 0.6953254 -0.68731195 0.49944317 0.29564893 0.25832462 1.2873465 -0.3187679 0.26833582 0.02848254 -0.76830214 -0.008351743 -0.16315912 0.29349393 0.38988012 -0.26857597 -0.91626036 -0.7874801 0.59387577 0.40669408 1.0785518 0.5236127 -0.7242947 -0.4552768 0.2509696 -0.37517995 -0.24788769 -0.7196872 -0.20136884 -0.28620225 -0.7176661 -0.91363305 1.1736404 -0.19081801 -0.4730674 0.50767475 -0.59287083 -0.3831535 0.1151996 0.27455944 -0.43087417 0.26830858 1.2545414 -0.040928543 -0.5497912 0.1558286 -0.26545936 0.8759421 0.78996795 1.2327951 0.23920356 0.5697902 0.22074763 0.55704975 -0.9982682 -0.18215472 -0.97182566 -0.20138249 -0.29335928 -0.6622887 1.3209771 0.4799277 0.1339055 -0.5508831 0.041581355 0.2636802 0.107378006 -0.32498688 0.5570247 -1.3093479 -0.09365949 1.0109216 -0.556902 -0.2493774 -0.27121064 -0.73417264 0.95636725 0.62635744 -0.24607304 -0.47313398 -0.06364623 -0.26712954 -0.6212857 -0.582715 -0.4077211 0.2182459 0.25898573 1.4985461 0.30645573 0.5919784 1.2702099 1.537298 0.29924774 0.23488465 0.29416025 0.03251049 -0.30225784 0.7754181 0.094025105 -0.3039315 0.86397624 -1.0728745 -0.5129091 -0.29103082 -0.68254787 0.88864195 -0.05556523 -0.0922449 -1.0939661 0.15418112 -0.119771 1.0661641 -2.0470362 -0.08037983 0.47722018 1.1097145 -0.6083945 1.3122594 0.167011 -0.5075619 0.7233749 0.9424996 -1.4063 1.1027213 -1.173262 0.061008632 -1.5432719 -0.5214617 -0.61279374 -0.54583114 -0.9492477 -0.113241196 1.0231642 -0.4820823 -1.1853548 0.9831519 1.0927342 1.3096658 -1.367759 -0.7328627 -0.7104931 -0.3246171 -0.23800442 -1.0807129 0.65784466 -0.15725622 0.16449863 -1.40152 -0.11057201 -1.862351 0.44561997 0.9473237 -1.0723654 -0.5911505 -1.0070091 0.97835433 -1.0893598 0.8863312 0.3703595 -1.3137332 -1.5855526 -0.7052206 -0.0075351894 -0.045101568 0.94932246 0.5292009 -0.63614696 0.2079745 0.06354287 0.6613443 1.1193264 0.29483223 -0.6527308 0.26719618 -1.3741572 0.9652206 -0.86356884 1.0469601 -0.9873258 1.1179575 -1.1636916 1.1744732 -0.89612365 -0.12752053 -1.0208427 -1.322706 0.41431284 -0.38498363 -0.954031 -0.5375152 0.13327393 1.820344 1.6733515 -0.4296018 -0.64285946 -0.60540104 -1.0826323 0.4698641 1.005535 0.52750254 -0.399977 0.5049357 0.76798487 0.022401556 -0.9864018 -0.6568092 -0.6347346 -0.041393667 -1.5555834 0.54967415 0.07539453 0.8188199 -0.2979971 -0.2695858 1.1459819 -0.7652571 0.22069421 0.29188907 -0.1583309 -0.39490512 1.0124043 -0.06602694 -0.060235113 -0.4213297 -0.27780974 0.5749291 1.2773364 -0.5108641 1.2744579 0.8588504 -0.022161335 -1.9982715 0.299169 0.39161068 -0.294075 -0.54558015 0.5903194 0.08604075 0.9746664 -1.2612138 0.77256125 0.8564939 -0.19911048 -0.8993762 0.7694682 -0.75123066 -1.0693066 -0.59605837 -0.23895049 -0.44252905 -0.07638033 -0.5659284 0.6103492 0.14309832 -0.09595864 0.7803052 -1.2786977 -0.74134535 -0.68542117 -1.1533931 -0.43213546 -1.635761 -0.03131923 1.2747824 -0.070919886 1.1508033 0.18887115 0.041247115 0.97671396 0.2036737 -1.688864 1.7255065 0.38905597 -1.4558067 -0.21744537 0.30497968 0.6741751 0.20282976 -0.55282235 0.98396045 0.50865257 0.4501665 -0.6849377 -0.5518942 -1.8834074 -0.4862165 1.3564996 -0.32134038 0.8698015 -1.0384381 -0.25161222 -1.4999255 0.6594539 -0.90198517 0.8420418 0.33080214 -0.09427278 -1.1567339 1.6912152 -0.9508245 -0.09686735 -0.869286 0.25837985 -0.41800475 -0.42442942 -0.63003427 1.0646133 -0.09213383 -0.45546556 -0.83454335 -1.0059144 1.1225094 -0.1016524 -1.6978557 -1.6556251 -1.1297466 -0.73485637 0.246775 0.78169674 -0.3525977 0.27165678 0.27609253 0.043285668 -0.43322667 0.5445366 0.34570485 0.15316276 -1.6611294 0.2482306 0.4293362 1.361449 2.1245809 0.01059977 0.44501746 -0.7540941 0.9629207 0.3158348 -0.07884154 1.6106563 -1.6644213 0.5077681 -1.2532036 2.2168226 0.38862926 -0.16272075 1.094381 0.26377052 0.5889132 -1.5523024 0.22449613 -0.8595613 -0.54010904 -1.5650637 0.34955087 -1.3322151 0.77988225 -1.0807911 0.669208 -1.183093 0.6517878 -0.5969092 -1.9399416 -1.0811353 -1.7087841 -0.6268194 0.40739834 0.30103347 0.49950486 -0.4363637 -0.5482056 0.58668125 0.85555404 0.080085754 1.0281783 0.8619983 0.65178585 -1.0137179 -0.9574668 -1.3754343 -1.1180627 -0.07924782 -1.2867095 0.6361793 0.6807905 -1.150113 -1.2712797 1.3855127 0.7582847 -0.35981935 0.22966892 -0.66651785 -0.94140947 0.51371706 -0.4082934 -0.6453704 -1.0959893 0.072766304 -1.0175343 -0.17267407 -0.88477904 0.59340024 -0.0081169605 1.0304545 -0.35471356 -1.0728229 -0.34446427 0.49588788 0.08636764 -0.0025270581 1.1790208 -0.7856974 -1.30934 0.24182013 -0.15613538 0.38996872 0.3710682 -0.007956147 -0.50433964 0.94077003 -0.36358884 -1.5409857 -0.77453756 0.7221106 1.9011762 -0.2495821 0.026569206 0.6104696 0.76913285 -0.14762443 0.11344373 -0.86480504 -0.2545049 -0.023989767 1.2407863 -1.4178158 0.33181524 -1.0400608 -0.97192377 0.46338928 0.5675987 0.265287 1.6963114 -0.5890017 -0.93580663 -0.08772761 -0.8470324 0.96756786 1.8522779 -0.45192987 -0.6407133 -2.3911123 -0.033795998 0.2139059 -1.0057482 -1.1781509 0.82431686 -0.873767 -0.8661232 -0.66478014 0.07861768 -0.62630236 0.38128427 -0.2435002 -0.3252346 0.9892614 -0.011195496 -0.09184611 0.9683811 -0.44558737 -0.5248785 -0.66898644 -0.6014433 -0.14238063 -0.96688145 0.81665534 -0.93844557 -0.33468795 -0.4313377 -0.51654893 -0.74886763 0.55673885 0.868415 1.244304 -0.26809737 -1.2227846 0.049471818 0.41366813 -0.48360148 0.29367417 -0.4133579 -0.65024805 0.54196286 -0.17389938 1.3242673 0.40288562 -1.678806 -0.5826529 0.38975143 1.2446339 0.25391072 0.3704372 -0.17593807 -0.32957548 -2.2567341 0.6254325 1.6223286 -0.37429455 1.1563457 -0.31152558 -0.11931418 -0.94589823 -0.31274512 0.25364086 0.4462996 0.053433567 0.0629928 -0.313919 0.6576774 1.8381886 0.010959804 -0.5450233 0.044298563 0.68219656 0.8386229 -0.6758133 0.3702733 0.0032767504 -0.59368825 -2.6223955 -1.0567507 0.7639504 -0.13162929 -0.31961212 0.62000376 -0.5139067 -0.26878121 0.4222389 0.010996312 -0.8116749 0.062046975 -0.51221365 -0.7625299 -1.2972385 -1.5561488 1.1741129 -0.90136516 -0.035824433 0.7569163 0.27113527 -0.17531724 0.43014047 -0.38468933 -0.27676308 1.0677204 1.2016171 1.0017655 -0.2787009 0.22325481 0.42289048 1.4858503 0.15285778 1.2021856 -0.62346244 1.0824709 0.8292873 0.96886736 -0.5642426 -0.5691681 -0.02250436 -0.6425017 0.2342797 -0.9890171 0.86775064 0.7776851 -0.31800467 -0.89373666 0.2856682 0.3585691 -0.27078086 -0.4325087 0.47032115 -1.5260857 0.25403556 1.7578149 -0.8739806 0.13104214 -0.4748052 -1.0011884 0.9355881 0.7217286 0.23840062 -0.4094432 -0.31979054 -0.18664509 -0.4948433 -0.9208111 -0.7619273 0.6190926 0.7846482 1.8159794 1.0842164 -0.28045473 0.58873856 1.8473104 0.6867219 0.39980704 -0.764951 0.3727548 -0.08723706 1.0421925 -0.48788828 -0.37746146 0.15482476 -1.1563976 -1.5221907 -0.32145077 -0.109849125
Q7JMS4_CAEEL 0.2274255 -0.29603887 -0.033006515 -1.4122359 0.5482136 -0.8259118 1.2336355 -1.2809517 -0.0062955767 0.013671612 1.0443829 -0.7611096 0.31946123 -0.39275593 0.27271897 -0.60486454 0.83236885 -0.35910726 0.3923256 -1.182337 0.2723441 -0.8232162 -0.71574914 -0.16039208 -0.4031762 -1.0890821 -0.4802688 0.33556023 -0.3441593 -0.39452612 0.4544862 1.0330107 1.3995515 -1.5092173 -0.7589698 -0.89388794 -0.116353184 -0.088492386 -1.155576 0.31483135 0.22344391 1.0174253 -0.65470743 0.19109845 -0.9309749 -0.35019165 0.29339945 -0.2883075 -0.58814365 -0.7956395 0.9122878 -1.066249 0.9256325 -0.39643896 -0.8940865 -0.7743944 -0.86539924 1.0354337 0.23217276 0.22466946 0.33344293 -0.4482994 -0.097860366 0.5863174 0.20797643 0.99755675 0.5152008 -0.5205605 0.023399502 -0.5947648 1.2082508 -0.41273618 0.23250464 0.30322504 1.3048244 -0.74284875 0.5360936 -0.28756362 0.19111903 -0.7050669 -0.8370857 0.030595675 -0.6595175 -0.9113904 0.5456543 0.4846484 0.8148899 0.13684206 -0.34155947 -0.6150595 -0.4449892 -1.0663472 -0.04449557 0.5036649 0.1738899 -0.12184011 -0.05242703 0.8942758 0.43298906 -0.6493269 -0.7546135 -0.71751547 0.6715801 -0.94455254 0.36026073 -0.12477819 0.63202876 -0.13831918 -1.0669116 0.5217486 -0.2267375 1.1305737 -0.5154118 0.15144144 -0.19344154 -0.13018328 0.012490526 0.14868289 -0.3576372 -0.38214654 1.1429827 1.2280295 -0.79522014 1.2924392 0.8174195 -0.34450147 -0.8655619 0.38761324 -0.64924043 -0.6462427 -0.19384375 0.32556885 0.051501893 0.6848563 -1.2560472 1.04795 1.0648923 -0.25135052 -0.78731364 0.28781563 0.46445388 -0.88316166 0.080940604 0.40950382 -1.0233908 0.16757086 -0.42445338 0.5652908 -0.39158362 -0.14458953 0.24078882 -0.78961194 -0.7032697 0.03167866 -0.6072565 -0.45587072 -0.8591428 0.12184672 1.0135818 0.5927237 0.63115704 -0.4784336 0.62087405 0.9958556 -0.32302815 -0.91440785 1.3620573 0.31411025 -1.0579638 -0.492598 -0.8454443 1.0850016 0.08618246 0.25016266 0.5816895 0.49168572 0.39468694 -0.38210633 -0.5296171 -0.71485806 -0.2904044 0.5772217 -0.6386218 0.63622856 -0.8305386 0.4028956 -1.0364755 0.39300865 -0.56245375 0.11513361 -0.8509855 -0.5509966 -0.4266019 1.2485571 0.2061144 0.14605877 -0.079817854 0.46452624 -0.50073564 -0.29071677 -0.22336495 1.4249626 -0.20238739 -0.25379318 -0.80446166 -0.75553703 0.9992354 -0.5821356 -1.3180089 -0.4115783 -0.8514842 -0.48873657 0.07956441 0.31804776 0.17019334 -0.18308714 -0.11383526 -0.58270895 -0.665566 -0.13589351 0.24310726 0.33992416 -1.416858 -0.041273396 0.51237494 1.210125 1.0220037 -0.09532691 0.79906 -0.086688146 0.37179857 0.6993015 0.5388611 0.616225 -1.1197236 0.13130969 -0.5121242 1.5501268 0.60745406 -0.16235802 0.72070485 0.3599054 -0.076715976 -0.94260484 0.25678566 -0.2413616 -0.32156122 -1.5381622 0.35842198 -0.8559953 0.33388382 -1.2426383 0.80168647 -0.2536355 1.2697715 -0.48448724 -1.5956895 -1.0086863 -1.0001626 -0.58820224 -0.082280174 0.49387637 0.38117275 -0.15279977 -0.45827016 0.010192089 0.12291856 0.1643759 0.68771183 -0.29406923 0.35379615 -0.78747016 -0.057224393 -1.3382156 -0.27809867 -0.17162578 -0.1226112 0.069220185 0.5318787 0.18442632 -0.15593015 0.6778457 -0.026235193 -0.8112949 0.012259036 -0.32270646 -0.6481011 0.15426156 -0.5752469 -1.058904 -0.5156955 0.5729284 -0.5634765 -0.1966929 -0.1616486 0.5740185 -0.64262056 1.0376228 0.024321694 -1.005403 0.13106644 0.17519993 0.15803978 0.46812433 0.21532778 -0.6201984 -0.8564569 0.071844935 -0.79996574 -0.032161385 -0.14535144 0.13602021 -0.902166 0.28479803 -0.32899308 -1.3950568 0.01585973 0.52690995 0.7831118 0.18709415 0.14745462 -0.62329245 -0.262854 -0.6532198 -0.024973404 -0.55789554 0.2896032 -0.2956377 1.2855545 -0.7745172 0.13349558 -0.9215958 -1.6100187 0.52983844 0.27233374 0.2231748 0.9647454 -0.6815338 -0.7401545 0.37384707 0.098588005 0.079959884 0.7346808 -0.29207882 -0.87269473 -0.86790276 0.3219689 0.59500605 -0.84722334 -0.460117 0.6866683 -0.33535436 0.051628634 -0.75275564 -0.017500073 -0.1848345 0.44864398 -0.5558449 -0.48504502 1.307061 -0.19116352 0.17773765 0.7683007 -0.28470773 -0.4750165 -0.11664446 -1.1426227 -1.4528028 -0.99282223 0.6404964 -0.8952331 0.2717805 -0.5089314 -0.3861786 -0.9483389 0.68661916 0.8019686 1.0619658 -0.10422446 -0.7931223 0.32461482 0.39868924 0.1761818 0.5211041 0.1468435 -0.018390473 0.14388695 -0.07392978 1.2421125 -0.45999616 -1.452458 -0.4127121 0.51640236 0.45510668 -0.18288906 0.2172858 -0.23340395 0.6175897 -1.1693635 0.2207047 0.9437199 -0.17942783 0.011775114 0.44674855 0.42730647 -0.99201274 -0.039908264 0.2653849 0.775402 -0.8156156 0.3495807 0.3506729 0.18814297 1.1852933 -0.34544104 0.22961965 -0.00066948496 -0.88569105 0.032558545 -0.27433547 0.33090225 0.3878178 -0.17961013 -0.9923354 -0.6748034 0.70517194 0.34499723 1.1106375 0.4085595 -0.7174927 -0.45220515 0.4640453 -0.271909 -0.15882301 -0.70662594 -0.17721975 -0.2893486 -0.83989155 -0.88430864 1.0680081 -0.0607649 -0.43025568 0.49883044 -0.6269951 -0.25471643 0.013063118 0.19868368 -0.410455 0.35064936 1.1278309 -0.113682 -0.7363249 0.1385144 -0.4037414 0.8508315 0.7738862 1.1718574 0.0769076 0.4948218 0.33171046 0.46131623 -1.087719 -0.0741513 -1.0062816 -0.17451538 -0.49181354 -0.47055462 1.3182164 0.56168276 0.28773418 -0.47940424 0.08133757 0.1829311 0.057781164 -0.2793359 0.5414634 -1.5136127 -0.14189246 1.0087531 -0.6243316 -0.32903874 -0.19616714 -0.8111681 1.0134213 0.8331872 -0.31255874 -0.47434253 -0.15447393 -0.23953223 -0.5606214 -0.68238974 -0.44167274 0.32000107 0.09308186 1.5417063 0.23433924 0.55836743 1.3311368 1.5632639 0.37629044 0.28660408 0.25354752 0.077449 -0.2524569 0.668308 0.04176576 -0.35766375 0.8209528 -0.94653 -0.45435837 -0.2278247 -0.82019377 0.6620147 0.058152948 -0.23912095 -1.0575075 0.29857624 -0.22537732 0.9288567 -2.0376406 -0.01546488 0.6084175 1.0180539 -0.9376703 1.0121067 0.13538058 -0.48829377 0.5615908 0.8545625 -1.0888218 1.0707419 -1.0655899 0.21155158 -1.387381 -0.45156452 -0.6554003 -0.75678015 -0.8092325 -0.014897764 0.91347337 -0.15088989 -1.3108985 0.7448031 1.1058156 1.4678 -1.3371418 -0.5736885 -0.8113251 -0.40280885 -0.19595817 -0.87424505 0.66046095 -0.10738783 0.47033313 -1.5513341 0.08352216 -1.9121677 0.35372323 0.91271377 -0.9931381 -0.2032202 -0.6188139 1.308692 -0.7906426 0.74204504 0.5612693 -1.3975403 -1.3777268 -0.54049987 0.0024662912 -0.04005698 0.9933893 0.42276168 -0.5396296 0.4436782 0.12407486 0.49155614 1.0460923 0.43170315 -1.0479136 0.32565105 -1.3197551 1.0587814 -0.85927856 1.0715117 -0.72645676 0.89810354 -1.1454093 0.97671324 -0.92415994 0.11316122 -0.74565125 -1.2078142 0.44454274 -0.4725426 -1.0200374 -0.5190666 0.2229224 1.6041857 1.5632794 -0.32428634 -0.46117914 -0.853037 -1.0849361 0.47417796 0.99223965 0.40872788 -0.25033385 0.36772645 0.92094773 0.08046402 -1.1216075 -0.4539802 -0.73993695 -0.090498716 -1.4665207 0.5225353 -0.11064562 0.9089576 -0.18887334 -0.15633813 1.0419096 -0.7949188 0.06235574 0.096695065 -0.19837016 -0.31616944 1.0677731 -0.20307204 -0.0392077 -0.3412486 -0.3014255 0.59915006 1.1550266 -0.4602261 1.031418 0.8866111 -0.034589827 -2.079398 0.22706227 0.5299017 -0.50123876 -0.5160036 0.46901074 -0.06942195 0.9307852 -1.2108579 0.75485253 1.0669038 -0.4073851 -0.977425 0.63631487 -0.59916663 -1.0196618 -0.43962914 -0.2619653 -0.46081755 -0.052541852 -0.65633225 0.6339181 0.08120905 0.023608852 0.72598135 -1.1404123 -0.77580196 -0.59391296 -1.0502558 -0.5219177 -1.3871223 -0.07458839 1.1943072 -0.3264073 0.99688107 0.020608678 0.3272894 1.0295222 0.15577486 -1.7025495 1.6728942 0.3602215 -1.2867038 -0.19427243 0.21065238 0.7416569 0.22546114 -0.5190776 1.0693562 0.3871782 0.56034863 -0.7348694 -0.41991597 -1.6316205 -0.462151 1.4484848 -0.46998528 0.91591495 -1.1006868 -0.1940783 -1.3938468 0.59533143 -0.6531114 0.8265944 0.25406542 0.010743313 -0.79702264 1.7011545 -0.9066495 -0.15199897 -0.72181284 0.14836316 -0.55607945 -0.37650102 -0.6933192 1.0257732 -0.12686571 -1.3909609 -0.6272048 -0.82722867 1.054635 -0.13871092 -1.4598536 -1.6161695 -1.103863 -0.7857838 0.17879215 0.5522644 -0.40759563 0.16107294 0.14114861 0.10525803 -0.46302253 0.48587286 0.33156556 0.27493456 -1.4030379 0.12045969 0.65920717 1.5624104 1.8440051 0.031118542 0.34257492 -0.6973481 0.9575838 0.45806855 0.10134725 1.3813857 -1.8070612 0.31575105 -1.089841 1.8493841 0.46591237 -0.24066278 1.101402 0.28062928 0.32946008 -1.4850729 0.14125869 -0.7442652 -0.5741745 -1.4978213 0.30911213 -1.5071914 0.85987234 -1.1364354 0.4555164 -1.0187745 0.6909642 -0.44731998 -1.768441 -0.7436353 -1.6564372 -0.40967906 0.13177162 0.4124031 0.2663428 -0.2800664 -0.43837816 0.76669484 0.8254771 -0.0021282583 0.71850073 0.9714987 0.7675892 -1.0933342 -0.9568933 -1.3918048 -1.0111974 -0.3291524 -1.0861008 0.73500574 0.473527 -0.88177466 -1.2261589 1.606399 0.49078614 -0.5577673 0.3576538 -0.49643117 -1.0098956 0.3227138 -0.63118136 -0.7651753 -0.74115634 0.23484012 -1.0903645 -0.15280801 -0.7737334 0.63837326 0.103737235 0.90100664 -0.16916685 -0.9453291 -0.46826994 0.58394414 0.1252398 -0.1314976 1.0295978 -0.77152944 -1.0759448 0.052214816 -0.31493086 0.3244586 0.6387614 -0.106622666 -0.55814594 0.8759129 -0.36792174 -1.4314346 -0.63413644 0.91182774 1.7069242 -0.36035773 -0.14202955 0.21245466 0.72152257 -0.20258087 0.36527428 -0.948416 -0.33438513 -0.12205711 1.4008324 -1.4565865 0.29163787 -0.99560124 -1.1286247 0.2851904 0.65733725 0.02259241 1.5448709 -0.6741924 -0.897534 0.13322082 -1.0706223 1.0199938 1.9498891 -0.42168567 -0.7489791 -2.1952403 0.060598902 -0.08819305 -0.8317845 -0.96075606 0.7784841 -1.0956492 -0.81947035 -0.50997937 0.20140217 -0.47428203 0.481435 -0.3727765 -0.37200886 0.9861953 -0.0020922609 -0.023946047 0.7557605 -0.6283408 -0.5955235 -0.40264142 -0.62553596 -0.32971898 -0.86362475 0.51440805 -0.87741506 -0.15889049 -0.411975 -0.6078301 -0.8629328 0.5292162 0.75875497 1.3810525 -0.12750292 -1.0746408 0.11117959 0.6189642 -0.46556792 0.45586652 -0.5240232 -0.47867304 0.32195348 -0.35788366 1.3422759 0.6629296 -1.5939028 -0.6122357 0.53909266 1.1912253 0.20243591 0.27208194 0.0056892186 -0.12981571 -1.9774244 0.7563968 1.7143548 -0.48781535 1.0761044 -0.32026505 -0.106015384 -0.9415808 -0.1633235 0.33595645 0.5051044 0.23296337 0.15985245 -0.4476455 0.6894077 1.8989019 -0.10788031 -0.45568544 -0.09543295 0.6184236 0.7994983 -0.5222796 0.571737 0.10207233 -0.6961756 -2.669607 -0.89542484 0.5256459 -0.2164877 -0.09690804 0.5399494 -0.6819389 -0.38261747 0.5649755 -0.030187815 -0.8506877 -0.109635495 -0.4516356 -0.6950168 -1.3715999 -1.6015723 0.8899673 -0.9124323 -0.013990361 0.90650207 0.056350425 -0.14822897 0.36551273 -0.33459687 -0.278471 0.9742483 1.0431021 0.7270438 -0.29835597 0.13831323 0.21382275 1.3067822 0.1467039 1.3132479 -0.70362073 0.76372653 0.83836025 0.8716719 -0.5604141 -0.32010674 -0.05112627 -0.47913846 0.05357848 -0.8045013 0.9086064 0.7081044 -0.39052278 -0.8321448 0.11126127 0.28928924 -0.32113278 -0.3578467 0.52848 -1.2713339 0.20464888 1.4583547 -0.60905874 0.24119072 -0.3983488 -0.87647915 0.9913117 0.6064192 0.11060916 -0.25140613 -0.28056467 -0.35997173 -0.3831804 -0.90586734 -0.7662011 0.6581367 0.628214 1.707158 1.0090902 -0.14555782 0.74470276 1.6216803 0.75352085 0.1618999 -0.70907354 0.5224093 -0.34580714 1.0812179 -0.33296406 -0.60101974 0.20131782 -1.0446947 -1.4221474 -0.18782297 -0.4726091
Q93875_CAEEL 0.20594124 -0.24411887 -0.08551056 -1.416657 0.48087347 -0.863471 1.1352763 -1.2641102 0.0042070574 -0.017656682 0.96438056 -0.6649396 0.31565985 -0.3935783 0.21984266 -0.59377474 0.79897213 -0.35327938 0.2846112 -1.2540945 0.19516204 -0.8035948 -0.58652186 -0.13660018 -0.36877438 -1.1351467 -0.28677285 0.17854355 -0.3241823 -0.34915456 0.37649235 0.9641095 1.4337622 -1.6189848 -0.76047516 -0.92120713 -0.18883605 0.02684185 -1.198063 0.34603667 0.361305 0.87287503 -0.5816999 0.13255589 -0.84843063 -0.3465128 0.29877692 -0.24664569 -0.6408261 -0.83865327 0.86339194 -1.0647303 0.9548566 -0.45430955 -0.8596341 -0.71667236 -0.9593561 1.080459 0.21569727 0.15197442 0.28920907 -0.3723046 -0.08470579 0.5418311 0.19690387 1.0229412 0.4625254 -0.36859187 -0.0559011 -0.5059205 1.1081986 -0.33422717 0.20255905 0.30054227 1.2816113 -0.72113276 0.4572663 -0.28378156 0.108591855 -0.70343703 -0.81626946 0.05364253 -0.6478154 -0.8276239 0.5626533 0.53800356 0.7302435 0.12344656 -0.354892 -0.64263684 -0.44013026 -1.0437255 -0.061402623 0.47963217 0.1553388 -0.12439654 -0.10585523 0.97497064 0.41825876 -0.5221304 -0.6774764 -0.67813855 0.631419 -0.93209046 0.40204406 -0.17498831 0.6252676 -0.08922619 -1.1147304 0.41851273 -0.20678677 1.198217 -0.38510108 0.059056174 -0.1740368 -0.11303908 0.13644592 0.19947864 -0.24516171 -0.47930923 1.174054 1.1666881 -0.7951897 1.3097701 0.8399032 -0.30887297 -0.9187672 0.37862444 -0.6727514 -0.6447857 -0.28948304 0.40071595 0.05983898 0.6556869 -1.2268549 0.91604775 1.1169362 -0.3207107 -0.7593236 0.30329636 0.5282663 -0.87904185 -0.0044832975 0.43219328 -1.0068331 0.19359636 -0.52948993 0.53751993 -0.37676755 -0.18435447 0.3087145 -0.7874109 -0.5717892 -0.020817364 -0.58426255 -0.44413933 -0.80224174 -0.052948486 0.959459 0.67324305 0.7278927 -0.4584314 0.6685521 1.0535816 -0.37292853 -0.8244088 1.4339777 0.24163295 -1.0554758 -0.5259753 -0.9757337 1.1709522 0.028212443 0.28659326 0.44994554 0.47636333 0.4195632 -0.2125277 -0.5709205 -0.69952124 -0.30796868 0.42961493 -0.6209477 0.640166 -0.8275463 0.31664982 -1.0098485 0.34075227 -0.5646297 0.10659119 -0.9520053 -0.52828115 -0.4275409 1.1311196 0.2864483 0.10396821 -0.050637946 0.45299378 -0.50124174 -0.26719013 -0.22224803 1.3630661 -0.25035217 -0.22066991 -0.78459996 -0.73087454 0.99158 -0.6524376 -1.2416196 -0.382804 -0.78630716 -0.5620596 0.13228144 0.34949088 0.12584256 -0.19802581 -0.12561105 -0.47855034 -0.6559754 -0.15290686 0.2736999 0.36101806 -1.4096521 -0.07402128 0.4705422 1.1306684 1.0085365 -0.018849045 0.74523973 0.050134372 0.2994558 0.7036254 0.5477239 0.5264424 -1.0251241 0.14921196 -0.56274766 1.509122 0.5473249 -0.2125243 0.6333583 0.35305676 -0.17142749 -0.9389188 0.2701628 -0.22178034 -0.32622847 -1.4802341 0.3667984 -0.8586023 0.34978 -1.1960694 0.7848292 -0.24488866 1.2925394 -0.5862048 -1.523087 -1.0043877 -0.96078825 -0.54999286 -0.054640215 0.5169375 0.38378462 -0.14602338 -0.454242 -0.09192387 0.100074016 0.14793856 0.761658 -0.30630028 0.37145868 -0.8883338 0.016698405 -1.338672 -0.3458555 -0.20972021 -0.10001723 0.123933144 0.48840928 0.12851407 -0.0681147 0.59877324 0.0027193252 -0.7851364 -0.07808963 -0.3195858 -0.68050855 0.12991783 -0.61502516 -1.1016204 -0.4868646 0.5854239 -0.47633827 -0.20306654 -0.15063559 0.6478492 -0.62923634 1.0910972 0.016408019 -0.93033266 0.22171597 0.088969655 0.12360033 0.41072056 0.10646656 -0.57439876 -0.85208386 -0.036889087 -0.7691738 -0.063245416 -0.14261676 0.20922577 -0.8939368 0.2389849 -0.29130825 -1.3722178 0.022387376 0.50213397 0.8322455 0.2911456 0.23945038 -0.63473946 -0.31307295 -0.7103963 -0.034057196 -0.5275082 0.2807206 -0.24856377 1.3433981 -0.71949846 0.116737425 -0.84816486 -1.7003533 0.4719824 0.3222033 0.067619056 1.0014791 -0.68591446 -0.6195836 0.3530964 0.09029273 0.07135278 0.7564199 -0.30103984 -0.78474075 -0.70301586 0.38794246 0.56948584 -0.77737045 -0.3803701 0.62533754 -0.38634703 0.09271488 -0.59400994 0.0061026905 -0.09761733 0.45241573 -0.40697256 -0.40560508 1.313478 -0.22189713 0.11744472 0.7593673 -0.29973713 -0.38224038 -0.15525573 -1.1761352 -1.5364813 -1.0704603 0.57366735 -0.93923503 0.26395032 -0.5661571 -0.39495587 -0.9256322 0.69270605 0.721405 0.994232 -0.102867745 -0.71164614 0.39461398 0.37313044 0.2431028 0.4906713 0.06577756 -0.005814864 0.17644823 -0.07293482 1.1934012 -0.43532494 -1.3215443 -0.42583475 0.49726143 0.3416756 -0.09617802 0.23753099 -0.22036071 0.6397688 -1.1068748 0.2005126 0.8611496 -0.2354241 -0.10442562 0.39223453 0.49475086 -0.97248477 -0.0075355372 0.25948647 0.83943564 -0.8613487 0.21072866 0.46083117 0.1316151 1.1144897 -0.38496926 0.23112077 -0.017018525 -0.86774445 0.052677054 -0.28804073 0.2955579 0.37062633 -0.1447223 -0.99057835 -0.65271074 0.8048733 0.37786818 1.1824557 0.31537855 -0.69299245 -0.47597685 0.59729284 -0.24735264 -0.12240389 -0.678008 -0.15639314 -0.24371211 -0.8314235 -0.8820064 1.041708 -0.016061112 -0.46263853 0.5066344 -0.57190305 -0.15812701 -0.07540892 0.24453108 -0.44708148 0.35209194 0.9609646 -0.1350068 -0.8254199 0.13631637 -0.43446684 0.77608734 0.7583702 1.1296502 0.009862612 0.42575693 0.30803376 0.3641732 -1.0824987 0.05487719 -1.0013143 -0.018971821 -0.59319663 -0.41866162 1.229169 0.59835505 0.32511735 -0.44810584 0.032188714 0.086647294 0.017679857 -0.2978517 0.45861164 -1.6195444 -0.19595349 1.0191642 -0.62688756 -0.35030678 -0.19075911 -0.838957 1.0148546 0.9190839 -0.39888087 -0.56539106 -0.2037654 -0.23031391 -0.52190775 -0.7356369 -0.41806293 0.30157587 -0.008344953 1.4998144 0.19987404 0.58243966 1.4050776 1.5523425 0.21571009 0.3115801 0.179125 0.07429225 -0.28615293 0.5697534 0.09954843 -0.31020525 0.83015007 -0.91225576 -0.42352378 -0.12755659 -0.92781496 0.6077435 0.06032573 -0.14354609 -1.0294398 0.17528133 -0.23301248 0.8901656 -1.9874464 0.0060873204 0.5781198 1.0331628 -0.8758545 1.0775379 0.13422261 -0.5327052 0.47615382 0.8934098 -1.101593 0.95658606 -1.0311611 0.2150237 -1.3470267 -0.43454733 -0.60963374 -0.69349146 -0.7911496 -0.03157829 0.9069085 -0.1965754 -1.2189561 0.7575283 1.0319184 1.3748158 -1.2452891 -0.5153112 -0.69342285 -0.312755 -0.13855676 -0.8991478 0.6189944 -0.122039475 0.33975717 -1.4199871 0.055059582 -1.8088406 0.32473907 0.85338885 -0.9907499 -0.2803079 -0.7300338 1.2204086 -0.76072294 0.68326265 0.5543315 -1.3404619 -1.3195709 -0.54151016 -0.021185288 -0.08583456 0.8857681 0.4516741 -0.5319169 0.35525107 0.13578305 0.5286092 1.0323402 0.29225114 -0.9073766 0.2617047 -1.248218 1.0776311 -0.8135075 0.99992746 -0.7049222 0.937768 -1.0918572 0.94111806 -0.83435696 0.050844867 -0.7440634 -1.1792439 0.4078684 -0.46740794 -0.9610758 -0.4953513 0.17181285 1.5396136 1.4787397 -0.30306664 -0.45701626 -0.7512929 -0.9869316 0.42292547 0.9685964 0.48282835 -0.22086906 0.3539076 0.8856947 0.06950108 -1.0132581 -0.45046568 -0.7376383 -0.16797282 -1.4367338 0.48991597 -0.075426005 0.9572625 -0.15431404 -0.17878515 0.9628477 -0.7785056 0.104536355 0.22777827 -0.19658138 -0.24441321 1.0092928 -0.16177316 -0.069063485 -0.4072424 -0.27473545 0.63759536 1.1601802 -0.5310263 1.0255243 0.88996416 -0.052813426 -2.00057 0.15867026 0.4823378 -0.5100072 -0.52446246 0.42658862 -0.13222523 0.8288974 -1.1933289 0.6840181 1.0017592 -0.3882555 -0.9283683 0.7006032 -0.697715 -0.9698083 -0.39727947 -0.27844077 -0.44415542 -0.13106515 -0.62771183 0.58906263 0.0801439 -0.0889109 0.6864028 -1.0812408 -0.78770274 -0.63615626 -1.137991 -0.3762382 -1.3518766 -0.032281768 1.223255 -0.2658895 0.93297094 0.029152095 0.122346066 0.9768856 0.10523041 -1.6355556 1.6294476 0.36147413 -1.2937788 -0.12423859 0.19948822 0.64164525 0.21397267 -0.5742437 0.9556753 0.37095442 0.48820856 -0.64846927 -0.37323186 -1.6809415 -0.4333416 1.3723392 -0.33713272 0.9209241 -1.0357363 -0.1674887 -1.3893851 0.57044005 -0.67331594 0.75802374 0.22321765 -0.036811616 -0.91952854 1.6220552 -0.9114587 -0.20844442 -0.73800725 0.18846981 -0.4790679 -0.48137525 -0.6406712 0.99058104 -0.18954849 -1.4548684 -0.6089292 -0.8940266 1.057179 -0.20142622 -1.4655832 -1.5021521 -0.95202166 -0.6606911 0.17772819 0.66239864 -0.3372924 0.14018744 0.07604823 0.016425908 -0.40886202 0.45464852 0.2972289 0.20524019 -1.347963 0.1747284 0.6682194 1.4367733 1.7613729 0.029651076 0.30268013 -0.7325945 0.93318063 0.44779325 0.16806936 1.3094877 -1.6154262 0.36906084 -1.0446328 1.8571919 0.47269598 -0.161664 0.96574855 0.21584482 0.3029065 -1.427626 0.10230128 -0.7254091 -0.5475865 -1.4149987 0.23163128 -1.4508233 0.7405217 -1.0321676 0.42550996 -0.9564361 0.72538954 -0.43507805 -1.7421836 -0.8423583 -1.5917788 -0.42613006 0.18617207 0.3887297 0.263119 -0.26150516 -0.37378594 0.7638211 0.7259252 -0.05483627 0.75171614 0.91841584 0.761452 -1.021697 -0.91319543 -1.3317014 -0.98534155 -0.3156173 -1.0222535 0.65552515 0.45828462 -0.89362925 -1.1010718 1.5522922 0.48378992 -0.444041 0.31843856 -0.51851827 -0.9332192 0.31575367 -0.6311185 -0.7937191 -0.75688225 0.35504267 -1.0142317 -0.1421157 -0.68331504 0.6251717 -0.0678071 0.9056485 -0.17677478 -0.89993095 -0.40472555 0.6172121 0.009094067 -0.034737825 0.9738059 -0.7986491 -1.0455118 0.12937112 -0.33384982 0.33769736 0.614216 -0.08699459 -0.56014174 0.8464348 -0.37606215 -1.3541476 -0.61724037 0.81977606 1.7303559 -0.35014513 -0.09711797 0.29771933 0.7828948 -0.25524893 0.29834196 -0.899209 -0.27956614 -0.12496912 1.3056747 -1.3584341 0.32913467 -0.9601584 -1.0658926 0.31252816 0.58589375 0.002115637 1.4734551 -0.6353568 -0.77070194 0.0653499 -1.0063976 1.0805509 1.8558632 -0.3778932 -0.57965654 -2.1406984 0.040010538 -0.017464796 -0.7688475 -0.9240067 0.7408805 -1.0790439 -0.7855961 -0.58116966 0.26055536 -0.49347898 0.41338778 -0.3698052 -0.21822327 0.93456554 0.0014785429 0.04568519 0.6708773 -0.5827735 -0.51879853 -0.3726686 -0.57621676 -0.2797381 -0.8370078 0.6044205 -0.82847095 -0.11921904 -0.42222166 -0.53854626 -0.7440223 0.5305268 0.75481313 1.2348038 -0.13145116 -1.0355163 0.08919495 0.5765483 -0.4843284 0.41897926 -0.4555827 -0.49696288 0.33031312 -0.3209153 1.250276 0.57018155 -1.4997853 -0.55404305 0.47439563 1.1615511 0.18180282 0.25226155 -0.023723712 -0.19198482 -2.01038 0.6023598 1.598353 -0.4610885 1.0444012 -0.25382614 -0.00023762882 -0.92871076 -0.18312062 0.29074505 0.48857263 0.30476508 0.16875567 -0.42518458 0.6780483 1.680234 -0.051194113 -0.4044871 -0.13144724 0.5501434 0.7907745 -0.48458982 0.48450306 0.075123616 -0.64114606 -2.488665 -0.95198137 0.4727459 -0.12849209 -0.1401612 0.47301617 -0.58004236 -0.29865742 0.58058286 -0.0019926827 -0.77569515 -0.03484724 -0.43986377 -0.6265402 -1.3359503 -1.5128365 0.9744074 -0.95353955 0.0074815876 0.83312845 0.11999751 -0.12215069 0.35734376 -0.32793215 -0.30609378 0.90152377 0.9549976 0.6917593 -0.2921003 0.18370318 0.19995566 1.3481559 0.14932059 1.2581238 -0.67722416 0.79448706 0.77298975 0.88740796 -0.5170591 -0.3497003 -0.047074784 -0.50260824 0.13946112 -0.8271869 0.9096997 0.71476537 -0.3747004 -0.8041992 0.13047741 0.28397864 -0.3266314 -0.3694407 0.5174954 -1.2553366 0.18477266 1.4868919 -0.64463043 0.24737656 -0.3938737 -0.9548592 0.90461975 0.6182654 0.16306452 -0.29967812 -0.28990558 -0.31907323 -0.48099887 -0.8649067 -0.70380956 0.624535 0.6054368 1.6758636 0.954978 -0.15252416 0.7579923 1.5914825 0.69174796 0.25366095 -0.6318171 0.3608605 -0.23662359 0.96755934 -0.34107384 -0.4048845 0.18823354 -1.0032581 -1.3718128 -0.18634689 -0.34326982
UBP46_CAEEL 0.1961222 -0.17100771 -0.104386844 -1.4360566 0.4703638 -0.8494333 1.0999057 -1.2948004 0.014859385 -0.059404425 0.9223227 -0.7015736 0.32331622 -0.40664303 0.20262878 -0.61153495 0.8191302 -0.34430498 0.26419428 -1.3661485 0.073828176 -0.8217831 -0.54422474 -0.1225601 -0.38871235 -1.1712615 -0.2215374 0.061920017 -0.29048556 -0.3377568 0.35280082 0.9160293 1.4509078 -1.7640929 -0.8082205 -1.0053813 -0.23675558 0.05144334 -1.2745745 0.39139998 0.4544078 0.8083925 -0.53441477 0.10536088 -0.75074106 -0.35509866 0.3080092 -0.23089264 -0.6695876 -0.9377333 0.83544755 -1.1101685 0.97299176 -0.4954108 -0.87124157 -0.65133667 -1.0579665 1.1325748 0.18338528 0.12786293 0.29119885 -0.3369809 -0.076786995 0.48392347 0.1439453 1.1232263 0.41481522 -0.33348113 -0.124605775 -0.4629228 1.038381 -0.34398317 0.20768896 0.30515504 1.3255899 -0.7403246 0.48132133 -0.3150779 0.04348421 -0.68607396 -0.80623025 0.05732269 -0.7149514 -0.7086124 0.607128 0.6366927 0.6859028 0.12202023 -0.38346225 -0.7067245 -0.432516 -1.0446229 -0.07995091 0.5029562 0.09020603 -0.14116853 -0.12976903 1.0497797 0.3923164 -0.46520364 -0.7116029 -0.61542076 0.5938155 -0.98013747 0.43023014 -0.23821884 0.57475466 -0.04901999 -1.1149714 0.3737871 -0.19323653 1.2580659 -0.29539263 0.020151101 -0.16486467 -0.11852453 0.16201499 0.20281589 -0.10824694 -0.54586643 1.2073493 1.1612682 -0.81031644 1.3286164 0.8845768 -0.30436388 -0.9043703 0.37747398 -0.69854665 -0.6936499 -0.37734035 0.49769875 0.04909867 0.6448045 -1.2557238 0.8742022 1.1686728 -0.36068696 -0.782832 0.27694476 0.5843601 -0.8977327 0.02389117 0.46664158 -1.057389 0.19727579 -0.572006 0.53459984 -0.41088098 -0.21245417 0.3550468 -0.7944803 -0.52284133 -0.04057403 -0.5774009 -0.39218152 -0.7872212 -0.1391305 0.94631433 0.75873876 0.82606816 -0.45600632 0.7627073 1.1139762 -0.35704166 -0.7667409 1.4096603 0.22791216 -1.1455069 -0.606977 -1.1201048 1.2604761 -0.034687463 0.2833779 0.36698914 0.53475165 0.4362167 -0.06423271 -0.6025764 -0.68814874 -0.3101982 0.3522724 -0.64070696 0.7143326 -0.8898282 0.26762173 -1.0260456 0.31016415 -0.5359031 0.06498282 -1.0207875 -0.5652888 -0.40313464 1.1107811 0.32681376 0.11953621 -0.08356129 0.45264667 -0.4914428 -0.24266776 -0.16894509 1.3105142 -0.2535473 -0.21023156 -0.75991184 -0.7623981 0.99273914 -0.6881895 -1.3164692 -0.35898817 -0.7448289 -0.6230158 0.14894165 0.28756365 0.11075764 -0.19540009 -0.055389427 -0.43685472 -0.68866205 -0.15816906 0.32786041 0.38625708 -1.4678519 -0.056054562 0.4579495 1.1040835 1.0268738 0.030925628 0.7578042 0.15199654 0.27810162 0.7297317 0.55226225 0.4645213 -0.9632865 0.15603597 -0.578791 1.516865 0.54147226 -0.23706605 0.63555014 0.38612163 -0.2683338 -0.9760654 0.23515236 -0.19422409 -0.41915894 -1.5462162 0.41084749 -0.889162 0.34368598 -1.1968305 0.7508609 -0.23612806 1.3780401 -0.6476251 -1.4959438 -1.064467 -1.0018805 -0.5761476 -0.07663977 0.6036607 0.4919504 -0.16597635 -0.4899847 -0.16284099 0.1462543 0.17863944 0.82143736 -0.24031201 0.35769606 -0.9963937 0.029661704 -1.3927888 -0.384062 -0.19322626 -0.04910509 0.17099145 0.4881034 0.07406732 -0.023024097 0.56800973 0.08083862 -0.79453945 -0.15019935 -0.31120744 -0.6907558 0.08756229 -0.67437124 -1.1762826 -0.52315384 0.5318313 -0.4515867 -0.19013315 -0.15753137 0.69894075 -0.55474675 1.1780884 -0.02652068 -0.8671041 0.2660622 0.057767034 0.11274058 0.37576655 0.0154164955 -0.55541444 -0.86816657 -0.09474353 -0.73847044 -0.08971955 -0.2305361 0.30522957 -0.93056375 0.18562984 -0.2313965 -1.4118774 0.009980496 0.5098594 0.8560236 0.32937592 0.28747967 -0.675269 -0.3352602 -0.7633043 -0.054295063 -0.47994933 0.30078435 -0.22916883 1.4199469 -0.67822564 0.10486933 -0.7903534 -1.8163638 0.495916 0.39975423 -0.015411593 1.0592681 -0.64235365 -0.5915446 0.39504892 0.13949546 0.08201289 0.7605543 -0.30349147 -0.7946891 -0.65082633 0.49298748 0.58122385 -0.766204 -0.32670945 0.58020896 -0.47231954 0.15397935 -0.5377971 0.029605707 -0.059322957 0.54224086 -0.26630944 -0.38250485 1.3873754 -0.22428213 0.1369457 0.78381765 -0.2935454 -0.35441762 -0.1881156 -1.2500513 -1.6919003 -1.1531487 0.54140335 -0.989706 0.27387115 -0.58715475 -0.443318 -0.9403731 0.6892493 0.70696497 0.97289324 -0.11788596 -0.6674237 0.443155 0.39020285 0.31240678 0.5369387 -0.0071305074 0.018322203 0.1927476 -0.10666105 1.2254124 -0.47673485 -1.3351748 -0.43476817 0.5028148 0.32479173 -0.099845245 0.24608155 -0.23206177 0.6567577 -1.0828221 0.21718733 0.89204705 -0.3209821 -0.17427698 0.3814438 0.56636035 -0.9815384 0.017542928 0.28082454 0.89207673 -0.93299097 0.117764905 0.54834086 0.07176201 1.1141273 -0.4230271 0.2247813 0.020709377 -0.8349112 0.052484944 -0.3859553 0.311916 0.38243747 -0.10395022 -1.0352645 -0.6082772 0.9231594 0.40159947 1.2963816 0.24294415 -0.7134778 -0.46300048 0.6945435 -0.27259022 -0.10643228 -0.69311595 -0.11385195 -0.21109505 -0.8177124 -0.8846848 1.0567148 0.02645072 -0.45991066 0.5511474 -0.55519307 -0.10766308 -0.16895892 0.31301135 -0.5312492 0.39164984 0.8760936 -0.1869066 -0.9278774 0.1474147 -0.44558394 0.6632648 0.74255675 1.1435449 -0.0006954372 0.38118574 0.25850675 0.26191068 -1.0547506 0.11369924 -1.0584459 0.08551298 -0.6177838 -0.43679285 1.1572962 0.64561945 0.3089857 -0.48949432 0.022033563 0.034849457 0.012400632 -0.3410178 0.39341855 -1.726099 -0.2751292 1.0853689 -0.6308612 -0.36839086 -0.20089594 -0.7941539 1.0438766 0.9950212 -0.42367905 -0.67251474 -0.21213554 -0.26027626 -0.50539285 -0.8378355 -0.39195347 0.30517974 -0.03564365 1.5001042 0.21489155 0.71696615 1.4595963 1.579767 0.10163822 0.31287795 0.093688756 0.05855223 -0.38171327 0.56572783 0.1333381 -0.27904615 0.8795934 -0.9477796 -0.41863894 -0.059564136 -1.0129322 0.5722238 0.112563595 -0.15491067 -1.0305709 0.28506204 -0.21020533 0.8312968 -1.9813387 -0.012376729 0.57194436 0.9961142 -0.94989204 0.9886036 0.119201265 -0.48613203 0.45661426 0.84193337 -1.0069317 1.0156204 -1.0002091 0.2842769 -1.2839227 -0.4752295 -0.629653 -0.779399 -0.7169234 -0.04778356 0.8710142 -0.081421696 -1.2547474 0.6998948 1.0171682 1.445257 -1.2558947 -0.525594 -0.70408314 -0.29912448 -0.14941356 -0.7624942 0.64205897 -0.057587672 0.49444085 -1.4988387 0.111121155 -1.7770491 0.2899691 0.8593886 -0.98705184 -0.207979 -0.61967134 1.3307942 -0.66996956 0.63074 0.60600734 -1.3905587 -1.2488098 -0.51280475 0.049653083 -0.055494238 0.9315419 0.45013434 -0.5387579 0.40999475 0.17445134 0.44881907 0.99578094 0.32558197 -1.0185446 0.28304762 -1.2347403 1.0413598 -0.837283 1.0091969 -0.6430901 0.892997 -1.089962 0.8944049 -0.8855451 0.11700814 -0.74409676 -1.1133919 0.40409285 -0.4336908 -0.9898343 -0.5125454 0.20795794 1.4867289 1.448896 -0.29603192 -0.42396462 -0.85875803 -1.0380188 0.43186945 0.97278094 0.4483726 -0.1978065 0.30241022 0.91178066 0.015552241 -1.0757465 -0.4063106 -0.74902403 -0.17374527 -1.3787528 0.4923163 -0.106192164 0.9338207 -0.15959084 -0.17475808 0.9546524 -0.7586086 0.053322382 0.15847999 -0.18779805 -0.24057126 0.91718686 -0.19193242 -0.10605905 -0.46423084 -0.29049218 0.6397087 1.152836 -0.51385856 1.0382558 0.8821309 -0.09643226 -2.0049367 0.14868167 0.51249194 -0.59892225 -0.4401355 0.42846453 -0.15472883 0.8603392 -1.1296763 0.8227868 1.0645307 -0.4628861 -0.9486593 0.6427037 -0.6320411 -0.91416335 -0.37430188 -0.28346774 -0.483814 -0.097877175 -0.6469997 0.5997532 0.03344208 -0.02974446 0.66051495 -1.0397562 -0.822582 -0.6109975 -1.0711919 -0.40257117 -1.2806721 -0.029906996 1.2141639 -0.3474094 0.90645516 -0.048454955 0.23614013 0.95660335 0.12533125 -1.6579915 1.6166395 0.3785839 -1.3008634 -0.14231357 0.09598418 0.712407 0.24061555 -0.5448026 1.0223479 0.39647344 0.48038062 -0.66502774 -0.34895787 -1.6145222 -0.42444503 1.3793657 -0.40349728 0.9455992 -1.0989203 -0.12185471 -1.3762814 0.61465406 -0.5549523 0.70079756 0.23234823 -0.020282563 -0.80699 1.662471 -0.92352456 -0.23455194 -0.77330637 0.13538596 -0.49356252 -0.49509406 -0.6713248 1.0048709 -0.1836407 -1.5580374 -0.5812136 -0.8351957 1.0301836 -0.27195495 -1.4564711 -1.4418043 -0.9397453 -0.69704556 0.14899395 0.5511706 -0.3516424 0.077619284 0.12493888 0.025534093 -0.40068483 0.43992034 0.280945 0.25129542 -1.255275 0.10531928 0.7567932 1.5129198 1.7210962 0.009785432 0.3123537 -0.76154774 0.9090186 0.47161373 0.19949028 1.2902501 -1.628674 0.3591238 -0.9867356 1.7447555 0.5049635 -0.14555526 0.94631547 0.19149962 0.25058365 -1.4403464 0.11141941 -0.65241474 -0.5849505 -1.4326826 0.25704217 -1.542702 0.7691765 -0.9747082 0.41018474 -0.9614054 0.7334031 -0.39354715 -1.6907403 -0.77175856 -1.6450691 -0.3879671 0.033450916 0.48652673 0.27165216 -0.2094043 -0.40649998 0.82834786 0.7654697 -0.03212334 0.6773278 0.97602725 0.7731962 -1.0550902 -0.86603343 -1.3416835 -0.97873545 -0.3455386 -0.957936 0.6447791 0.4483224 -0.80472255 -1.128056 1.5895905 0.41629416 -0.54086536 0.42136443 -0.478493 -0.87964916 0.25255266 -0.6616393 -0.8046716 -0.6791388 0.3495907 -1.0345935 -0.1389056 -0.7048455 0.68946064 -0.019683529 0.9030069 -0.11673628 -0.9266771 -0.4910433 0.61716473 0.031078635 -0.09079122 0.99228525 -0.7477762 -1.016635 0.12170822 -0.38148516 0.3420157 0.64599544 -0.14117455 -0.60396594 0.80384874 -0.36056292 -1.3139535 -0.5801289 0.92134494 1.6692755 -0.434653 -0.09454332 0.2224785 0.7340375 -0.27455407 0.35643846 -0.9325739 -0.28481048 -0.15989952 1.3288537 -1.3159568 0.2753511 -1.0320358 -1.1435363 0.27615607 0.6599873 0.01614698 1.3975945 -0.6289664 -0.8073626 0.15784833 -1.0437384 1.1114663 1.835095 -0.3363803 -0.62349814 -2.076579 0.06673698 -0.037006866 -0.7872048 -0.84063256 0.72725385 -1.1219449 -0.83037126 -0.5983837 0.22952026 -0.46993205 0.44175574 -0.3865046 -0.2307221 0.91030705 -0.005652167 0.18512732 0.5415453 -0.64160854 -0.5463057 -0.29035014 -0.5965399 -0.3884802 -0.8770884 0.5138609 -0.79928756 -0.10664537 -0.43114257 -0.59697986 -0.7463746 0.5481927 0.694263 1.2260098 -0.06005655 -0.9713448 0.10144617 0.6575719 -0.46001995 0.43838352 -0.47898433 -0.50490683 0.26507652 -0.39415404 1.2758569 0.6646067 -1.5807908 -0.57238746 0.49050033 1.1511996 0.10615893 0.2843407 0.02821359 -0.12684143 -1.9326141 0.7156901 1.6413248 -0.5086141 0.96544254 -0.25444323 -0.026736874 -0.98991096 -0.18433508 0.3029706 0.5180079 0.34584817 0.1302551 -0.4053402 0.70448005 1.7160155 -0.086516336 -0.32021695 -0.16876444 0.5542352 0.7554785 -0.51925546 0.5552627 0.090755194 -0.6983509 -2.4380164 -0.852528 0.44872418 -0.118091054 -0.08875393 0.5195655 -0.69975895 -0.3135862 0.58081025 -0.09039019 -0.7695231 -0.098840624 -0.3588667 -0.5877874 -1.3497227 -1.4946532 0.9776955 -0.9139837 -0.001759896 0.8238571 -0.0083069205 -0.1494456 0.301279 -0.29018515 -0.3183658 0.951437 0.94331867 0.6599753 -0.40676984 0.107159324 0.10690458 1.3510352 0.13509637 1.2643545 -0.7555123 0.6576742 0.8189805 0.8670565 -0.5122484 -0.26807594 -0.045407593 -0.48948732 0.12656914 -0.7957625 0.98050964 0.6813856 -0.37940258 -0.8625517 0.0775224 0.32795838 -0.38772047 -0.34556878 0.50783986 -1.2031277 0.17328775 1.4025176 -0.59398735 0.2709127 -0.4224209 -0.9335687 0.979556 0.578267 0.12310851 -0.26983488 -0.25948477 -0.34186965 -0.5209417 -0.8346486 -0.69009435 0.68557346 0.5711957 1.6083672 0.96620154 -0.033657413 0.7375636 1.5481428 0.6779829 0.205909 -0.6156113 0.43376148 -0.34134287 1.0531816 -0.32927698 -0.46926117 0.21822628 -1.0002332 -1.3845614 -0.15099706 -0.4453444
Q9VDD8_DROME 0.18309315 -0.12758172 -0.13582382 -1.4421344 0.4638815 -0.87406796 1.0597593 -1.3205119 0.071004465 -0.09745166 0.88657063 -0.73020345 0.33427623 -0.40810314 0.19184867 -0.62305343 0.80805147 -0.3004406 0.24003789 -1.474064 -0.041791447 -0.8588169 -0.513126 -0.10163535 -0.34699598 -1.2001045 -0.1692244 -0.02933069 -0.27554408 -0.36366537 0.34214717 0.90097314 1.4447365 -1.886924 -0.82853603 -1.0871137 -0.30587322 0.058247708 -1.3987424 0.45805568 0.5357806 0.74799454 -0.5013437 0.07837772 -0.68164533 -0.35892814 0.30933243 -0.19445303 -0.70013744 -1.0045049 0.7980027 -1.1307153 1.0069424 -0.52051187 -0.8611617 -0.5991303 -1.1352946 1.1575452 0.17233522 0.10547104 0.3284521 -0.31183702 -0.08613356 0.45834738 0.110868216 1.195345 0.3914973 -0.3171255 -0.16905828 -0.40410694 0.9806112 -0.31755328 0.212003 0.32585338 1.3630257 -0.74251664 0.49870816 -0.29351518 -0.019171918 -0.65235174 -0.80187446 0.074006334 -0.7774275 -0.6417942 0.6359128 0.7466582 0.6429027 0.13601413 -0.40942755 -0.7527643 -0.44505954 -1.0546364 -0.123035155 0.519 0.045598336 -0.1943735 -0.1855805 1.0958724 0.4086265 -0.4097623 -0.7301959 -0.55602324 0.5567017 -1.044112 0.4612058 -0.30073833 0.54597455 -0.015626168 -1.095364 0.3767478 -0.20163505 1.27171 -0.2124475 -0.024542827 -0.17692316 -0.12852767 0.17875147 0.18530263 -0.015395433 -0.58739203 1.2257997 1.1390955 -0.8135101 1.3680727 0.9162432 -0.2774294 -0.9143206 0.40528935 -0.7338124 -0.7403689 -0.4429202 0.58270216 0.09281022 0.6648704 -1.3164438 0.82553005 1.2093565 -0.38703433 -0.8243349 0.22845499 0.6045009 -0.9394568 0.07743969 0.49019933 -1.1002538 0.23026924 -0.6257574 0.57405394 -0.4230236 -0.21507403 0.4032297 -0.8139861 -0.49558553 -0.051460646 -0.5721454 -0.3399492 -0.80433387 -0.22671092 0.94776475 0.82800674 0.90897703 -0.4752725 0.81943715 1.2011596 -0.32987872 -0.7346174 1.4016082 0.21080486 -1.2118134 -0.65450203 -1.2146574 1.3215147 -0.10142396 0.29993862 0.31783587 0.57701033 0.47386947 0.047649242 -0.65189254 -0.68884456 -0.33140364 0.2702519 -0.6846941 0.7536075 -0.93924505 0.23455422 -1.0524588 0.25897828 -0.5187584 0.018526917 -1.0973164 -0.61726534 -0.35737565 1.1110451 0.3707084 0.14129163 -0.08697368 0.45746547 -0.47949067 -0.21470062 -0.112236515 1.2763214 -0.23087065 -0.16328558 -0.75682706 -0.8439975 1.0192168 -0.71140057 -1.3935274 -0.34584984 -0.7478963 -0.6566125 0.20794293 0.24797702 0.11712744 -0.17347047 -0.03463631 -0.43307537 -0.7351161 -0.17890291 0.36529985 0.38930094 -1.5236648 -0.01808641 0.43314505 1.0797365 1.0475614 0.07857025 0.8061905 0.2615913 0.26751453 0.759205 0.57035625 0.42128223 -0.89053136 0.13964301 -0.593321 1.5282649 0.53724086 -0.2593115 0.6647619 0.42122585 -0.37819743 -1.0058463 0.2456686 -0.1845083 -0.543767 -1.6209447 0.44575995 -0.9057171 0.34935403 -1.2481383 0.72625625 -0.20593564 1.4501626 -0.6949209 -1.5022366 -1.1252315 -1.0432761 -0.596992 -0.07392323 0.6751963 0.57051307 -0.20118424 -0.49229297 -0.19071849 0.19337058 0.17685957 0.8654405 -0.19975184 0.34034058 -1.0600256 0.009256775 -1.4438506 -0.41347384 -0.16367199 -0.0033343374 0.24138954 0.49846745 0.037383758 0.0029277145 0.5184688 0.12833464 -0.80917674 -0.2590813 -0.32303768 -0.7079506 0.0689883 -0.7361208 -1.2420881 -0.5926641 0.47574502 -0.43185845 -0.18536368 -0.15408085 0.76593447 -0.48275733 1.2643503 -0.058706522 -0.816521 0.30783027 -0.011071986 0.10224555 0.35986537 -0.097339675 -0.5512333 -0.865792 -0.13136856 -0.7119784 -0.10672561 -0.2846624 0.38644952 -0.94945395 0.16074198 -0.17631903 -1.4495878 0.003603202 0.49922973 0.91100055 0.3869528 0.30548826 -0.73459893 -0.35905033 -0.79493344 -0.084051184 -0.45087123 0.3272834 -0.22638865 1.5024445 -0.6470632 0.1304967 -0.75450844 -1.9291756 0.5084183 0.47743306 -0.0824243 1.0848672 -0.6348741 -0.5680282 0.4263235 0.17477812 0.07591738 0.75837743 -0.32882884 -0.8703906 -0.6353971 0.61165744 0.5792897 -0.74253184 -0.29187256 0.5635339 -0.56158936 0.21704905 -0.482859 0.06278862 -0.04850474 0.6472065 -0.1775745 -0.3777644 1.4825735 -0.27861354 0.123240806 0.8008734 -0.24905567 -0.35087296 -0.23527654 -1.323547 -1.8026634 -1.2092333 0.53316087 -1.0550385 0.2828261 -0.63400686 -0.47670785 -0.9182439 0.676655 0.7146128 0.9694686 -0.12179752 -0.6206678 0.47405714 0.39438143 0.3620121 0.5845241 -0.07301156 0.017717022 0.20085807 -0.13959572 1.2519094 -0.5074036 -1.3195724 -0.45109242 0.49014178 0.31367415 -0.112017035 0.26990122 -0.24720404 0.6694922 -1.0717659 0.25107998 0.94375455 -0.37963405 -0.21534324 0.37157917 0.6257452 -0.9883949 0.079543605 0.32209152 0.9344762 -1.0187223 0.052022476 0.6611079 0.026605684 1.14718 -0.44396123 0.22622661 0.035837807 -0.79475325 0.053711377 -0.45547238 0.32972908 0.37797445 -0.052140377 -1.0918834 -0.5885931 1.0167592 0.43291324 1.3987545 0.15511736 -0.71967643 -0.4829076 0.7755748 -0.3015698 -0.08201387 -0.6974972 -0.09297814 -0.1864667 -0.78723145 -0.9024315 1.0658731 0.04705649 -0.48205346 0.58902615 -0.51764977 -0.05511856 -0.24986503 0.3481996 -0.6297317 0.38234198 0.8127861 -0.21300384 -1.0062069 0.17114547 -0.46015152 0.56172645 0.7412214 1.1904614 0.013267326 0.36326534 0.19109705 0.19851705 -1.0467695 0.16160777 -1.1245866 0.17984317 -0.64387053 -0.5045784 1.0919172 0.6911374 0.31721228 -0.53303516 -0.022252651 -0.012999624 -0.0023436085 -0.38524753 0.35764027 -1.8064587 -0.32215613 1.1463588 -0.60661113 -0.3669494 -0.21685533 -0.76331985 1.0644511 1.0731235 -0.4439845 -0.753222 -0.23485851 -0.2990237 -0.47982636 -0.93978107 -0.36148387 0.28824478 -0.052101456 1.5155382 0.22717638 0.81390315 1.5153297 1.6286895 0.026278507 0.2901199 0.02793156 0.024194399 -0.45286912 0.5668138 0.18505485 -0.23354718 0.9368669 -0.96667844 -0.42434826 -0.0013256341 -1.0816889 0.56490576 0.098674774 -0.09923907 -1.0430757 0.18965814 -0.23241954 0.8663373 -2.0211203 0.009475147 0.57386315 1.0205041 -0.9376993 1.0678139 0.12162615 -0.5126772 0.40389538 0.8763426 -1.0603069 1.0460579 -1.0256897 0.21095984 -1.3338684 -0.4997406 -0.5989803 -0.7684286 -0.740133 -0.11780057 0.8812054 -0.11908672 -1.2209342 0.7463252 0.9652381 1.3938963 -1.2578698 -0.58281606 -0.68822277 -0.3022447 -0.17034784 -0.81396276 0.62582177 -0.06294245 0.4486851 -1.3824482 0.13165179 -1.7558441 0.27634782 0.82748747 -0.9942075 -0.2789235 -0.7426713 1.3159976 -0.72154 0.65799963 0.5952219 -1.3506409 -1.2597338 -0.5141028 0.073951796 -0.07355162 0.89093304 0.463669 -0.5606147 0.34049147 0.1762764 0.46589813 1.0066718 0.27487215 -0.95952606 0.2476908 -1.2203858 1.0859501 -0.81710196 1.0154808 -0.6453001 0.98265135 -1.0885994 0.8895526 -0.86155665 0.1138772 -0.749805 -1.1558154 0.38093793 -0.46216932 -0.94088423 -0.487883 0.20370993 1.5133404 1.4627047 -0.31702638 -0.4751379 -0.79054964 -1.0168047 0.40435404 0.9669722 0.4555417 -0.22378603 0.3194769 0.90119714 0.025616188 -1.039959 -0.45279485 -0.75573766 -0.18048629 -1.3836902 0.49173793 -0.0875779 0.9297773 -0.19407697 -0.16784604 0.9343122 -0.7423001 0.085907355 0.22668071 -0.18325976 -0.21365626 0.926391 -0.24629232 -0.12784524 -0.5160593 -0.27094394 0.6746657 1.1615694 -0.5381502 1.1008133 0.90875065 -0.11214833 -1.9915394 0.14751309 0.44133204 -0.57576835 -0.42753616 0.4242053 -0.16076693 0.8400127 -1.1749964 0.8063887 1.0306118 -0.4373733 -0.9127019 0.67529166 -0.72675025 -0.93059844 -0.35950276 -0.27033204 -0.4937831 -0.12934844 -0.65759546 0.5907375 0.026900107 -0.0622805 0.6400245 -1.0922358 -0.8489191 -0.61348814 -1.1458465 -0.31736505 -1.3380618 -0.012728423 1.2680786 -0.27746648 0.9062172 -0.04742393 0.112836555 0.9506175 0.14738373 -1.6565211 1.6173909 0.37996972 -1.377557 -0.13694744 0.1003319 0.68677074 0.24026346 -0.58621997 1.0046566 0.44697887 0.46991634 -0.59907484 -0.37662712 -1.6946903 -0.4256199 1.337581 -0.3601497 1.0054085 -1.1021119 -0.10662947 -1.4205208 0.6045757 -0.593445 0.7001351 0.23174271 -0.07638493 -0.87841606 1.6249018 -0.9284409 -0.2217073 -0.77803487 0.18521777 -0.46210012 -0.5327964 -0.6189925 0.9893262 -0.16702548 -1.5261428 -0.6110071 -0.92334175 1.0497268 -0.28132242 -1.5337667 -1.387628 -0.9196224 -0.6648404 0.18506232 0.612961 -0.3171988 0.09964012 0.12101559 -0.054483525 -0.3748202 0.41574836 0.27487782 0.2115525 -1.3019521 0.16120537 0.76973534 1.4547069 1.7488836 -0.020142721 0.31114957 -0.7833327 0.95101273 0.46765986 0.23684521 1.28346 -1.555592 0.36542845 -0.98550844 1.8149306 0.5113124 -0.12737508 0.90049076 0.15485604 0.2829026 -1.4392548 0.09197134 -0.65056694 -0.5905682 -1.4800913 0.2669874 -1.5495769 0.70037097 -0.9606757 0.38484374 -0.970376 0.75445116 -0.42504972 -1.7729759 -0.8820435 -1.6759937 -0.45591015 0.0445346 0.40708828 0.29162446 -0.2204601 -0.37299037 0.817283 0.714167 -0.039148666 0.69723356 0.9037693 0.75308335 -1.0583287 -0.8667657 -1.3322866 -0.9815154 -0.32019407 -0.91872644 0.6226992 0.46596852 -0.84607565 -1.0438505 1.5627891 0.45524883 -0.48837814 0.4044137 -0.49685377 -0.84859467 0.24643973 -0.6561899 -0.8521854 -0.73446256 0.41879773 -1.004535 -0.11989131 -0.65014124 0.65704596 -0.071770094 0.9224079 -0.15756498 -0.9577924 -0.4757139 0.62745154 -0.03960211 -0.0048175454 0.95296156 -0.7567516 -1.037796 0.1720765 -0.34232828 0.33663988 0.62195504 -0.09978579 -0.598291 0.77240527 -0.34051597 -1.3145715 -0.56904805 0.8658165 1.713278 -0.43285975 -0.03733692 0.2460736 0.7661901 -0.2655133 0.29168278 -0.9122316 -0.23736088 -0.14754614 1.2850444 -1.3050781 0.3247238 -1.0515752 -1.1225646 0.3417911 0.6311881 0.034616075 1.4007994 -0.5949633 -0.81669873 0.11383214 -0.978189 1.1336014 1.769633 -0.35720593 -0.5852883 -2.0775104 0.04508832 0.046324782 -0.75842094 -0.8374027 0.7497438 -1.1146295 -0.86477935 -0.6851979 0.24745853 -0.5165777 0.4335746 -0.34076744 -0.16783305 0.9578989 0.0044551133 0.20186248 0.53278327 -0.6023494 -0.546054 -0.3039692 -0.5794935 -0.3440409 -0.86551464 0.61876917 -0.7619668 -0.075201094 -0.45999885 -0.5978457 -0.6862998 0.5813654 0.7483635 1.1656921 -0.092310384 -0.9889082 0.11434065 0.62420475 -0.44216967 0.43881544 -0.43697724 -0.5348872 0.29407778 -0.4203797 1.2482147 0.62478364 -1.6042688 -0.5331977 0.47581658 1.1855448 0.09491216 0.25309512 0.011298138 -0.18381411 -1.9811653 0.66623616 1.631798 -0.5045301 0.9508568 -0.21274824 0.034623962 -1.0182533 -0.17871419 0.3333986 0.5006758 0.34746355 0.13183439 -0.3698059 0.6998176 1.6786621 -0.04817869 -0.31721964 -0.11153469 0.5432409 0.75725734 -0.53756714 0.53285366 0.05177437 -0.680812 -2.389862 -0.88663185 0.4552372 -0.074941315 -0.12998052 0.4664381 -0.6445684 -0.27236518 0.5889455 -0.12915827 -0.8058423 -0.09474854 -0.389635 -0.56874526 -1.3271021 -1.4712784 1.0257789 -0.9679812 0.03156587 0.79828393 0.036552407 -0.12363651 0.31190786 -0.3093223 -0.33840135 0.94746035 0.9048624 0.67523885 -0.38883275 0.16002885 0.15133384 1.3728548 0.15791146 1.2451799 -0.6997965 0.74165547 0.80522716 0.8988918 -0.4870062 -0.33209 -0.074116796 -0.55608577 0.11548458 -0.8516102 0.9955918 0.7321564 -0.3748579 -0.8563016 0.11000617 0.32626393 -0.3600161 -0.36671147 0.48508453 -1.2197244 0.1780885 1.436649 -0.6849501 0.24964032 -0.42999363 -1.0101396 0.9343147 0.62315154 0.102079056 -0.29711398 -0.26064056 -0.35535282 -0.56750184 -0.8322943 -0.6408037 0.6717464 0.54783887 1.6645317 0.9885748 -0.029664075 0.7241189 1.5676768 0.6620759 0.25080493 -0.5849867 0.36053497 -0.28560826 0.99869883 -0.33258408 -0.35483485 0.21766241 -0.9951127 -1.3924263 -0.133172 -0.37378073
CALYP_DROME 0.18764885 -0.09436646 -0.16195 -1.4476391 0.46409014 -0.8930418 1.0168017 -1.3365903 0.08982557 -0.11336846 0.89568263 -0.75730175 0.34889904 -0.41471016 0.19489639 -0.6132956 0.79999924 -0.27588308 0.2057509 -1.5313464 -0.11990657 -0.88728285 -0.51653904 -0.08651099 -0.3071451 -1.2399076 -0.118896216 -0.07716351 -0.2618629 -0.39331886 0.34358677 0.8867357 1.4428276 -1.9633055 -0.8542206 -1.1471668 -0.3524641 0.054262143 -1.4679486 0.49155235 0.60594445 0.70476437 -0.49589136 0.061192643 -0.655221 -0.3649799 0.29951093 -0.16597803 -0.71331674 -1.0535831 0.77892804 -1.1347898 1.0395076 -0.5297792 -0.8751369 -0.5800571 -1.1883895 1.16058 0.15349896 0.111168236 0.34958592 -0.2734963 -0.08595895 0.42122468 0.087060384 1.2178926 0.36582398 -0.31848836 -0.18271919 -0.36947706 0.9417462 -0.3084839 0.2113897 0.3616828 1.3870865 -0.7255585 0.48954287 -0.28357068 -0.072032 -0.64385134 -0.8173142 0.07781785 -0.83182454 -0.61682767 0.6746175 0.8013324 0.62061614 0.13565081 -0.40880075 -0.80323666 -0.4382976 -1.0501245 -0.14675675 0.54317516 0.036030676 -0.22001134 -0.21575648 1.1191148 0.41044834 -0.3567108 -0.77411413 -0.52528006 0.52596134 -1.0808223 0.4872373 -0.3345851 0.5326591 0.0051673674 -1.0721997 0.38749543 -0.1877019 1.2830217 -0.15955044 -0.06006798 -0.16715948 -0.17050004 0.2014478 0.1802047 0.04621361 -0.6051435 1.2616924 1.1142348 -0.83196706 1.3835572 0.90474385 -0.27894515 -0.9161355 0.40486065 -0.7584378 -0.78529835 -0.49246788 0.6247809 0.088987224 0.66556376 -1.3538127 0.80413216 1.2297889 -0.4321035 -0.867781 0.19737493 0.6105489 -0.96543217 0.10386673 0.51020515 -1.1413093 0.25616074 -0.6499364 0.6062045 -0.43811885 -0.20154703 0.4438261 -0.8288624 -0.48233238 -0.06838462 -0.56939596 -0.32493243 -0.80391866 -0.2596937 0.9497423 0.8771141 0.95145077 -0.5079226 0.8450055 1.2311131 -0.3284509 -0.6961527 1.4440109 0.21360838 -1.2710876 -0.69125134 -1.2867565 1.3556013 -0.12745728 0.2919875 0.27786776 0.5764994 0.49614802 0.09877447 -0.6788926 -0.67165226 -0.31949028 0.20856027 -0.71280974 0.79050374 -0.9744601 0.22765279 -1.0686666 0.23070855 -0.5119875 -0.02098036 -1.1444944 -0.6265697 -0.34562364 1.1113328 0.40566334 0.15631297 -0.10049962 0.46466982 -0.4731309 -0.20227273 -0.097856514 1.2771097 -0.24333751 -0.13348687 -0.77005965 -0.8963616 1.0289506 -0.7266094 -1.4312032 -0.3415374 -0.73941 -0.6728088 0.24895686 0.2136789 0.12520523 -0.17421758 -0.015905375 -0.4425045 -0.7664547 -0.17085548 0.37906873 0.3912442 -1.5515089 0.00999529 0.4251187 1.0790213 1.0712508 0.09818696 0.8453152 0.32563967 0.25285712 0.77253866 0.5713349 0.40309396 -0.86441946 0.12870894 -0.57517016 1.5286165 0.5380251 -0.2599896 0.6772132 0.4468137 -0.44092044 -1.0309875 0.23977698 -0.14441021 -0.6099722 -1.6450629 0.46888444 -0.9156637 0.35691175 -1.2561069 0.7229801 -0.18647106 1.5061722 -0.7414537 -1.4965976 -1.1563586 -1.0632386 -0.6311311 -0.0659018 0.729067 0.6160101 -0.21845168 -0.487655 -0.2471505 0.21652366 0.18198828 0.9011567 -0.17418496 0.37316656 -1.122147 0.009191528 -1.4714025 -0.44633994 -0.13805342 0.0146531975 0.28390136 0.5220509 -0.00057691085 0.011007051 0.4767733 0.16737215 -0.7931554 -0.30039933 -0.3129427 -0.70913404 0.048088636 -0.7564135 -1.2775364 -0.6294009 0.44539714 -0.4026473 -0.17724209 -0.12588294 0.80796343 -0.44759083 1.3117191 -0.08105128 -0.7928643 0.31972873 -0.061441865 0.09391123 0.32860354 -0.1608642 -0.56002545 -0.88322926 -0.17083569 -0.6915795 -0.13402992 -0.30208203 0.42795166 -0.9712236 0.15099281 -0.13431297 -1.4744282 -0.0014314875 0.49664876 0.92736024 0.41244093 0.31629264 -0.76609045 -0.35687995 -0.80893 -0.091237776 -0.42750195 0.35940066 -0.21973266 1.5633732 -0.6251391 0.1519478 -0.74691683 -1.9947406 0.4914026 0.53329164 -0.13063052 1.0998793 -0.6206179 -0.56324315 0.42449236 0.17714234 0.090803295 0.75570565 -0.36680737 -0.9191634 -0.63731885 0.6579824 0.5823267 -0.73309064 -0.29658583 0.5461188 -0.6135314 0.27870595 -0.44278112 0.11346924 -0.044570077 0.71435595 -0.10500554 -0.3538741 1.5540304 -0.29587463 0.1279804 0.8219463 -0.2359754 -0.35597098 -0.27553463 -1.3588204 -1.8813477 -1.243482 0.5408344 -1.0950737 0.28367144 -0.6913162 -0.49812755 -0.91556644 0.6649075 0.7033914 0.94878596 -0.1278089 -0.5741468 0.5008814 0.39679012 0.40126464 0.6087456 -0.09927061 0.024484405 0.19932993 -0.1383439 1.2593318 -0.5579845 -1.3375715 -0.4770956 0.49518594 0.31855166 -0.11834812 0.29624942 -0.2410502 0.6912028 -1.0703857 0.26743934 0.9469431 -0.4142375 -0.2807115 0.37624303 0.6642593 -0.985727 0.10458403 0.33076623 0.976484 -1.0912063 -0.0011020005 0.71131533 -0.011139676 1.1643888 -0.46528283 0.22113246 0.04944406 -0.774401 0.06159163 -0.5275182 0.345513 0.37788007 -0.015469556 -1.1110106 -0.58870107 1.0623221 0.47522354 1.4676518 0.09930065 -0.7170952 -0.5079001 0.8207864 -0.30898955 -0.070111476 -0.71027446 -0.062116493 -0.17116691 -0.7643575 -0.9180264 1.0584351 0.05055332 -0.48342147 0.60108143 -0.5017131 0.0001574109 -0.26756963 0.36025247 -0.7031521 0.38297272 0.7902699 -0.20163046 -1.0595587 0.19501786 -0.47106218 0.49055016 0.758214 1.2245811 0.030356409 0.34965137 0.17074402 0.16581286 -1.0207858 0.20267136 -1.1685529 0.23039348 -0.6607543 -0.54808444 1.0413089 0.72565246 0.31789625 -0.54490906 -0.04464491 -0.026411444 -0.02620533 -0.39536762 0.3315771 -1.8727378 -0.37592372 1.1954908 -0.5834914 -0.37379932 -0.22065812 -0.7575588 1.0829555 1.1121548 -0.46387982 -0.7957968 -0.26252267 -0.3159409 -0.47050023 -1.0047356 -0.3547187 0.29203084 -0.047185037 1.506487 0.25351351 0.85369796 1.560576 1.6497822 -0.03726467 0.27100074 -0.005624796 0.034084614 -0.49376372 0.5491485 0.19957733 -0.21918179 0.95757437 -1.004587 -0.42622757 0.032807868 -1.1280559 0.5405133 0.119555555 -0.10299933 -1.0428249 0.22619222 -0.24039643 0.80008435 -2.045304 0.024343317 0.6113488 1.0096976 -0.9432261 1.0626836 0.13532944 -0.50385386 0.42024365 0.8369475 -1.0447391 1.0465869 -1.0188574 0.23010467 -1.3586912 -0.5198141 -0.617687 -0.77941704 -0.70686203 -0.10143179 0.8674269 -0.055118542 -1.2834735 0.6925377 0.9525648 1.4323592 -1.2648189 -0.5938701 -0.7221763 -0.30253646 -0.15182392 -0.76243824 0.6341836 -0.009500763 0.5042645 -1.4135026 0.18676527 -1.8074822 0.2867717 0.8311021 -1.0298432 -0.24507016 -0.6713314 1.3972679 -0.65567946 0.6293771 0.6415704 -1.3743502 -1.2522408 -0.4927138 0.091389984 -0.050126363 0.9400759 0.4823344 -0.55919474 0.39417067 0.16881107 0.4587787 0.97800976 0.2998234 -1.0143081 0.29178023 -1.209124 1.058743 -0.81490046 1.0407537 -0.62163484 0.9462063 -1.0968708 0.8403507 -0.8961217 0.13376635 -0.76770335 -1.1600732 0.3965626 -0.44994497 -0.9698743 -0.5280742 0.21873468 1.4966806 1.4886122 -0.29330143 -0.4396864 -0.86663294 -1.0266793 0.4406506 0.967688 0.4370365 -0.21040468 0.26273814 0.93484455 -0.017368244 -1.0584348 -0.44062102 -0.78052694 -0.17991595 -1.3638972 0.50947654 -0.089090295 0.9296617 -0.18389851 -0.13445748 0.9484778 -0.7379546 0.03658418 0.20569766 -0.19368376 -0.21262813 0.8958492 -0.2845672 -0.15498386 -0.5415366 -0.25959677 0.685157 1.1252953 -0.5409686 1.1168404 0.91401863 -0.124337494 -2.028117 0.12333574 0.47527918 -0.6074723 -0.39390907 0.41782117 -0.18333517 0.8713169 -1.1145889 0.860147 1.0622128 -0.52795666 -0.96897 0.641664 -0.71847606 -0.9416496 -0.3889133 -0.27453494 -0.50790143 -0.08053497 -0.69209486 0.5860656 0.015240115 0.012896344 0.64950573 -1.1195531 -0.8860781 -0.62379605 -1.114904 -0.33356813 -1.3274627 -0.022521084 1.2814723 -0.3151415 0.90028685 -0.106431365 0.16692822 0.9570143 0.14034529 -1.6765208 1.6535896 0.40021548 -1.3776699 -0.14194445 0.059325024 0.7137654 0.24983026 -0.60688615 1.0260233 0.42958143 0.47557256 -0.59824044 -0.399703 -1.6524396 -0.3951192 1.3468466 -0.38429722 1.0347829 -1.1562227 -0.099653184 -1.3986496 0.6420383 -0.5603402 0.71459967 0.25593057 -0.05921057 -0.8324394 1.6436135 -0.9505816 -0.256896 -0.80135554 0.15500943 -0.5064962 -0.5633095 -0.6724817 0.99890333 -0.1823277 -1.5905198 -0.6029207 -0.9303891 1.0343794 -0.3480345 -1.5287768 -1.3737627 -0.9505157 -0.70692945 0.19085562 0.5681388 -0.3132002 0.047694128 0.10129262 -0.06378062 -0.37863103 0.43852237 0.2617732 0.20132227 -1.2693278 0.1465151 0.8324628 1.4998306 1.7487279 -0.046074674 0.30349365 -0.8318327 0.97254866 0.49695286 0.27136078 1.2631754 -1.580022 0.35061035 -0.9721589 1.749177 0.49080536 -0.11612376 0.90728563 0.16679458 0.2641051 -1.4495655 0.121815294 -0.6222332 -0.5856611 -1.4826125 0.29857823 -1.6240689 0.74719405 -0.92839354 0.3695232 -0.9927502 0.7334523 -0.43493903 -1.7803677 -0.82436615 -1.6964369 -0.4313644 -0.021832714 0.45765832 0.28208125 -0.18358047 -0.36754727 0.8562055 0.70966387 -0.02448267 0.6569682 0.95216936 0.8041992 -1.0795702 -0.86741775 -1.3403221 -1.025732 -0.34481838 -0.93540573 0.64210093 0.45477566 -0.833775 -1.0460764 1.6077019 0.40637937 -0.52429575 0.4598314 -0.46742776 -0.8431006 0.19395496 -0.69359565 -0.9035125 -0.68886065 0.44235763 -1.0158614 -0.09080533 -0.6352571 0.72849387 -0.043476015 0.8948629 -0.1396457 -0.98962736 -0.5224957 0.621655 -0.066871114 -0.055375446 0.94904923 -0.74846464 -1.0146147 0.13887244 -0.3381547 0.3464245 0.6623402 -0.13315043 -0.5960247 0.7554283 -0.32589552 -1.3168434 -0.56026787 0.9459352 1.7030253 -0.514564 -0.03444805 0.20202702 0.7732982 -0.26540932 0.36327574 -0.96329814 -0.21788709 -0.15820478 1.325913 -1.3133038 0.30730936 -1.1066922 -1.1599406 0.28870067 0.70527965 0.011995912 1.3661714 -0.60059863 -0.83394617 0.16969286 -1.0471992 1.2091757 1.8198992 -0.35718903 -0.58653814 -2.0570178 0.04409975 0.008534509 -0.7308004 -0.8140536 0.75098974 -1.1734272 -0.88283896 -0.6946332 0.25937983 -0.4982383 0.46925893 -0.35173813 -0.17476888 0.99244577 0.013148382 0.2703526 0.49842727 -0.6390278 -0.570486 -0.27844122 -0.5768578 -0.3621305 -0.87535673 0.5470206 -0.7412562 -0.04487021 -0.460969 -0.60892195 -0.6623601 0.57926255 0.69628286 1.1618003 -0.037705656 -0.92094594 0.12188689 0.67776227 -0.43464515 0.4625472 -0.44521603 -0.541364 0.22997753 -0.49595818 1.257441 0.7005195 -1.678156 -0.56004286 0.5033215 1.1961555 0.069697045 0.26934212 0.048618097 -0.1390024 -1.9587196 0.72182447 1.652875 -0.5303519 0.90227157 -0.24082719 0.029864276 -1.0534253 -0.1792411 0.36023247 0.5179054 0.39295545 0.088543095 -0.3866878 0.7061491 1.7121582 -0.090641595 -0.26913342 -0.15843128 0.57224417 0.7843504 -0.54498655 0.571419 0.07331567 -0.73114353 -2.395942 -0.8541715 0.44408545 -0.07698003 -0.11738822 0.47515845 -0.72959894 -0.30284467 0.62954575 -0.19018066 -0.8449152 -0.12673636 -0.34532395 -0.5593499 -1.3557806 -1.5127121 1.0169654 -0.9821264 0.04723962 0.7944208 -0.023469472 -0.14800076 0.3050379 -0.31332788 -0.36157286 1.0051767 0.8870573 0.67735463 -0.4388365 0.12928997 0.14307527 1.3736836 0.14818656 1.2591627 -0.74843186 0.6876014 0.8443133 0.89127564 -0.4779897 -0.2740434 -0.048978567 -0.5362807 0.08437699 -0.8598376 1.0316793 0.7129746 -0.39557043 -0.86052465 0.06668433 0.32690772 -0.40611598 -0.35393748 0.5044044 -1.2055632 0.17362434 1.4136591 -0.6629505 0.2847234 -0.45601687 -1.0365323 0.97155327 0.5791619 0.06806312 -0.26450607 -0.2491409 -0.39572442 -0.5694309 -0.84191996 -0.6544667 0.71569604 0.55197597 1.6287006 1.013539 0.024254048 0.7197118 1.5446216 0.65936273 0.19218518 -0.5739736 0.44056773 -0.31182966 1.0435396 -0.29908168 -0.42028186 0.22348641 -1.0054191 -1.4236255 -0.11008718 -0.43481407
TRA1_DROME 0.1925931 -0.085663155 -0.18251893 -1.4668032 0.4594191 -0.93253815 1.0122224 -1.3616571 0.11370562 -0.104468405 0.8911529 -0.77226454 0.34516552 -0.442663 0.21116121 -0.5936521 0.7988225 -0.27271733 0.19151671 -1.5487984 -0.15410288 -0.9032056 -0.5185329 -0.08008611 -0.30400422 -1.2727468 -0.10830938 -0.07486378 -0.26462105 -0.4118267 0.3484557 0.9068583 1.4551948 -2.0074813 -0.87678206 -1.1619492 -0.3594439 0.036425833 -1.5048599 0.49399576 0.6326865 0.7010717 -0.5280085 0.06347163 -0.6524494 -0.36205858 0.2948375 -0.14774401 -0.73313844 -1.0762023 0.78717417 -1.1440247 1.0702966 -0.5473185 -0.8847904 -0.57208353 -1.2074202 1.1817209 0.16465984 0.09278902 0.36033472 -0.24222803 -0.08618171 0.42534903 0.067813225 1.2211258 0.37226215 -0.3306788 -0.17717718 -0.34999698 0.9555878 -0.29987994 0.21010491 0.39041498 1.4091585 -0.7231142 0.49474955 -0.28423405 -0.087877035 -0.6575933 -0.8116334 0.068641484 -0.8507102 -0.6184469 0.6839835 0.8095859 0.6154497 0.14277595 -0.41178203 -0.82375515 -0.43539265 -1.0524362 -0.15761398 0.55271274 0.036115922 -0.22770616 -0.24092229 1.1147083 0.43028593 -0.33503136 -0.7949239 -0.5336746 0.5213882 -1.1030715 0.4928371 -0.34276322 0.54720384 0.017599134 -1.0753361 0.393094 -0.17523304 1.2932589 -0.152397 -0.07328964 -0.1773436 -0.1899828 0.21344611 0.18354313 0.073067546 -0.61094236 1.2931277 1.1179719 -0.8340947 1.4000406 0.9085654 -0.27852216 -0.9198508 0.4086172 -0.76644766 -0.7846388 -0.5061078 0.64500046 0.08415209 0.6755333 -1.3758165 0.80487555 1.2460468 -0.4535399 -0.86926377 0.20351402 0.6176901 -0.9715384 0.09991443 0.5227745 -1.16342 0.27768517 -0.66853106 0.62287915 -0.45287117 -0.20593038 0.46027786 -0.8518783 -0.47956148 -0.08747215 -0.56384665 -0.32460418 -0.81921774 -0.26536524 0.95314986 0.89367664 0.9607721 -0.53559405 0.83970445 1.2436333 -0.3360708 -0.69227654 1.481577 0.21434744 -1.2919338 -0.6859184 -1.321563 1.3874663 -0.14428207 0.30271003 0.28408524 0.59087914 0.5114815 0.10206882 -0.69432455 -0.68006414 -0.2868701 0.19337286 -0.7246532 0.80986965 -0.9837098 0.23075174 -1.0684016 0.19868784 -0.52656984 -0.037059426 -1.1569645 -0.6182826 -0.352912 1.1237273 0.4351909 0.16336314 -0.09615045 0.46470356 -0.47345573 -0.18772149 -0.117398076 1.3044695 -0.25753173 -0.10438611 -0.7784112 -0.9259115 1.052102 -0.74495506 -1.4345453 -0.37651545 -0.770445 -0.6789875 0.28074485 0.20921598 0.13017052 -0.18614034 -0.0071980036 -0.4465349 -0.77007705 -0.15823734 0.39152583 0.4092613 -1.5834129 0.009071006 0.4258976 1.0950314 1.1070431 0.097082414 0.86023366 0.36084294 0.24876094 0.77516 0.57645255 0.39339182 -0.8650462 0.14164378 -0.5794378 1.5302945 0.5398609 -0.27790967 0.6653714 0.4561174 -0.44731802 -1.049348 0.23497881 -0.122816615 -0.6282305 -1.6593076 0.48077843 -0.9077973 0.3654291 -1.2781067 0.7415558 -0.17922334 1.5309936 -0.77107936 -1.5273556 -1.1763154 -1.0640012 -0.6580612 -0.07350068 0.7462684 0.6009924 -0.20482086 -0.4888651 -0.27273732 0.2044411 0.1680698 0.9383446 -0.20357516 0.4002258 -1.1779443 0.032883648 -1.4912298 -0.4547394 -0.14408302 0.037951972 0.28706625 0.53969616 -0.010672288 0.00081236876 0.46124455 0.18426521 -0.7834341 -0.31281787 -0.30930966 -0.6991103 0.034413528 -0.75644606 -1.2755089 -0.6327774 0.44586402 -0.39580765 -0.17937021 -0.11560784 0.82851774 -0.4323923 1.333659 -0.07319963 -0.8190445 0.324994 -0.0779919 0.098339416 0.32940298 -0.16149953 -0.5495494 -0.91263056 -0.19520871 -0.6806125 -0.15131317 -0.28916427 0.4336028 -0.99647933 0.16601719 -0.1148748 -1.4792271 0.008321927 0.49815533 0.93446285 0.43520924 0.30223718 -0.7803164 -0.35937944 -0.81193274 -0.095918134 -0.4411396 0.3764101 -0.21240906 1.584513 -0.6299736 0.13327979 -0.7529504 -2.0426655 0.49183497 0.55745447 -0.12969835 1.1153473 -0.622698 -0.57348716 0.40657982 0.16546242 0.07916619 0.7683734 -0.3815662 -0.93989646 -0.6493564 0.6533222 0.58570087 -0.7391796 -0.32730845 0.5683113 -0.6202264 0.29642025 -0.42540383 0.12612781 -0.06766231 0.7301453 -0.08348519 -0.342359 1.598717 -0.31234708 0.11723627 0.83438617 -0.22514522 -0.3570845 -0.28535086 -1.3933712 -1.9189699 -1.2662299 0.5524245 -1.1239576 0.28122687 -0.73021233 -0.50794345 -0.9258447 0.684179 0.7044466 0.9536437 -0.14197986 -0.5749439 0.52627385 0.39446715 0.40929183 0.62196594 -0.12782072 0.007445525 0.19870217 -0.12981082 1.256332 -0.573305 -1.3550558 -0.47616783 0.49429655 0.3106665 -0.10657645 0.29556516 -0.24940358 0.71248114 -1.0750768 0.28362432 0.9304725 -0.42661473 -0.3058001 0.37922424 0.6786905 -1.0023705 0.10767933 0.32325512 1.0099208 -1.156636 -0.030521784 0.7296456 -0.012234026 1.184388 -0.471704 0.2118908 0.04337595 -0.77154434 0.05410435 -0.5558499 0.36147898 0.37127957 -0.0041518104 -1.1286261 -0.6170822 1.0597589 0.4757339 1.504927 0.08000505 -0.7194314 -0.5234691 0.84169143 -0.30925483 -0.07936929 -0.70297784 -0.04198418 -0.18274562 -0.7403256 -0.9438163 1.0556961 0.03215068 -0.49816117 0.59708554 -0.5098292 0.02495779 -0.2640329 0.37147874 -0.73749745 0.37516075 0.7964673 -0.17287774 -1.0899984 0.19833577 -0.46451792 0.47900465 0.7845208 1.2362785 0.04621481 0.33465022 0.172819 0.18250217 -1.0437042 0.22699705 -1.1988298 0.2312362 -0.68531495 -0.56303626 1.032905 0.75278825 0.3390174 -0.5414907 -0.058348563 -0.037742145 -0.03008194 -0.38028237 0.33267468 -1.9064759 -0.38306624 1.2066787 -0.5611054 -0.42096275 -0.22623812 -0.78815997 1.0595856 1.1127292 -0.46575314 -0.8101075 -0.25339046 -0.2929662 -0.47722912 -1.0405537 -0.33707327 0.3126412 -0.051318906 1.5237828 0.28348503 0.8445693 1.5949868 1.6467199 -0.041836493 0.2643973 -0.024577899 0.027625289 -0.512042 0.54498214 0.21203426 -0.20539384 0.9464436 -1.0215907 -0.43480143 0.040483546 -1.1782236 0.5346965 0.12583852 -0.07795644 -1.0519494 0.18646677 -0.27479053 0.8173019 -2.0858397 0.044287987 0.60466546 1.002123 -0.92399013 1.1369907 0.123022065 -0.49892855 0.41031185 0.86681426 -1.0983261 1.0757679 -1.0129192 0.21449892 -1.3791723 -0.5343457 -0.5996564 -0.7798122 -0.6858741 -0.15950258 0.8753272 -0.063171245 -1.2764561 0.69709873 0.9334392 1.3743229 -1.2651972 -0.6301669 -0.72406477 -0.27849212 -0.16912945 -0.7979786 0.60714597 -0.027112054 0.47763035 -1.377725 0.19842324 -1.7991087 0.28173867 0.8161992 -1.0216249 -0.27469942 -0.7440571 1.4169201 -0.6788317 0.631991 0.6114877 -1.3439342 -1.2471187 -0.478525 0.11784608 -0.048338268 0.92178196 0.49634415 -0.5679031 0.3474277 0.15190516 0.45858568 0.9675368 0.2762602 -0.9928273 0.25128084 -1.1762302 1.0779299 -0.7892677 1.046503 -0.64356464 0.99737674 -1.0870686 0.8521587 -0.895995 0.14418948 -0.78353083 -1.1947534 0.36878118 -0.4649365 -0.94151604 -0.49562263 0.2105966 1.5009127 1.5220822 -0.31359974 -0.4726305 -0.8352305 -1.0143387 0.4264153 0.9633436 0.45288947 -0.20513618 0.24617092 0.9294326 -0.029437782 -1.0274494 -0.49196863 -0.78024447 -0.15711617 -1.3507625 0.5177304 -0.07302759 0.92202824 -0.16240683 -0.14997885 0.9539506 -0.7276661 0.05534118 0.25126067 -0.19057024 -0.21045601 0.881879 -0.3208811 -0.19147967 -0.58275557 -0.2500266 0.7139202 1.1342245 -0.58665675 1.1537238 0.93012303 -0.13955887 -2.026211 0.124907665 0.4207037 -0.6112668 -0.36485976 0.4203979 -0.21264838 0.8612212 -1.101472 0.83252203 1.0382494 -0.5294849 -0.94172484 0.6638135 -0.7645689 -0.9482295 -0.3631484 -0.25263125 -0.52778435 -0.09248825 -0.69190544 0.55881184 0.021940494 -0.0001555511 0.6236543 -1.1734504 -0.8978545 -0.64403206 -1.1588799 -0.27992052 -1.3651752 -0.01223716 1.3274058 -0.26576468 0.9124137 -0.102815434 0.07750921 0.9505796 0.18129094 -1.6857225 1.6487505 0.39494318 -1.4256351 -0.11970185 0.0542183 0.7210993 0.2564276 -0.65156513 1.025881 0.4575889 0.47749567 -0.5600572 -0.40503603 -1.6992692 -0.38617295 1.3224181 -0.34488884 1.0736505 -1.1716805 -0.07261924 -1.4207966 0.63961023 -0.5828145 0.7238204 0.26369748 -0.08989745 -0.8654356 1.6349593 -0.9531719 -0.24995334 -0.81574804 0.19732325 -0.49582526 -0.5728792 -0.6260749 1.0110916 -0.1914347 -1.5881205 -0.6234464 -0.97992885 1.0353523 -0.3656899 -1.5985566 -1.3638821 -0.93425655 -0.6989298 0.21618032 0.5981444 -0.27426 0.052080713 0.096256234 -0.13134925 -0.3611991 0.42971087 0.28374818 0.16721286 -1.3174237 0.17714058 0.8371053 1.486175 1.781583 -0.084219016 0.29687604 -0.8507443 0.9974075 0.4995232 0.29621962 1.2530047 -1.5366861 0.3671566 -0.9899998 1.7992232 0.482824 -0.116125755 0.85403526 0.15277083 0.27993426 -1.4502032 0.13295466 -0.6265956 -0.5893386 -1.511801 0.30982274 -1.6408336 0.7166323 -0.9321395 0.35110757 -1.0114518 0.71985614 -0.44132593 -1.8447354 -0.88420445 -1.6975745 -0.45243979 -0.025479678 0.41970468 0.27219984 -0.17493883 -0.359772 0.87411064 0.6716881 -0.027289715 0.66937274 0.9008358 0.7929557 -1.0964249 -0.8817896 -1.3198092 -1.0162528 -0.31678352 -0.91351426 0.63032055 0.46515307 -0.8638078 -0.9842848 1.5883104 0.44921738 -0.48616365 0.4603416 -0.4727195 -0.81323326 0.18944801 -0.7025647 -0.93906397 -0.704272 0.49301833 -0.9989716 -0.058902163 -0.59886044 0.71888775 -0.083201304 0.8912396 -0.18153541 -1.0311304 -0.50565964 0.6423629 -0.11839487 0.0005033868 0.91396564 -0.76983863 -1.04755 0.16733983 -0.2989649 0.37648413 0.6395005 -0.11919253 -0.58258146 0.743715 -0.30970424 -1.322241 -0.5594288 0.9275461 1.7312851 -0.5249185 -0.0065355855 0.2288222 0.79583836 -0.2686235 0.33738232 -0.9851872 -0.17270541 -0.15711105 1.2952148 -1.2863177 0.32533568 -1.1020787 -1.1473901 0.31058455 0.7045423 0.021694371 1.3624775 -0.57178354 -0.83993673 0.14292799 -1.0082735 1.2573353 1.7994472 -0.33543277 -0.53940976 -2.064889 0.00029532932 0.037907142 -0.7118734 -0.81725395 0.769651 -1.1621182 -0.9170817 -0.8008885 0.26158848 -0.552044 0.46526194 -0.32942548 -0.1300944 1.0439303 0.024038186 0.26864725 0.5112602 -0.6334265 -0.5870573 -0.25226203 -0.56818974 -0.33441633 -0.8781528 0.621437 -0.72854763 -0.02795091 -0.44198766 -0.6081408 -0.609388 0.61488205 0.7189856 1.1227281 -0.06221038 -0.9380906 0.13386224 0.6722838 -0.41420317 0.47101003 -0.42107958 -0.582479 0.24415353 -0.51245224 1.2335957 0.6659847 -1.701967 -0.52411526 0.5044604 1.2185041 0.044017706 0.2549389 0.051390525 -0.16514644 -1.9924567 0.71665794 1.6444813 -0.5314747 0.8801754 -0.22952522 0.045773983 -1.0941126 -0.17954719 0.3674949 0.4982663 0.37684488 0.060848407 -0.38594818 0.6876097 1.6940539 -0.06142505 -0.26134852 -0.12586601 0.57430106 0.78285754 -0.5405375 0.56838673 0.07198606 -0.70034564 -2.3437 -0.8807188 0.43302926 -0.045277197 -0.12666348 0.43816414 -0.7088467 -0.26793402 0.65066683 -0.2110573 -0.88296455 -0.12055622 -0.36270267 -0.55501664 -1.333609 -1.50149 1.0662768 -1.0141525 0.06641612 0.75874203 -0.04451489 -0.14425476 0.31928793 -0.33084217 -0.3702512 1.0278429 0.86706394 0.70427597 -0.46548748 0.14026421 0.203823 1.4034587 0.132684 1.2479135 -0.72534645 0.7280923 0.8354273 0.90176564 -0.47659442 -0.3084786 -0.05747873 -0.5783447 0.08559235 -0.90282923 1.0239428 0.7314125 -0.39237204 -0.86886257 0.09945996 0.30413824 -0.3939677 -0.37355688 0.49235883 -1.2096134 0.15493791 1.4461902 -0.69569427 0.24959294 -0.4739935 -1.0962989 0.92726964 0.58891356 0.0660553 -0.26769277 -0.24031422 -0.40952986 -0.6066891 -0.8580703 -0.6327347 0.7302583 0.5511387 1.6373825 1.0412868 0.03171718 0.7386354 1.5579755 0.6551362 0.23223741 -0.55500555 0.41355658 -0.27969784 1.014835 -0.27610412 -0.35437503 0.21644707 -1.0200232 -1.4308311 -0.12004035 -0.40646958
Q9W0L7_DROME 0.17263028 -0.07714613 -0.21968296 -1.438207 0.43907613 -0.9262713 0.9702486 -1.3218828 0.12596296 -0.09658673 0.8532491 -0.7401804 0.347558 -0.43452474 0.18466058 -0.5661004 0.7639595 -0.24297833 0.1361483 -1.5144473 -0.18199621 -0.86856663 -0.49695343 -0.069261886 -0.29363924 -1.256778 -0.05609388 -0.11181446 -0.26552558 -0.40425283 0.32172287 0.8622571 1.4194938 -1.9879638 -0.8591133 -1.1238636 -0.37041825 0.032376707 -1.5054775 0.4865247 0.6484863 0.6608947 -0.50049365 0.057577267 -0.61358213 -0.3481709 0.27168354 -0.13055809 -0.72444105 -1.0658269 0.7444726 -1.1069747 1.0557077 -0.56321377 -0.8482703 -0.54363006 -1.1950608 1.1570032 0.14790808 0.08098638 0.3405071 -0.19744867 -0.07216554 0.39593643 0.062486295 1.1876615 0.35069898 -0.30671245 -0.16862106 -0.31913933 0.90607727 -0.27600846 0.19590344 0.4013018 1.3769226 -0.7031242 0.46427333 -0.2719419 -0.11078134 -0.63832176 -0.76719314 0.07484076 -0.85615134 -0.6008514 0.66916513 0.81991726 0.58298635 0.12121921 -0.4058503 -0.8244875 -0.38760993 -1.0111982 -0.17817919 0.54210913 0.017987425 -0.235315 -0.25831854 1.0890691 0.42210856 -0.29476032 -0.76463115 -0.5063561 0.485244 -1.0956911 0.50524926 -0.369716 0.5389552 0.047729623 -1.060806 0.34846115 -0.15406492 1.2595179 -0.12187487 -0.08584264 -0.17903306 -0.19738303 0.2407644 0.18773058 0.107550815 -0.61552465 1.2784764 1.0734128 -0.7957361 1.3781462 0.8796999 -0.26106435 -0.8933051 0.3910428 -0.73297113 -0.7717432 -0.5182392 0.64345974 0.08961682 0.6570288 -1.3447764 0.7469058 1.2274349 -0.47006983 -0.8474611 0.202196 0.62065035 -0.9560467 0.077947274 0.5037925 -1.142854 0.27658403 -0.6779104 0.6144861 -0.4409417 -0.18893975 0.46823597 -0.81941235 -0.4448199 -0.10032191 -0.5484905 -0.32000497 -0.8082098 -0.29913914 0.8950339 0.8884935 0.96351564 -0.5323945 0.8247015 1.2261106 -0.35463285 -0.64158785 1.4758735 0.19961843 -1.2734734 -0.677132 -1.3064823 1.3629962 -0.17449296 0.2887373 0.2502973 0.5498752 0.5086044 0.13347563 -0.68398803 -0.656637 -0.2784463 0.15174708 -0.71640086 0.81457347 -0.9654622 0.21432519 -1.0381385 0.16605228 -0.51369804 -0.053872302 -1.1588044 -0.59368074 -0.3546072 1.0734347 0.44815096 0.16850203 -0.07580666 0.45261157 -0.4425867 -0.16470452 -0.14554387 1.2550371 -0.2753929 -0.07882877 -0.75282085 -0.90248895 1.036288 -0.75067997 -1.3991851 -0.3557828 -0.757107 -0.6778277 0.31000006 0.18976873 0.117400914 -0.17930827 -0.003972877 -0.4181832 -0.7774894 -0.1426239 0.3973778 0.4161562 -1.550262 0.029414581 0.39375186 1.0296422 1.0836308 0.12155695 0.8263072 0.38447303 0.21726145 0.75902027 0.5567108 0.37221274 -0.8401165 0.1400026 -0.5747192 1.474783 0.5149324 -0.27845836 0.6362089 0.45987222 -0.46892923 -1.0250878 0.22735056 -0.10320223 -0.6412225 -1.6151801 0.4678615 -0.8941784 0.36892706 -1.2579236 0.74678534 -0.16812927 1.491827 -0.7748464 -1.4793841 -1.1553288 -1.0465351 -0.6544227 -0.06416461 0.7314467 0.5770838 -0.19340754 -0.47777998 -0.30587584 0.20071334 0.14394817 0.94249725 -0.21975598 0.41958117 -1.1950374 0.054916043 -1.4449607 -0.46314108 -0.15556331 0.042662963 0.28516603 0.5408866 -0.0097686965 0.01236698 0.42876413 0.19113894 -0.7440498 -0.3479883 -0.30145928 -0.6965386 0.009875918 -0.74784106 -1.266717 -0.61109716 0.4313721 -0.35628137 -0.17000063 -0.10460184 0.8315255 -0.41781533 1.3094928 -0.066835925 -0.77327687 0.3346895 -0.1067737 0.08975731 0.300853 -0.20211782 -0.5192127 -0.9096176 -0.21606097 -0.64594764 -0.16995537 -0.2761225 0.4372055 -0.9652153 0.1577262 -0.08488092 -1.4268256 0.018023098 0.46225324 0.9127218 0.44590735 0.29535925 -0.77319455 -0.34504363 -0.793545 -0.103082776 -0.4385424 0.3633906 -0.20001942 1.5669055 -0.60577905 0.13497242 -0.72344714 -2.038316 0.45963052 0.55770767 -0.15710843 1.110701 -0.59604454 -0.52865094 0.3627531 0.15542841 0.051033724 0.7403941 -0.38442898 -0.91831076 -0.61277044 0.6377269 0.5667594 -0.71399516 -0.31497929 0.5500716 -0.6103059 0.31527302 -0.3668534 0.16738275 -0.04124216 0.710834 -0.03296479 -0.3200441 1.5801159 -0.30967328 0.104105584 0.81789005 -0.20962167 -0.31448588 -0.30488044 -1.378121 -1.8969803 -1.2467158 0.5389616 -1.1236687 0.27318585 -0.7447617 -0.5109923 -0.90383023 0.67034584 0.6381454 0.90825814 -0.14302948 -0.5346347 0.5310522 0.38418248 0.43508196 0.6060171 -0.14020549 0.024737261 0.20690177 -0.1332126 1.1976254 -0.5731724 -1.3098246 -0.47808352 0.46618366 0.2591366 -0.09025447 0.28753206 -0.24000262 0.6877833 -1.0116252 0.27690464 0.8820131 -0.42323893 -0.3445313 0.3597134 0.67284876 -0.9768984 0.12641001 0.30732644 1.0152528 -1.1693132 -0.06917386 0.7539561 -0.026655208 1.1295806 -0.4806259 0.20199881 0.045793485 -0.7571279 0.0436776 -0.56557655 0.36146727 0.34817442 0.025736291 -1.1051452 -0.5951019 1.0411274 0.47132754 1.487718 0.029714555 -0.6932647 -0.5196802 0.8601564 -0.30505103 -0.08107787 -0.68130994 -0.012649544 -0.16117007 -0.7198187 -0.91855335 0.9964568 0.028878905 -0.4911393 0.56948113 -0.45861757 0.08038868 -0.25464627 0.3774718 -0.74633336 0.35672504 0.75430614 -0.15582787 -1.0918173 0.20764025 -0.461 0.4221682 0.7906178 1.2092179 0.030899296 0.31341112 0.1569085 0.16553935 -1.0175109 0.2525969 -1.1769311 0.25821695 -0.70412 -0.5312074 0.9697352 0.7609611 0.3490836 -0.5172352 -0.0743188 -0.03853765 -0.048998058 -0.35869873 0.30903667 -1.9117829 -0.40059346 1.1926215 -0.5444351 -0.4174308 -0.2188946 -0.7907151 1.0216885 1.1278081 -0.4701324 -0.80635077 -0.26804584 -0.27070406 -0.46560192 -1.0400833 -0.32176587 0.31599718 -0.08550961 1.4791789 0.28057635 0.8139066 1.5706079 1.5934565 -0.07193838 0.25428295 -0.04526025 0.030995216 -0.50710136 0.51136464 0.21247275 -0.19644968 0.92487043 -0.9886917 -0.42935154 0.05673234 -1.1863966 0.50722915 0.11057766 -0.05010919 -1.0038164 0.1334484 -0.28395164 0.81931746 -2.0470085 0.060571197 0.6369177 0.98132795 -0.8862064 1.1728144 0.11943721 -0.503542 0.41706046 0.8532429 -1.0985397 1.0238612 -0.9979612 0.18629605 -1.3642325 -0.49187267 -0.5922067 -0.7678911 -0.6758895 -0.13943443 0.83359057 -0.08875536 -1.2490648 0.65987206 0.8555523 1.3307168 -1.2064265 -0.6414105 -0.68315715 -0.26628333 -0.15840606 -0.7633822 0.58837116 -0.033893093 0.442773 -1.2958207 0.24976419 -1.7758524 0.28297696 0.7764265 -1.0176105 -0.2967578 -0.74017084 1.3912464 -0.67470795 0.59187174 0.58033586 -1.281203 -1.2248929 -0.4566247 0.10185692 -0.057642624 0.9052822 0.5091171 -0.54430556 0.30924618 0.16160528 0.4998908 0.9554349 0.25005922 -0.9481897 0.25300124 -1.125304 1.0796119 -0.73063934 1.0379009 -0.6440138 0.9729268 -1.0659903 0.8333664 -0.88666475 0.14501013 -0.7810844 -1.1584216 0.3985499 -0.48722595 -0.90984756 -0.50872487 0.19358343 1.4647739 1.5126876 -0.30137363 -0.4473084 -0.76480377 -0.932603 0.38066983 0.9250313 0.41457593 -0.17914236 0.20196414 0.93112993 -0.033257168 -0.9750357 -0.45000932 -0.80578494 -0.1779306 -1.3052903 0.5035362 -0.065349735 0.92893845 -0.14097898 -0.15993771 0.88897926 -0.70919615 0.03608662 0.27328932 -0.20539965 -0.19926988 0.8767345 -0.35638875 -0.20151076 -0.54479706 -0.26955283 0.70694315 1.0637627 -0.56309056 1.1700729 0.9035172 -0.1418487 -1.9826047 0.09523518 0.44129896 -0.5681701 -0.3724683 0.36695242 -0.19026604 0.8547873 -1.0640006 0.7702952 0.96194774 -0.5518138 -0.9102231 0.6686209 -0.82918113 -0.9155142 -0.4211253 -0.26448238 -0.48375815 -0.08900547 -0.68654805 0.53384227 0.037854105 -0.009052262 0.6257445 -1.1728305 -0.8654286 -0.6254355 -1.1461678 -0.2247645 -1.3607152 -0.016344378 1.2948077 -0.22902676 0.8817677 -0.11023591 0.026049403 0.9545237 0.15741193 -1.629545 1.6154239 0.38801876 -1.4017911 -0.09714875 0.0856264 0.65831786 0.25587887 -0.6978868 0.9872671 0.48391378 0.45304298 -0.4860578 -0.3675483 -1.7219739 -0.41113165 1.2988558 -0.31081557 1.0833118 -1.134823 -0.067952484 -1.3705078 0.6624907 -0.5799155 0.7325008 0.30102336 -0.06495863 -0.8855652 1.5730768 -0.96604073 -0.25110275 -0.82257015 0.1736055 -0.45922732 -0.5956337 -0.62475055 0.9480757 -0.19663006 -1.6461307 -0.59976816 -1.0024979 0.9977052 -0.39428067 -1.5761981 -1.3097126 -0.9119769 -0.65332395 0.221429 0.6169789 -0.2805775 0.061441645 0.108607605 -0.124940686 -0.36042875 0.4433429 0.26767468 0.18502945 -1.3041706 0.20574048 0.82792675 1.4145801 1.724882 -0.07997513 0.27400166 -0.8726649 0.9902815 0.500416 0.30771413 1.2147472 -1.4928877 0.34235245 -0.977391 1.7758616 0.49705017 -0.0736983 0.8019577 0.14022502 0.3062895 -1.3906269 0.10547072 -0.62760806 -0.58579534 -1.4823126 0.27897403 -1.6246573 0.68980336 -0.8748484 0.3393097 -1.0110099 0.6615913 -0.43920505 -1.8509947 -0.87658644 -1.6762686 -0.47641057 -0.00080751255 0.38035956 0.26915148 -0.15138197 -0.3350015 0.87365097 0.6514265 -0.01923179 0.6667311 0.8514903 0.8082525 -1.065366 -0.8712423 -1.2530025 -1.0307913 -0.32301387 -0.91995424 0.61570424 0.42715767 -0.85978585 -0.9417859 1.5635765 0.45591968 -0.41364163 0.44976574 -0.47819877 -0.8160398 0.18277739 -0.68538165 -0.9525369 -0.6969307 0.5122197 -0.9770095 -0.051647022 -0.5751571 0.72218853 -0.0898835 0.84528935 -0.19057062 -1.0338264 -0.46687526 0.6166218 -0.16228649 0.067090124 0.863709 -0.73604256 -1.0004532 0.14703049 -0.24810585 0.34520757 0.5824965 -0.09406194 -0.5296202 0.7088983 -0.32422614 -1.2804954 -0.5627187 0.87503266 1.6864676 -0.5424827 0.00047780573 0.22017714 0.8368872 -0.25946411 0.32468554 -1.018416 -0.18008399 -0.14770831 1.1948019 -1.3054363 0.33690658 -1.0773252 -1.1141771 0.32421398 0.69962287 0.033484578 1.3429831 -0.50411654 -0.7743554 0.112589896 -0.95905954 1.2561492 1.7089863 -0.31592974 -0.46252748 -2.0212555 -0.022788404 0.07762429 -0.66965044 -0.804479 0.74132764 -1.1483314 -0.9071807 -0.7898207 0.2802127 -0.5017987 0.44379005 -0.33396336 -0.092800245 1.0248349 0.042157613 0.27093565 0.5079093 -0.57747597 -0.54669666 -0.26812533 -0.52885836 -0.24974053 -0.8073043 0.5953958 -0.6714833 -0.004242923 -0.45437655 -0.6138284 -0.5289629 0.5917125 0.6631455 1.0598814 -0.06895804 -0.9059114 0.11152049 0.6638077 -0.39648408 0.4584657 -0.38660964 -0.573949 0.23525964 -0.50503486 1.1801791 0.6844374 -1.6993624 -0.5040279 0.48537493 1.1739051 0.045752276 0.22559503 0.018164514 -0.20938626 -1.9117858 0.68311775 1.564314 -0.5127368 0.856798 -0.19878513 0.06500426 -1.0584087 -0.17145301 0.37201044 0.48930317 0.4565965 0.053443775 -0.36606935 0.6724413 1.591147 -0.043421824 -0.2506946 -0.12752342 0.5466424 0.79840064 -0.5152642 0.5522793 0.04838466 -0.69459826 -2.294367 -0.8718074 0.4246129 -0.052920252 -0.18212202 0.36660907 -0.70939225 -0.23926659 0.6593886 -0.23638046 -0.90543383 -0.09662481 -0.3295168 -0.5502063 -1.3177798 -1.4708288 1.0366579 -1.0484362 0.11199573 0.70802915 -0.002996266 -0.12743646 0.31481707 -0.35425955 -0.36249274 1.0109062 0.7950788 0.71858597 -0.4244794 0.17785646 0.21818674 1.380528 0.14553046 1.2145373 -0.7430971 0.75016606 0.79819655 0.863308 -0.4251201 -0.30426407 -0.042747505 -0.59115803 0.03459189 -0.896433 1.009045 0.76657474 -0.38066715 -0.8339006 0.08081634 0.28275028 -0.39311484 -0.35504746 0.47829485 -1.205129 0.17669806 1.4011958 -0.70718825 0.25801694 -0.48757958 -1.1309344 0.86919045 0.5876371 0.0409464 -0.26220644 -0.26005757 -0.4123103 -0.61307836 -0.8362362 -0.5999643 0.7231117 0.5044403 1.5897661 1.0190558 0.024825305 0.6937375 1.501838 0.61631346 0.22366801 -0.5358485 0.4165993 -0.25039488 0.97126293 -0.26195648 -0.32001343 0.2087056 -0.97538847 -1.4044306 -0.0755251 -0.37683958
