CG21_YEAST 0.29052114 -0.2072918 0.07422593 -1.3135436 0.59542084 -0.5835346 1.1826633 -1.2683355 -0.11427222 0.035023466 1.1401665 -0.9231725 0.5427701 -0.31106424 0.262033 -0.559121 0.78754103 -0.39255318 0.6379884 -1.121188 0.1884134 -0.8622516 -0.8418626 -0.16748384 -0.4585995 -0.91421556 -0.68155503 0.5459245 -0.21233764 -0.3922301 0.5110751 0.95367336 1.3026283 -1.2846887 -0.82050824 -0.9359276 0.018228486 -0.2652389 -0.95869195 0.25059453 0.10098727 0.9633575 -0.77465403 0.25119522 -0.83178765 -0.2136113 0.3573708 -0.21003176 -0.46190277 -0.6671077 0.92661464 -1.1448212 0.78809327 -0.09974824 -1.0476065 -0.928115 -0.83199733 0.81137896 0.111477286 0.4418314 0.34102774 -0.6562588 -0.20168886 0.44689932 0.26381776 0.91525066 0.5823975 -0.62748384 0.10781523 -0.6355947 1.1304852 -0.48279282 0.2639058 0.18406507 1.3402706 -0.64173555 0.50162005 -0.2579962 0.090718165 -0.7873988 -0.9000517 -0.24267384 -0.72433734 -0.93418443 0.5654737 0.31185356 0.8271785 0.37784213 -0.3225376 -0.5689359 -0.40836418 -1.0249053 -0.0015269183 0.5854315 0.108798236 -0.12261227 0.12480697 0.76827437 0.4266108 -0.75667375 -0.85648286 -0.6153102 0.57374525 -0.92542833 0.30762774 0.09110234 0.5566273 -0.30006254 -0.8233923 0.68351054 -0.29429597 0.9805281 -0.6140931 0.27976248 -0.15864334 -0.23923331 -0.08265698 0.054233216 -0.47642145 -0.25533393 1.0052979 1.2836022 -0.7617652 1.0343883 0.6322963 -0.4824335 -0.69618505 0.33123806 -0.67914945 -0.69210684 -0.1870988 0.2455253 -0.049931258 0.60169685 -1.1176355 1.135123 0.88233334 -0.2170201 -0.7464722 0.14827648 0.37328756 -0.80650127 0.16349873 0.397614 -1.0397182 0.13251366 -0.2087885 0.59879935 -0.4145765 0.02000159 0.15545893 -0.8350663 -0.9210291 0.07337169 -0.56475633 -0.3873486 -0.7677229 0.34813377 1.0028234 0.46445483 0.5381583 -0.3336668 0.55582637 0.7109911 -0.35778677 -0.9589882 1.0603354 0.30240119 -1.1011214 -0.4905268 -0.79951185 0.9521858 0.2005592 0.25430894 0.51095146 0.5124519 0.39243132 -0.3526464 -0.39394304 -0.7549369 -0.14958508 0.6318462 -0.5950506 0.6127978 -0.74237496 0.52696854 -0.9338759 0.56020194 -0.44954178 -0.0025907718 -0.648267 -0.7031265 -0.45064276 1.3637586 -0.0490596 0.18890156 -0.29163095 0.43183544 -0.5165757 -0.42060173 -0.07443826 1.3750579 -0.12976283 -0.14643665 -0.717111 -0.78379214 0.8977546 -0.32485402 -1.3977047 -0.5680201 -0.71322036 -0.23949704 -0.0040816627 0.1715643 0.21286383 -0.17184031 0.024865463 -0.7171952 -0.50706965 -0.2661854 0.27082852 0.23413375 -1.3058217 0.0074036047 0.45373952 1.2542129 1.0383404 -0.11135693 0.8552683 -0.31113365 0.46054387 0.7766545 0.6062478 0.59831 -1.0205227 0.1720351 -0.4133248 1.476611 0.6148109 -0.052942447 0.7191799 0.3515144 -0.13623866 -0.95079726 0.16936883 -0.1420518 -0.27260184 -1.4897679 0.40945262 -0.8510128 0.20255691 -1.1261843 0.70461947 -0.31349617 1.2383044 -0.36177376 -1.6038138 -0.9745299 -0.8810604 -0.59999603 -0.29014325 0.5933096 0.45136353 -0.025310121 -0.38245383 -0.03076008 0.16834772 0.16719052 0.6287199 -0.18148749 0.23857938 -0.6452096 -0.13723671 -1.2918963 -0.3146069 -0.00040644407 -0.052369125 0.11953082 0.5097878 0.07224018 -0.23983869 0.7194867 0.06507672 -0.7512497 0.20298922 -0.23435876 -0.5364218 0.29825816 -0.6162406 -0.89626145 -0.3948254 0.4670971 -0.63702184 -0.22550495 -0.13446108 0.3577479 -0.4427324 0.87996197 -0.029725097 -0.95508254 0.031657167 0.43177268 0.09617914 0.36045843 0.39792866 -0.66056037 -0.95606834 0.32738945 -0.8516667 0.028475687 -0.2180968 0.056748603 -0.92504704 0.29637593 -0.2513237 -1.1801996 -0.060710132 0.503589 0.60645735 0.16621317 0.2139962 -0.5530918 -0.21144672 -0.5924566 -7.7821314e-05 -0.43538037 0.34635565 -0.37376755 1.1684269 -0.64787734 0.26763833 -0.90123546 -1.2736247 0.448757 0.16100654 0.4570638 0.8862753 -0.5526823 -0.8030848 0.4374245 0.04131965 0.16305637 0.7537366 -0.21536039 -0.9471371 -1.0199157 0.25368527 0.4286576 -0.74177474 -0.61450374 0.71417356 -0.38809103 0.080250725 -0.85215014 0.05438213 -0.38299608 0.45190987 -0.6230742 -0.5552474 1.2112482 -0.1023463 0.3831413 0.70824945 -0.3087253 -0.5470162 -0.08891881 -1.1066123 -1.4691982 -0.7649089 0.58638424 -0.73667973 0.2835461 -0.26369658 -0.35951006 -0.9263998 0.68650466 0.6943681 1.0304936 -0.034068257 -0.73775667 0.29603377 0.5011671 0.06589967 0.6354875 0.09759976 0.030693619 -0.044311017 -0.08617923 1.2257264 -0.5163379 -1.3807796 -0.4946257 0.52344704 0.65597963 -0.28540742 0.23144972 -0.16696665 0.54446155 -1.1637297 0.31874207 0.87205344 -0.18754555 0.113968164 0.3807319 0.31758028 -0.85786915 -0.172831 0.13997225 0.7710887 -0.532469 0.36120456 0.23431432 0.33094633 1.2224919 -0.29393137 0.24568115 0.014451308 -0.75056237 0.039300054 -0.19668621 0.2786469 0.33592656 -0.34660518 -0.89920413 -0.6666912 0.5712142 0.32976446 0.9663415 0.5293606 -0.65274465 -0.37442973 0.3846655 -0.26553935 -0.15404 -0.7318082 -0.22304447 -0.29420614 -0.7045494 -0.7806564 1.1923298 -0.33997744 -0.43387696 0.44752783 -0.5823616 -0.3619405 0.06025003 0.27631885 -0.48033834 0.34863955 1.2343243 0.0016214922 -0.48799628 0.27971503 -0.20845954 0.88786024 0.7983105 1.1281533 0.2588542 0.58093184 0.26578346 0.4572982 -0.91033006 -0.120233834 -0.8694393 -0.1716194 -0.2674423 -0.69497734 1.3068635 0.4671264 0.060581945 -0.53105325 -0.0068358947 0.23396805 0.02421159 -0.29514095 0.5724765 -1.2783488 -0.1644485 0.97974485 -0.39613977 -0.16372778 -0.20097193 -0.67754817 1.008759 0.6623112 -0.30776763 -0.41328093 -0.06430036 -0.2680402 -0.6421359 -0.5021782 -0.38292316 0.27578533 0.21109036 1.4035422 0.27211213 0.62140656 1.0665429 1.3086543 0.22937664 0.29761773 0.22907883 0.03589612 -0.36376554 0.6810881 0.05480053 -0.33807108 0.7649313 -1.063458 -0.50040704 -0.2343699 -0.67889833 0.8606012 0.10307487 -0.071273886 -1.0371248 0.16039349 -0.00024543703 0.9089923 -1.9983985 -0.2411187 0.42410207 1.1353931 -0.5810944 1.3334434 0.15666646 -0.62413204 0.7363994 0.8042534 -1.3434631 1.1264038 -1.1727194 0.043775193 -1.5373482 -0.604432 -0.62894344 -0.61019385 -0.94381064 -0.038205832 1.0153894 -0.364379 -1.1157459 0.92836744 1.0295875 1.331271 -1.345401 -0.7862674 -0.73358095 -0.3192405 -0.2181963 -0.8865322 0.6795601 -0.035969704 0.0062693357 -1.3693135 -0.03445889 -1.777556 0.47979346 1.0156392 -1.0374267 -0.55194384 -0.9154052 0.95894307 -1.0396405 0.8206587 0.4516547 -1.2806152 -1.6659567 -0.68844473 -0.09596354 -0.14762579 1.0045433 0.4029095 -0.6987632 0.21493456 0.060624406 0.69561267 1.0630361 0.2838015 -0.51189125 0.24669413 -1.2972686 0.92937386 -0.8357323 1.1025724 -0.9581735 1.0580374 -1.0674145 1.0781193 -0.9520653 -0.106288634 -1.0452785 -1.3928578 0.29257196 -0.43456906 -0.9478959 -0.5288855 0.101768166 1.6712892 1.775717 -0.49596664 -0.60130435 -0.51572347 -1.0089091 0.5368056 1.0378782 0.46950185 -0.37973776 0.60974634 0.77104163 0.009605855 -0.98046255 -0.6070004 -0.59829825 -0.109903514 -1.39806 0.5745843 0.09559053 0.8384172 -0.31238186 -0.26272514 1.1406687 -0.7488371 0.15259314 0.38366383 -0.1918247 -0.35224554 1.0253506 -0.06509133 -0.14053111 -0.35017657 -0.27549624 0.5725448 1.3115627 -0.5332148 1.125299 0.75665283 -0.1794112 -2.011436 0.25901908 0.39331442 -0.33519018 -0.569613 0.60812765 -0.048728675 0.84931815 -1.1225717 0.7803155 0.8276025 -0.2848559 -0.8236028 0.7052554 -0.7000506 -1.0160549 -0.6842185 -0.2581957 -0.39312655 -0.16281757 -0.569743 0.5853275 0.18137553 -0.0331298 0.757444 -1.3175493 -0.6953753 -0.6499133 -1.1047512 -0.43889472 -1.4129312 -0.032373726 1.1891431 -0.06794281 1.1550033 0.2916894 0.06537399 0.83188856 0.17176911 -1.7111275 1.7522849 0.28558558 -1.4661146 -0.21955422 0.21651703 0.64687914 0.20882095 -0.48621598 0.95620966 0.46382606 0.38760716 -0.4873979 -0.39903122 -1.8413066 -0.5394218 1.34572 -0.25531194 0.8503389 -1.0223358 -0.24829137 -1.4545411 0.61999583 -0.84701943 0.7940022 0.4218839 -0.15384762 -1.1463442 1.6797334 -0.97512114 -0.13488677 -1.0060961 0.20238668 -0.36731172 -0.4946686 -0.5140304 1.049573 -0.13339832 -0.43158576 -0.7781081 -0.93102515 0.9799517 -0.0021021664 -1.6321987 -1.7295175 -0.9713764 -0.579563 0.25926632 0.70227134 -0.39552596 0.21109204 0.38656318 0.1472289 -0.31315094 0.54030216 0.37024602 0.14921156 -1.5583463 0.14875795 0.35802624 1.4571842 2.0270503 -0.059639208 0.32560152 -0.76458454 0.9323314 0.40554106 -0.003072977 1.4472178 -1.5515034 0.5207635 -1.2306993 2.112778 0.36120033 -0.16358033 0.9347418 0.2851048 0.4657809 -1.5033885 0.12615514 -0.7085138 -0.4502012 -1.4384601 0.38781494 -1.4261134 0.7301104 -0.9207508 0.6053229 -1.188565 0.6078834 -0.6299057 -1.8474407 -1.0734923 -1.6171393 -0.5582272 0.23435295 0.36495715 0.5353559 -0.41101992 -0.5690569 0.4924998 0.8911619 -0.022340223 1.0283517 0.8654111 0.6482645 -1.000269 -0.8940117 -1.2996824 -1.232594 -0.06819686 -1.250149 0.7160416 0.7154465 -1.2198055 -1.2057147 1.3716916 0.811641 -0.33482686 0.24174458 -0.62158245 -0.9482483 0.56595683 -0.37524945 -0.6603695 -0.97024864 0.1105289 -0.9650663 -0.25191277 -0.85315466 0.5267757 0.0966946 0.96584296 -0.3048159 -1.0479021 -0.40670848 0.4476895 -0.016886083 -0.14055854 1.1249008 -0.64793503 -1.3269864 0.15481156 -0.15462112 0.28653377 0.33779573 0.013522595 -0.52623504 0.9219022 -0.30432993 -1.3631414 -0.7759537 0.6935507 1.7702391 -0.12656693 0.09948905 0.60089433 0.7393693 -0.20650549 0.11101611 -0.78494847 -0.23394473 -0.015070662 1.1728265 -1.3465434 0.39724642 -1.002302 -0.8208789 0.2731185 0.5662155 0.2773251 1.6194985 -0.6135907 -0.8773467 -0.14001971 -0.79019016 0.9409712 1.7695752 -0.4442112 -0.64920294 -2.414333 -0.08304453 0.13747856 -0.8818203 -1.1316334 0.79553413 -0.86972135 -0.74792993 -0.64242274 0.12350588 -0.57124555 0.3686766 -0.12772816 -0.3224948 0.9298712 0.0027709752 -0.023226023 0.8493426 -0.51331383 -0.43810633 -0.6549453 -0.57777894 -0.19012684 -0.8641941 0.6851028 -0.78973734 -0.39587688 -0.43560433 -0.44458807 -0.7458506 0.5498819 0.74917305 1.2213467 -0.23566836 -1.1650064 0.037109457 0.4591637 -0.4736948 0.21829525 -0.49888253 -0.60733354 0.51295114 -0.22804815 1.2957004 0.4243816 -1.609988 -0.60234857 0.36663127 1.3204057 0.2254467 0.38457048 -0.08786434 -0.30843782 -2.1396015 0.6315196 1.4490736 -0.34231007 1.0674613 -0.3615264 -0.06940572 -0.90235317 -0.28572726 0.23297375 0.5400116 0.19502246 -0.10891734 -0.3148337 0.74683255 1.7614706 0.02893114 -0.5390105 0.04318135 0.6891588 0.886033 -0.7248615 0.35842878 -0.053928748 -0.6686611 -2.6073914 -0.9069703 0.77078074 -0.20859219 -0.3886771 0.6050091 -0.4623485 -0.21725962 0.5807723 0.10527958 -0.7048768 0.035734653 -0.5353129 -0.74845195 -1.257338 -1.4282955 1.168129 -1.0132554 -0.017848454 0.69111526 0.2521142 -0.105572894 0.347502 -0.36223465 -0.33412522 1.1445053 1.1803732 1.0484796 -0.27305123 0.29110324 0.4317916 1.4907227 0.16604084 1.1143485 -0.6207651 1.0298687 0.9052199 0.8490866 -0.51706594 -0.44347626 0.061124563 -0.57084554 0.21335706 -0.9845953 0.8596848 0.7976389 -0.34555516 -0.9063996 0.23345798 0.3143531 -0.34712428 -0.40176904 0.42555985 -1.5435233 0.18865383 1.7250462 -0.6871639 0.22548695 -0.4140663 -0.95869064 1.0085013 0.7896149 0.13420498 -0.3630311 -0.33906385 -0.17508082 -0.4914083 -0.81195414 -0.7272273 0.68170905 0.6811607 1.742752 1.0380948 -0.23424989 0.4339878 1.6552367 0.6000416 0.46918106 -0.8540858 0.40176004 -0.17757739 0.92662364 -0.53626835 -0.43219334 0.07343915 -1.1390934 -1.4962326 -0.24147272 -0.16402388
SECU_YEAST 0.21457052 -0.18783197 0.040453922 -1.3699539 0.5464742 -0.7364014 1.1431859 -1.2442987 -0.11088789 -0.0067230985 1.107121 -0.767995 0.39783335 -0.37221366 0.1734986 -0.5833802 0.78389263 -0.392946 0.4413772 -1.1817172 0.2522791 -0.86353076 -0.75471616 -0.17520009 -0.38315213 -1.0555643 -0.48331028 0.38574463 -0.24722168 -0.33875635 0.44026062 0.97863907 1.388113 -1.4456043 -0.8207849 -0.94244474 -0.09098884 -0.09964372 -0.994152 0.32814717 0.33526304 0.92206204 -0.6151646 0.2078768 -0.8887371 -0.33167946 0.35377347 -0.26380783 -0.6018748 -0.76653767 0.8851203 -1.0264068 0.84453773 -0.31202188 -0.91679835 -0.87518907 -0.8581711 0.94107103 0.15570092 0.31731522 0.22537 -0.52443105 -0.07743681 0.554296 0.26718074 0.94491136 0.5425713 -0.4767956 0.047353756 -0.559473 1.1725821 -0.37708497 0.2667955 0.29345366 1.2937291 -0.64469063 0.47321105 -0.28920555 0.1772368 -0.7617847 -0.9351065 -0.010993108 -0.67742455 -0.92527986 0.55591524 0.42584097 0.77762115 0.24671355 -0.29024094 -0.56293756 -0.3555234 -1.0047309 -0.0045293593 0.55252624 0.123956256 -0.13569105 0.047272317 0.8365401 0.41953295 -0.6560743 -0.7898669 -0.65132445 0.60594904 -0.89388657 0.39030266 -0.055640228 0.6443206 -0.16470507 -0.99150634 0.609602 -0.22301716 1.0527027 -0.4918744 0.11614388 -0.13832727 -0.16292104 -0.0004279837 0.113027856 -0.35265726 -0.35736147 1.0886984 1.2130821 -0.83600205 1.2024529 0.7337661 -0.4681899 -0.8040261 0.32827377 -0.6947322 -0.68117887 -0.2314717 0.30703348 -0.0698685 0.6403635 -1.1810875 1.0245051 1.018975 -0.29354894 -0.7254486 0.2514535 0.42965192 -0.89287275 0.045877464 0.39898866 -0.9954792 0.13220239 -0.39295927 0.55228186 -0.3843488 -0.035743468 0.2370905 -0.81924725 -0.7328668 0.016778547 -0.58924055 -0.48253748 -0.744702 0.17204438 0.9597449 0.57288176 0.65991026 -0.38823712 0.5645963 0.87718534 -0.34214944 -0.93226886 1.3156652 0.27892342 -1.0913148 -0.47367632 -0.84708446 1.0251299 0.11378994 0.30587313 0.5310714 0.40861896 0.3641352 -0.27929103 -0.42787123 -0.6625246 -0.24505922 0.5401441 -0.649902 0.59719014 -0.81499076 0.40659618 -1.0092752 0.40246946 -0.5103885 0.08001651 -0.76635253 -0.6143855 -0.39692548 1.255288 0.16901167 0.12101557 -0.21239707 0.44123983 -0.48593557 -0.33713973 -0.14071113 1.3996408 -0.27063924 -0.20655353 -0.7708838 -0.7659886 0.90010315 -0.49816814 -1.3141004 -0.43779752 -0.6777379 -0.3942815 0.07329705 0.28789905 0.13964444 -0.22796243 -0.040510204 -0.60064405 -0.59846425 -0.15689825 0.3088626 0.31869352 -1.3167791 -0.06438492 0.5215347 1.2428876 1.0062451 -0.14562918 0.7766521 -0.11921945 0.34404153 0.73222923 0.5944292 0.5418829 -1.0355401 0.13347916 -0.4818337 1.4971476 0.5629338 -0.13672635 0.6578451 0.36945617 -0.16305903 -0.9015319 0.23625816 -0.15774955 -0.2498937 -1.4694636 0.4046151 -0.9152832 0.27118504 -1.1278414 0.7753154 -0.26524732 1.1944329 -0.48398644 -1.5562626 -1.0242788 -0.92110384 -0.57466865 -0.20040873 0.5583112 0.42419282 -0.107713014 -0.42299616 -0.039825227 0.116102695 0.11182106 0.68773234 -0.25801983 0.33712614 -0.73318833 -0.08199616 -1.3148533 -0.32357758 -0.10861552 -0.15010709 0.14057218 0.60361767 0.115351394 -0.13123251 0.7043222 -0.013428938 -0.78456545 0.03799182 -0.2499006 -0.6060185 0.19567654 -0.5503538 -1.0627415 -0.50349444 0.58365345 -0.5122419 -0.20446354 -0.13961345 0.5324516 -0.5407701 0.97302765 -0.02046619 -1.0103651 0.06096901 0.19044395 0.1025909 0.40286207 0.252775 -0.6286651 -0.88727736 0.07089327 -0.7999148 -0.06900868 -0.12905674 0.13187817 -0.9142004 0.21475007 -0.29774398 -1.2408587 -0.0025679506 0.481182 0.6860455 0.18717638 0.17839722 -0.6280047 -0.28712338 -0.65363693 -0.0012176856 -0.46490908 0.2828333 -0.27176058 1.2404797 -0.69604826 0.19210991 -0.93105567 -1.4743555 0.40627033 0.24100195 0.2757781 0.8816266 -0.66979164 -0.7424527 0.35445997 0.10121424 0.062652335 0.66888744 -0.31174374 -0.8508389 -0.9090076 0.27634302 0.5226228 -0.737399 -0.46262783 0.64666414 -0.32200205 0.07681793 -0.76759464 0.046318468 -0.19306596 0.4398188 -0.53876054 -0.4916288 1.2614233 -0.17035465 0.2999795 0.72093916 -0.28443125 -0.42959392 -0.09780185 -1.1266088 -1.4526281 -0.89529127 0.60336757 -0.7638819 0.2756704 -0.45415145 -0.34292346 -0.8835253 0.6748127 0.7399595 0.9958681 -0.13273835 -0.6836602 0.31757978 0.4233355 0.12400442 0.48027137 0.12201254 -0.010279847 0.07414736 -0.07561397 1.2401196 -0.49414194 -1.424849 -0.48100483 0.5018063 0.5169961 -0.23117453 0.20553851 -0.13263711 0.603796 -1.1278503 0.21532246 0.833387 -0.17691824 -0.036379263 0.38428348 0.42035097 -0.95911646 -0.0012055933 0.27001265 0.82336336 -0.72873783 0.24953265 0.3130792 0.2207802 1.1596465 -0.3303817 0.27003402 -0.017904209 -0.8416494 0.098875634 -0.28122544 0.26761237 0.32675993 -0.2618421 -0.9473554 -0.56156266 0.68811995 0.37636548 1.0016919 0.4199519 -0.67488647 -0.44345084 0.50879747 -0.2689813 -0.07233722 -0.7187264 -0.18201256 -0.24545528 -0.8205133 -0.74608207 1.1060442 -0.15690967 -0.4157487 0.46649396 -0.60182476 -0.2504069 0.0059234463 0.21272787 -0.44068098 0.3795559 1.1257155 -0.07779348 -0.6416638 0.23854074 -0.35070503 0.8261719 0.7555578 1.0810926 0.14127958 0.50992495 0.3689565 0.4067813 -1.014694 -0.061319657 -0.91811377 -0.17850506 -0.49412555 -0.52264804 1.2956796 0.5356621 0.2204841 -0.49607763 -0.006699425 0.18187906 -0.017181102 -0.22064647 0.5624707 -1.476105 -0.18520662 1.0136425 -0.4656434 -0.24995191 -0.15161623 -0.773566 1.09799 0.8133793 -0.35944992 -0.42458338 -0.118585564 -0.24490544 -0.5666878 -0.62121505 -0.4092895 0.3335998 0.08887161 1.4804547 0.19922203 0.5607841 1.1997294 1.3689885 0.33551872 0.28672868 0.25870436 0.11247055 -0.2196094 0.60759133 0.03726776 -0.3748609 0.7989993 -0.9442547 -0.45697495 -0.17164442 -0.78502977 0.6299371 0.16315073 -0.22042717 -1.0386329 0.3603723 -0.14533514 0.7961949 -1.957057 -0.12490807 0.55921793 1.0536008 -0.9254048 1.0124711 0.12038358 -0.57256633 0.5525478 0.74077827 -1.0354058 1.0483679 -1.0574672 0.25237697 -1.3619108 -0.5058625 -0.6841074 -0.7656962 -0.7558657 0.019172356 0.9220103 -0.036955334 -1.2529624 0.6919347 1.0788059 1.5119886 -1.2781582 -0.6017539 -0.83100414 -0.39875498 -0.18403497 -0.71485054 0.7141392 0.06271605 0.41902956 -1.5154042 0.045794934 -1.8072382 0.33947885 0.9482596 -0.9595785 -0.21804608 -0.512312 1.3088598 -0.68386465 0.66094244 0.628218 -1.3990479 -1.4021403 -0.57327664 -0.04887095 -0.09451289 1.087995 0.3033275 -0.5903392 0.4566397 0.14334822 0.52776635 0.9851553 0.44997808 -0.98508847 0.32612312 -1.2698928 1.0130339 -0.82319635 1.0613159 -0.6689888 0.87765145 -1.0722458 0.84843975 -0.90912426 0.0847898 -0.78950906 -1.2675211 0.40796518 -0.45484167 -1.0716672 -0.49152526 0.1806235 1.5085304 1.6135972 -0.27405405 -0.3641722 -0.8031701 -1.091389 0.5067791 1.0412178 0.3575013 -0.26078767 0.40845025 0.87957746 0.056212075 -1.1493878 -0.46362904 -0.67600685 -0.15647745 -1.3841652 0.58239096 -0.08209795 0.93113375 -0.20714627 -0.12531778 1.1208241 -0.79437333 0.0044796914 0.08641046 -0.18640271 -0.29361296 0.95766944 -0.17147943 -0.036292873 -0.33473617 -0.34015846 0.55210936 1.1430422 -0.5060967 0.94794023 0.8046632 -0.16460593 -2.01311 0.18245733 0.4929188 -0.58809257 -0.5397754 0.47907275 -0.17306226 0.9089922 -1.1139433 0.7911188 1.0859537 -0.4570386 -0.94362116 0.6045213 -0.5319239 -1.0332395 -0.43887153 -0.29645482 -0.47289348 -0.06211765 -0.643798 0.6377674 0.05853322 0.11058542 0.71846354 -1.1227295 -0.8243916 -0.59236926 -0.9868851 -0.57947814 -1.2645192 -0.022871807 1.1361601 -0.32766217 1.0378749 0.0883095 0.37641507 0.9596081 0.13906083 -1.6851666 1.6452515 0.339186 -1.3168099 -0.17684731 0.10445464 0.7557125 0.24753547 -0.43661118 1.0027012 0.26101208 0.51340127 -0.6034837 -0.33084348 -1.5025036 -0.40880683 1.3994136 -0.5158021 0.8769108 -1.121947 -0.15102361 -1.3487607 0.5729184 -0.5700729 0.7172145 0.2713722 -0.082942724 -0.7050297 1.727175 -0.86038995 -0.20732601 -0.8230781 0.08870837 -0.5404198 -0.42061782 -0.64561164 1.0290328 -0.22519732 -1.3296169 -0.5862404 -0.8118167 0.9669521 -0.11541843 -1.4147317 -1.598851 -0.92153215 -0.7092229 0.1762473 0.47151238 -0.41984302 0.08229662 0.19642232 0.13399178 -0.38869983 0.4363435 0.3849405 0.26716024 -1.2516272 0.055364735 0.6906687 1.6392283 1.8065611 -0.0072732214 0.3084681 -0.6578764 0.87748384 0.4737538 0.16830185 1.2851267 -1.7259898 0.3223914 -1.0390859 1.7740649 0.4012218 -0.21940562 0.97985274 0.2943938 0.19639528 -1.4502908 0.17359817 -0.6271689 -0.54223037 -1.4217435 0.34357756 -1.560595 0.81156564 -1.0369228 0.4769131 -1.0088528 0.6416249 -0.44917 -1.6731123 -0.72761446 -1.5646449 -0.37671366 -0.033319205 0.53434265 0.30006483 -0.2248429 -0.43993846 0.71060306 0.814983 -0.064299 0.70205104 1.0159193 0.71823186 -1.0332465 -0.92585593 -1.3658038 -1.0308338 -0.29740483 -1.1135818 0.80662394 0.5595938 -0.90662146 -1.1686337 1.5763814 0.41646853 -0.5820718 0.36178666 -0.41314086 -0.9714548 0.31088614 -0.6163989 -0.8032391 -0.68150467 0.22370347 -0.99220765 -0.13199033 -0.7479482 0.6604446 0.18162897 0.8499005 -0.17011401 -0.958554 -0.5355807 0.52341044 0.0894985 -0.21013622 1.0217838 -0.7678205 -1.0737505 0.048946545 -0.36098182 0.28849232 0.6500802 -0.124235585 -0.61630136 0.76069295 -0.29578525 -1.2566725 -0.5888858 0.8770559 1.5727406 -0.3093585 -0.071496025 0.18934086 0.62496793 -0.23184456 0.4110374 -0.84658164 -0.30920932 -0.11574009 1.4085886 -1.3328323 0.31918338 -1.0240601 -1.0944101 0.14978574 0.65216166 0.06976925 1.4282708 -0.6962668 -0.8684428 0.14449738 -1.0704386 0.955181 1.8578067 -0.4175909 -0.7711401 -2.1541848 0.04798426 -0.17490502 -0.7522299 -0.9257672 0.7109947 -1.0807755 -0.7631829 -0.48576447 0.21556395 -0.45708454 0.49557197 -0.34737214 -0.3812863 0.9496444 -0.033096362 0.18331015 0.64459705 -0.6411426 -0.5519041 -0.36226928 -0.67001057 -0.41270167 -0.8152588 0.41949028 -0.79260415 -0.15607429 -0.35991624 -0.5712147 -0.80907124 0.48767197 0.6672435 1.3032503 -0.11494295 -0.891659 0.12737447 0.65241146 -0.51366246 0.40699434 -0.54690796 -0.45408732 0.25372314 -0.36839667 1.3389263 0.6444331 -1.5262563 -0.7035016 0.5109598 1.1981134 0.08484114 0.31330952 0.123570174 -0.060569167 -1.9050813 0.7862032 1.5891281 -0.4742961 0.949538 -0.36285335 -0.0945998 -0.9365628 -0.09556065 0.32807744 0.57775986 0.26372844 0.03774567 -0.39355546 0.72993886 1.8703948 -0.1272313 -0.3507739 -0.14144087 0.6157279 0.8246203 -0.51756686 0.51932603 0.090864375 -0.76403606 -2.5528126 -0.74958885 0.54299176 -0.14113179 -0.09789659 0.5763372 -0.6850246 -0.4024983 0.6266923 -0.059610188 -0.71215224 -0.1679725 -0.4088248 -0.5921314 -1.3520024 -1.4837855 0.9416667 -0.9121084 -0.03131639 0.85085714 0.032915726 -0.11278345 0.30227485 -0.2674379 -0.31279403 0.97512025 1.0533681 0.701532 -0.27968144 0.16582727 0.18520443 1.2863256 0.12062456 1.2364857 -0.66368735 0.67450047 0.8697306 0.8040118 -0.5512416 -0.25196582 -0.006745845 -0.39283252 0.021319594 -0.80450916 0.92104393 0.66127384 -0.42022735 -0.8473681 0.0069455504 0.29187828 -0.40919587 -0.30872717 0.5439541 -1.246157 0.122056395 1.46015 -0.4063497 0.34074435 -0.36355525 -0.8446587 1.1499267 0.6183071 0.054879297 -0.19769654 -0.24459854 -0.32810125 -0.3744476 -0.82080144 -0.7302133 0.70281965 0.5740948 1.6389728 0.92327106 -0.10129121 0.67171824 1.431265 0.7094792 0.1930257 -0.6831231 0.56768596 -0.34400803 1.0390823 -0.33863884 -0.6546261 0.23629987 -1.0319043 -1.3991293 -0.12179946 -0.5048092
CGS5_YEAST 0.23555541 -0.15526085 0.018499501 -1.433168 0.4913409 -0.7964387 1.1164522 -1.265917 -0.06954069 -0.054177325 1.0528967 -0.7136562 0.35910133 -0.4407214 0.17021064 -0.57507116 0.78554815 -0.38259792 0.38887247 -1.2896881 0.17431922 -0.90124416 -0.67994857 -0.123739034 -0.35837856 -1.1235007 -0.3856192 0.27428016 -0.24178277 -0.33190024 0.42050526 0.98041004 1.4441911 -1.6331748 -0.86874986 -0.99317455 -0.18136685 -0.013054038 -1.0679833 0.36820495 0.44264734 0.83365124 -0.6069744 0.15438187 -0.83242416 -0.3414658 0.35180235 -0.26486894 -0.65824795 -0.8317712 0.87835306 -1.0805887 0.90074986 -0.35630167 -0.8717521 -0.8049676 -0.94876736 1.0213262 0.2003147 0.18626398 0.21460004 -0.4564844 -0.048446815 0.53242236 0.17719989 1.0173211 0.5127978 -0.38299975 -0.04466002 -0.4897908 1.1456252 -0.3553497 0.26949728 0.3178087 1.3357435 -0.66469234 0.45952058 -0.30405104 0.1462094 -0.7558157 -0.9322229 0.010813177 -0.66054493 -0.8111432 0.57203627 0.49270186 0.74164754 0.22663105 -0.32449695 -0.6366766 -0.39018893 -0.9998335 -0.0033248116 0.52514625 0.16036513 -0.16975527 -0.031751964 0.9020276 0.41411385 -0.55344445 -0.7349399 -0.6235163 0.61093736 -0.91124386 0.40762448 -0.12652552 0.6677138 -0.18282522 -1.0614364 0.56232995 -0.19596279 1.1609844 -0.41805175 0.0664242 -0.1374908 -0.11543846 0.06797485 0.14348243 -0.26617607 -0.42621598 1.1525649 1.183139 -0.87252617 1.2407819 0.7992727 -0.42968723 -0.86624336 0.35198858 -0.7234206 -0.6811073 -0.30899188 0.4051075 -0.0674188 0.63455385 -1.1617657 0.99241084 1.1339791 -0.3306915 -0.7402181 0.2694172 0.461905 -0.8872617 -0.001740858 0.44251153 -1.0171162 0.18202798 -0.49452946 0.5338529 -0.38323092 -0.06136884 0.3148829 -0.84763384 -0.63040894 -0.021824757 -0.59206414 -0.4515833 -0.76125145 0.044877578 0.96640235 0.66122305 0.72193146 -0.42626476 0.6403838 0.99443895 -0.34562135 -0.8672536 1.3842164 0.2380045 -1.1084034 -0.5184084 -0.99959135 1.1458048 0.031369522 0.31985387 0.4579045 0.4497119 0.38436556 -0.19938396 -0.5286145 -0.63965636 -0.23247199 0.44058535 -0.65259665 0.6304932 -0.8670055 0.34269568 -0.9940378 0.34997475 -0.5162532 0.09972638 -0.86322784 -0.5974186 -0.37760186 1.1981996 0.26461276 0.13307123 -0.15330027 0.45116174 -0.48240533 -0.2856655 -0.12817411 1.3646666 -0.2754437 -0.19043343 -0.7524316 -0.75702 0.94443893 -0.582336 -1.2572738 -0.42747855 -0.6955983 -0.5278375 0.12970065 0.3044634 0.12814288 -0.27447686 -0.0407996 -0.5283026 -0.5833077 -0.19618005 0.29874763 0.35885605 -1.3807448 -0.088915884 0.516477 1.2362748 1.0407109 -0.13813318 0.7565077 0.009623115 0.3155481 0.76072055 0.6040055 0.5143381 -0.9838844 0.16241263 -0.53914815 1.4967929 0.5126801 -0.19720423 0.6189423 0.352852 -0.14949034 -0.9525325 0.24839707 -0.15320367 -0.29107752 -1.5151381 0.4213464 -0.88617295 0.28400818 -1.1307577 0.74873686 -0.24057001 1.2552344 -0.5943939 -1.5717064 -1.0597128 -0.9155789 -0.5528211 -0.20055073 0.58959496 0.44576904 -0.13489442 -0.46221295 -0.12584843 0.08122591 0.123059 0.7532065 -0.2772121 0.349959 -0.8568781 -0.005499795 -1.3840815 -0.34348843 -0.1565805 -0.13153976 0.16852923 0.5576294 0.053052366 -0.07152692 0.6262386 0.05922501 -0.7713053 -0.026701897 -0.23820962 -0.61373186 0.11477425 -0.55770785 -1.0933948 -0.5038504 0.56992126 -0.48324868 -0.20774746 -0.13867633 0.59862584 -0.51925933 1.0530626 -0.027821084 -0.97774464 0.105996095 0.12722434 0.09052534 0.37992787 0.16510892 -0.5784971 -0.8779524 -0.040189374 -0.7762955 -0.13215804 -0.15853588 0.20418912 -0.9550827 0.16827767 -0.2592744 -1.3220341 0.0053067603 0.505209 0.7492526 0.27450404 0.23016739 -0.6736245 -0.3655987 -0.71257704 -0.032579456 -0.47009155 0.29912037 -0.2702225 1.3140734 -0.69178945 0.14657384 -0.89357704 -1.62489 0.40004084 0.29261383 0.17592354 0.99116594 -0.6956811 -0.70766777 0.38801706 0.08411851 0.014961064 0.7177344 -0.35457787 -0.83150893 -0.784262 0.3447516 0.53922015 -0.6965154 -0.4581562 0.66033345 -0.37528226 0.10227833 -0.66109407 0.052400272 -0.1770745 0.46574593 -0.4111519 -0.44866726 1.2987548 -0.18696596 0.24066423 0.7669292 -0.29611087 -0.4309082 -0.13893639 -1.1841409 -1.5591558 -1.0055066 0.54461026 -0.8354144 0.2891971 -0.51488996 -0.36553407 -0.9218971 0.69744706 0.7639084 0.971138 -0.17438251 -0.6547156 0.37188038 0.42196384 0.18293007 0.4936664 0.038448364 -0.049413066 0.12617742 -0.078360304 1.2403494 -0.47841623 -1.4266981 -0.46075997 0.5310506 0.42884076 -0.17094691 0.24580437 -0.1817791 0.684835 -1.1242379 0.23426537 0.79988176 -0.2305903 -0.14447244 0.3490282 0.45907506 -0.9896465 0.014781569 0.28053772 0.8526122 -0.80484706 0.14475925 0.3801949 0.17006986 1.1860753 -0.35936403 0.2757134 0.032776043 -0.8153236 0.08891511 -0.33269522 0.2708108 0.34047553 -0.20669411 -0.9853034 -0.5910475 0.8274973 0.37581715 1.1234158 0.336511 -0.67345923 -0.49726602 0.60892695 -0.28035513 -0.07861819 -0.7140441 -0.15685888 -0.22940035 -0.78529406 -0.8195302 1.1086143 -0.09250206 -0.46716177 0.47364053 -0.5934163 -0.22175372 -0.057254285 0.26327607 -0.49264967 0.42131555 1.0187632 -0.10041321 -0.75823194 0.16675563 -0.35632408 0.7839667 0.70485735 1.0876113 0.11251658 0.4257625 0.36455217 0.3270464 -1.0586382 0.02320522 -0.9767892 -0.07539359 -0.60187 -0.48851332 1.2512592 0.5884093 0.2676544 -0.4482241 0.008387687 0.117487915 0.024990082 -0.24569125 0.49167386 -1.5787687 -0.23419921 1.0440602 -0.48506045 -0.35407305 -0.14650208 -0.8333228 1.087344 0.86145145 -0.3990673 -0.49729243 -0.10949355 -0.22264087 -0.5108496 -0.6870611 -0.43214813 0.34942958 0.018704817 1.5147339 0.18025719 0.62256974 1.298512 1.4247733 0.25582182 0.3072789 0.19051911 0.107479006 -0.290305 0.591033 0.0829326 -0.34061086 0.81095695 -0.9139566 -0.45191145 -0.12831742 -0.9189727 0.6381436 0.17402017 -0.058975805 -1.0638744 0.18506737 -0.1783492 0.84546524 -1.9848967 -0.08485901 0.53577226 1.0992135 -0.9038286 1.0890399 0.07274111 -0.595676 0.48583078 0.8564065 -1.0882181 1.0533465 -1.0599748 0.2091475 -1.4223045 -0.52945817 -0.5834665 -0.69090503 -0.7930772 -0.06719308 0.95923895 -0.0972769 -1.2080517 0.76878864 1.0499254 1.4250616 -1.2966858 -0.6342028 -0.794456 -0.36793327 -0.16911785 -0.78835267 0.66119134 0.005974299 0.31194898 -1.4281644 0.05948999 -1.800634 0.29388592 0.88887066 -0.98546463 -0.30752277 -0.72479486 1.2459365 -0.77000433 0.66750664 0.6195901 -1.3350776 -1.3857883 -0.57306784 -0.031498503 -0.080845945 0.9048613 0.3509952 -0.5939467 0.39526 0.13931084 0.48719445 1.0138496 0.3532633 -0.88567114 0.25767764 -1.2157153 1.0885221 -0.8356967 1.0550812 -0.66738075 1.0031599 -1.0584002 0.8958027 -0.8617937 0.07363796 -0.78789884 -1.2812034 0.35300717 -0.48341522 -0.93779516 -0.45115328 0.17940342 1.490187 1.5707307 -0.28779504 -0.46060273 -0.7185176 -0.9621151 0.47294116 0.9965513 0.4713525 -0.285912 0.41522765 0.85187054 0.049933333 -1.0341554 -0.4887035 -0.66667277 -0.18536039 -1.4009428 0.52933764 -0.055539176 1.00003 -0.25928473 -0.154092 1.0784804 -0.7593162 0.07969647 0.21761854 -0.20175438 -0.20159411 1.0128424 -0.20188326 -0.090501405 -0.41221085 -0.27359423 0.63298076 1.1831471 -0.59866095 0.9861625 0.8469496 -0.17584085 -1.9624373 0.13039352 0.41294697 -0.551511 -0.54621375 0.46710587 -0.22594059 0.8087327 -1.1514735 0.7543187 1.0489012 -0.41555178 -0.9015203 0.685991 -0.709378 -0.97199565 -0.43539444 -0.28749862 -0.45366743 -0.11907586 -0.6355111 0.5789866 0.07136259 0.046171144 0.72480315 -1.1658711 -0.81991893 -0.632328 -1.1412252 -0.41166958 -1.3102163 0.009248893 1.2382967 -0.2347037 0.9691029 0.06173879 0.14337888 0.9497633 0.14363287 -1.6313376 1.6326584 0.33505556 -1.3534985 -0.15176865 0.11103082 0.68739074 0.2031492 -0.500289 0.9507162 0.3195047 0.46452984 -0.59690773 -0.37635446 -1.5900446 -0.39914587 1.3405361 -0.42120108 0.92099285 -1.1038876 -0.15565301 -1.3780545 0.5582417 -0.6262635 0.7522662 0.26141563 -0.10892719 -0.8586049 1.6527604 -0.8883801 -0.17529583 -0.82270116 0.20007074 -0.46226755 -0.4922913 -0.56984705 1.0160997 -0.20575877 -1.4003329 -0.5968819 -0.91240305 1.0044438 -0.1512084 -1.4684674 -1.534531 -0.8816037 -0.67972726 0.19546862 0.61096233 -0.35218704 0.042030346 0.1782796 0.017989779 -0.34839717 0.41483793 0.33765137 0.21359164 -1.319709 0.12425736 0.7281451 1.535832 1.8031439 -0.059838083 0.29962182 -0.71505904 0.9224909 0.501342 0.22612941 1.2686827 -1.5910679 0.36908317 -1.0568184 1.8395681 0.44087526 -0.17318769 0.9205203 0.21798714 0.2935225 -1.4431968 0.08709767 -0.6370786 -0.5173724 -1.4594473 0.30190715 -1.4757253 0.71101147 -0.98658925 0.3961098 -0.9603586 0.7337931 -0.45974568 -1.7676754 -0.903977 -1.5708138 -0.40948853 0.033324707 0.4698478 0.32673213 -0.2742673 -0.41141224 0.69792247 0.71480626 -0.088845916 0.7583311 0.93253833 0.728786 -1.0244285 -0.8975828 -1.3721608 -0.994283 -0.27610618 -1.01898 0.7015941 0.5393098 -0.9657915 -1.0711108 1.5495275 0.52401334 -0.45306364 0.3499517 -0.4463702 -0.90126467 0.2765344 -0.5670189 -0.80956143 -0.76171184 0.326445 -0.99206966 -0.15265064 -0.681238 0.59736186 0.055146933 0.88767123 -0.19059074 -0.9357626 -0.52682686 0.6138029 -0.0112468 -0.09984919 0.976562 -0.76353997 -1.052688 0.097950585 -0.32615116 0.2767675 0.6139193 -0.069716804 -0.61845136 0.7471357 -0.301173 -1.3275788 -0.5942654 0.85208493 1.6825062 -0.3237876 -0.060903877 0.24084365 0.68893266 -0.25865313 0.2896147 -0.843844 -0.26407096 -0.12969245 1.3258767 -1.3053383 0.34146667 -0.99144316 -1.0438895 0.23597217 0.6000145 0.06804579 1.4663515 -0.6589876 -0.848053 0.08329346 -1.0053602 0.99568367 1.8259519 -0.45252708 -0.64581436 -2.1716137 0.041864146 -0.0498105 -0.70736814 -0.96965295 0.7957542 -1.0817527 -0.76081914 -0.60261565 0.2728216 -0.5623615 0.4516422 -0.3346974 -0.25803915 0.9292781 0.028330795 0.15953274 0.651036 -0.61289644 -0.55310625 -0.3694261 -0.6097198 -0.36588112 -0.833879 0.57590276 -0.74054265 -0.098078154 -0.40887216 -0.5186607 -0.7314829 0.5576388 0.78816825 1.2133858 -0.18829954 -0.98200196 0.082820304 0.61222565 -0.5186398 0.40086147 -0.52496237 -0.52479786 0.29187378 -0.3463064 1.2961694 0.5429296 -1.5708323 -0.5849155 0.52532196 1.2131896 0.12391373 0.2831252 0.046481267 -0.11628411 -2.027542 0.6805296 1.5257643 -0.46062323 0.93025273 -0.30192313 -0.022624424 -0.9878545 -0.14034511 0.3478355 0.50771546 0.3226489 0.05899638 -0.43261346 0.6979777 1.7772378 -0.05091406 -0.37318483 -0.07128624 0.5959076 0.8028161 -0.5466917 0.44542792 0.04034589 -0.69395113 -2.4711556 -0.86804694 0.53148115 -0.123228826 -0.1548255 0.48303404 -0.5698663 -0.3544043 0.6216972 -0.037422244 -0.73217535 -0.075550206 -0.44816342 -0.5936425 -1.2817549 -1.4402457 1.0384579 -0.9943083 -0.03541554 0.80969524 0.09088224 -0.15046401 0.33063146 -0.28595495 -0.3700584 0.98044395 0.98563737 0.71489114 -0.28109524 0.19177556 0.252443 1.3265151 0.09961473 1.2322835 -0.59874016 0.7372312 0.8591685 0.8368241 -0.51372796 -0.33786568 -0.029582778 -0.5206704 0.076050214 -0.8548462 0.9380172 0.7043255 -0.40740982 -0.8057112 0.08746344 0.29254258 -0.31330764 -0.32846725 0.5103144 -1.2486495 0.14557703 1.4989276 -0.51274353 0.22313394 -0.35021067 -0.9653134 1.000024 0.6114187 0.111023344 -0.24495845 -0.23036785 -0.31378654 -0.44544587 -0.830858 -0.7103903 0.6847386 0.5879886 1.703394 0.9254449 -0.08538375 0.6602123 1.496854 0.6872153 0.26245388 -0.6498596 0.40491256 -0.25905195 0.9652627 -0.3456607 -0.4308096 0.1909517 -0.9963557 -1.3940269 -0.15875375 -0.38715354
H2B1_YEAST 0.18410565 -0.109418094 -0.036410253 -1.3713872 0.41779855 -0.7827226 0.9714335 -1.1869339 -0.056467563 -0.085199505 0.955562 -0.6178218 0.3378473 -0.40295818 0.11538631 -0.5365648 0.7505548 -0.34115967 0.2554453 -1.3044426 0.08887476 -0.84960854 -0.59533703 -0.10999514 -0.3105579 -1.1188285 -0.2329606 0.14084166 -0.22995402 -0.3138238 0.3606559 0.89472085 1.361136 -1.6551623 -0.82711476 -0.9752213 -0.26625368 0.08239881 -1.1026545 0.3935194 0.5140192 0.69824666 -0.50593156 0.11662103 -0.71973217 -0.35514474 0.32257864 -0.19467363 -0.64849037 -0.82907885 0.7955427 -1.016848 0.8798334 -0.3991077 -0.81800824 -0.7059369 -0.99211717 1.0157855 0.16813096 0.1435532 0.18646392 -0.3752956 -0.056425918 0.46903142 0.181126 1.0023943 0.4440354 -0.24866113 -0.07660231 -0.3972935 0.9757973 -0.31579039 0.21846119 0.32680684 1.2639543 -0.64670944 0.42690444 -0.2828337 0.056080073 -0.6932064 -0.8665044 0.029399265 -0.65176 -0.7015641 0.5678467 0.5563946 0.6218969 0.16999304 -0.341609 -0.64895594 -0.3429571 -0.9390662 -0.023756638 0.48207834 0.08671653 -0.16910739 -0.10705639 0.9044514 0.39131284 -0.43989035 -0.69295573 -0.5676625 0.53638804 -0.8777969 0.44199002 -0.17475876 0.61931634 -0.10563609 -1.0105966 0.47104618 -0.18125007 1.1472623 -0.30571023 -0.013588134 -0.08638941 -0.10966601 0.13735177 0.1513739 -0.13071994 -0.48055536 1.1456671 1.0981503 -0.82173187 1.1948154 0.7755592 -0.38844153 -0.8310277 0.31781256 -0.6998627 -0.6497595 -0.37865338 0.4678009 -0.03137642 0.56905025 -1.1558281 0.872873 1.1277332 -0.3889308 -0.69588536 0.25134856 0.49735442 -0.85435426 -0.010258906 0.44204763 -0.98346037 0.19932282 -0.544296 0.5144125 -0.3574475 -0.09707476 0.33301285 -0.81824255 -0.50865877 -0.032378454 -0.5265574 -0.39022177 -0.71039855 -0.082405135 0.87711424 0.7117642 0.7919155 -0.37199277 0.68012613 1.0308366 -0.3217235 -0.74742496 1.3663782 0.18439819 -1.0976638 -0.54056364 -1.0872912 1.1916869 -0.039880227 0.33027548 0.34364715 0.4409898 0.39441 -0.034840673 -0.5643478 -0.61835086 -0.24712606 0.31095573 -0.6279415 0.6412277 -0.8628217 0.26970217 -0.9562429 0.28151584 -0.49641716 0.07589849 -0.91993505 -0.58806086 -0.36129135 1.0800916 0.2860017 0.118912905 -0.14787725 0.42185324 -0.44143355 -0.2696212 -0.118778706 1.2467623 -0.26822835 -0.17750186 -0.7236081 -0.75464934 0.8971823 -0.62299794 -1.2286716 -0.37754458 -0.6272253 -0.553038 0.15422091 0.29446274 0.10209625 -0.25670052 -0.027720176 -0.44503978 -0.58978105 -0.19991204 0.31580156 0.34746134 -1.3330855 -0.09307805 0.46459517 1.112492 0.9881489 -0.03211739 0.6712618 0.118277214 0.25758335 0.7440635 0.59346366 0.3956865 -0.87504107 0.16240624 -0.5504948 1.4203936 0.45065606 -0.22693135 0.5729026 0.38686043 -0.2616393 -0.9052039 0.24379215 -0.099728346 -0.34748673 -1.4401007 0.42080516 -0.85475767 0.29911897 -1.088795 0.7032847 -0.211555 1.2591162 -0.6430242 -1.4323444 -1.0401512 -0.91897887 -0.5062623 -0.15633793 0.6175579 0.44425094 -0.13618149 -0.4549453 -0.2109859 0.09051744 0.10532601 0.7758913 -0.24738479 0.35030594 -0.88459915 0.024629757 -1.3362172 -0.3732292 -0.15524548 -0.09524266 0.17513621 0.5203471 0.043775924 -0.009879764 0.50632185 0.07672723 -0.7498422 -0.13700481 -0.23493782 -0.6444135 0.08680449 -0.5917785 -1.1306603 -0.48855084 0.52584374 -0.41250253 -0.19649187 -0.1280884 0.6109555 -0.46801096 1.0819438 -0.035650235 -0.8590983 0.16783479 0.039766982 0.06780491 0.32392412 0.026522055 -0.5074332 -0.8155466 -0.10686495 -0.72634286 -0.14303544 -0.19295046 0.28350085 -0.90625757 0.12381528 -0.18823746 -1.2750529 0.01659705 0.48215213 0.7874876 0.3568182 0.2760129 -0.67324716 -0.36805058 -0.7128342 -0.04944033 -0.41211152 0.28031325 -0.23977673 1.3331474 -0.60316163 0.13497666 -0.7937978 -1.6436212 0.36813545 0.32700175 0.03046628 0.96025705 -0.6628285 -0.5923702 0.36468977 0.08608797 0.018460989 0.69572705 -0.34328747 -0.7698786 -0.650678 0.42953604 0.5017619 -0.63875055 -0.36900422 0.56647575 -0.43038225 0.1694196 -0.52293825 0.057190433 -0.08016878 0.49761632 -0.27734014 -0.38252068 1.2932785 -0.22913301 0.2019128 0.72130287 -0.27903175 -0.34597638 -0.16721958 -1.1684448 -1.5735835 -1.030921 0.4747295 -0.8725629 0.26037413 -0.530631 -0.38723323 -0.86098194 0.6538867 0.7007851 0.91768205 -0.13152477 -0.5772406 0.42270663 0.41930774 0.24755354 0.46516958 -0.012313198 0.0025083534 0.17422883 -0.09866622 1.1635911 -0.44941324 -1.2724757 -0.45174724 0.4715047 0.36672872 -0.122491956 0.2645929 -0.16608101 0.639489 -1.0265577 0.23145467 0.77081406 -0.2662046 -0.20325449 0.32010567 0.50804126 -0.9308266 0.07148099 0.26087397 0.8763157 -0.81023717 0.03789419 0.48637536 0.1266542 1.0860186 -0.3913722 0.25971037 0.022677545 -0.7635604 0.094328426 -0.35343066 0.2393783 0.34080952 -0.1563977 -0.9691694 -0.5139338 0.89335245 0.40322196 1.1795285 0.20914213 -0.6454071 -0.48158324 0.6966484 -0.26597938 -0.044481516 -0.6606516 -0.12708235 -0.18221462 -0.7432395 -0.7851989 1.012621 -0.027448941 -0.44533545 0.469855 -0.53016216 -0.10906375 -0.13238838 0.30736214 -0.55748194 0.40793863 0.87411344 -0.167768 -0.8128872 0.15186132 -0.3744533 0.6437602 0.6801393 1.0510224 0.07486995 0.36545044 0.3109493 0.25417277 -0.9802487 0.13174993 -0.9508563 0.04726316 -0.61457336 -0.44715518 1.0968573 0.5909488 0.2815612 -0.44657713 -0.023601932 0.04059643 0.0018351749 -0.2716853 0.40068856 -1.6025479 -0.27800182 1.0323776 -0.4842173 -0.32780948 -0.13833903 -0.78727806 1.0417277 0.9103532 -0.44620198 -0.5798285 -0.19485086 -0.2384162 -0.45649156 -0.75240266 -0.3675865 0.31770417 -0.04008155 1.4185615 0.16865127 0.67026514 1.2977582 1.3825142 0.118843965 0.30414358 0.10116706 0.09325269 -0.31969905 0.4925272 0.12766415 -0.279465 0.82797337 -0.864674 -0.43432868 -0.042612713 -0.97992134 0.55853605 0.20056173 -0.07042539 -1.0059755 0.15194267 -0.18825464 0.740343 -1.9155227 -0.050013453 0.5360394 1.0290248 -0.8295153 1.060143 0.099772006 -0.5902467 0.51491416 0.83281213 -1.0330385 1.0148904 -0.9950629 0.1861326 -1.3433 -0.46292382 -0.5904913 -0.6747304 -0.7495549 -0.0012516826 0.9000699 -0.06443071 -1.2104313 0.6493081 0.91778886 1.3425143 -1.2276124 -0.5744426 -0.7164543 -0.35668284 -0.10553381 -0.69523925 0.66387296 0.01769987 0.30591124 -1.3746107 0.11430834 -1.7354305 0.28398755 0.8507063 -0.89856076 -0.25768316 -0.6595907 1.2593611 -0.695898 0.578442 0.6239934 -1.2790874 -1.2999748 -0.49406987 -0.06279324 -0.09411313 0.8952447 0.31989017 -0.5587708 0.3801975 0.15264493 0.47951514 0.9131386 0.315606 -0.8287945 0.3001162 -1.1289766 0.9967779 -0.7611531 0.9923661 -0.622077 0.8834724 -1.0242238 0.84494877 -0.84919846 0.11648725 -0.7649051 -1.1917788 0.33955044 -0.44534266 -0.92590946 -0.46727973 0.12890172 1.4155952 1.5009815 -0.29722857 -0.4535969 -0.6963264 -0.9041878 0.4897468 0.92307997 0.4093775 -0.2366328 0.34187764 0.7695478 0.040777966 -0.95272565 -0.43082714 -0.68392444 -0.22028363 -1.2864435 0.5258856 -0.047363833 1.0080606 -0.21713072 -0.11096449 0.97479606 -0.72137356 0.028355934 0.23609619 -0.23101546 -0.15473612 0.97336805 -0.23338032 -0.14613166 -0.40766728 -0.25329906 0.6303446 1.0970423 -0.55709046 0.9677002 0.7859533 -0.20050149 -1.9004319 0.11670019 0.46895978 -0.5048786 -0.52126515 0.41527584 -0.23953508 0.7486433 -1.0796745 0.7436964 0.98077255 -0.4931763 -0.85556215 0.6383685 -0.7097095 -0.90701765 -0.4650876 -0.28749016 -0.4212076 -0.13609725 -0.64692503 0.56660223 0.07986384 0.06258057 0.6668525 -1.1492211 -0.76452816 -0.58846796 -1.0475423 -0.33738726 -1.2116165 -0.016634725 1.1850269 -0.27064672 0.932482 0.05318392 0.13199669 0.91069 0.15211758 -1.5794398 1.5889952 0.35077232 -1.2666205 -0.12661652 0.09876326 0.65625936 0.20866245 -0.5019168 0.92253095 0.30905724 0.411171 -0.53369254 -0.3127549 -1.612296 -0.4039211 1.2731707 -0.36881822 0.889539 -1.0797514 -0.14448859 -1.3165381 0.5776143 -0.6004115 0.7138071 0.2577001 -0.04928905 -0.85951173 1.5849798 -0.8902905 -0.19099142 -0.80239856 0.13208957 -0.41478348 -0.50598013 -0.57167137 0.92514217 -0.20960157 -1.513158 -0.53732675 -0.9046332 0.9442842 -0.21101943 -1.3892193 -1.4429466 -0.82700926 -0.6600248 0.19283737 0.5962009 -0.34156975 0.04923524 0.16719832 0.04324968 -0.31024963 0.41339177 0.28343987 0.21003598 -1.2127929 0.10169768 0.73063064 1.4423811 1.6829091 -0.009351708 0.24956077 -0.7425817 0.8966095 0.48949152 0.26836216 1.1857939 -1.5168327 0.33925062 -1.0172827 1.7167821 0.41956437 -0.14277722 0.8730403 0.19145398 0.25485694 -1.3635814 0.076555856 -0.55400914 -0.5120617 -1.3477306 0.2862118 -1.4500116 0.7251166 -0.8891272 0.37140536 -0.9620517 0.65147924 -0.44284222 -1.6669338 -0.83469427 -1.5563482 -0.36392003 0.023513734 0.4267543 0.2585085 -0.17992033 -0.39089096 0.7040299 0.67690694 -0.080181025 0.72003734 0.9222193 0.7628293 -0.9704511 -0.8508401 -1.268612 -0.9823663 -0.29035354 -0.9863288 0.6454812 0.49286342 -0.87845683 -1.0240151 1.448513 0.4792887 -0.4118136 0.3589559 -0.4252057 -0.89359355 0.25586852 -0.58160865 -0.8200128 -0.65140736 0.35255778 -0.97053456 -0.12881443 -0.66013354 0.59089035 0.026568066 0.8355607 -0.156852 -0.9272766 -0.5473884 0.5572246 -0.030818872 -0.08184235 0.902666 -0.6763673 -0.9611704 0.079024844 -0.30217573 0.23259147 0.61532044 -0.09514744 -0.557761 0.7063977 -0.31274658 -1.2331835 -0.5843256 0.8558078 1.6460536 -0.32795444 -0.088069715 0.17907867 0.7060774 -0.23906943 0.31049758 -0.8593849 -0.2823278 -0.10056071 1.2468481 -1.244605 0.35754815 -0.9965314 -0.9857774 0.15753692 0.5989068 0.0061722547 1.3521845 -0.61826915 -0.77151674 0.08582381 -1.0135447 0.99762154 1.7168779 -0.4409658 -0.53216743 -2.0472245 0.023402387 -0.08473541 -0.6327097 -0.8613448 0.7112747 -1.0645957 -0.75584966 -0.55814385 0.2617733 -0.45394206 0.43336824 -0.33218104 -0.19349764 0.88853014 -0.016742794 0.1622172 0.55056393 -0.62047696 -0.46645612 -0.34013528 -0.52620316 -0.31144118 -0.7645265 0.5180679 -0.67544043 -0.1264219 -0.41701922 -0.53669477 -0.66846645 0.5306332 0.73096424 1.166138 -0.11109592 -0.8930207 0.12041905 0.602761 -0.46479648 0.32681167 -0.49489138 -0.5066662 0.2757843 -0.37697628 1.2089428 0.63496345 -1.5315316 -0.5526768 0.5005826 1.1763033 0.13853693 0.28933856 0.06932472 -0.14361909 -1.9128124 0.6778888 1.4794809 -0.46334827 0.883054 -0.29997897 -0.023451738 -0.927928 -0.122404605 0.31243643 0.5031997 0.43697944 0.016192485 -0.41732937 0.70457584 1.6392368 -0.052386187 -0.30772296 -0.13795213 0.5682782 0.807706 -0.5132635 0.45432737 0.015216814 -0.7157538 -2.3819525 -0.7807751 0.506379 -0.100216344 -0.1877085 0.4038794 -0.56196845 -0.31063664 0.62673056 -0.05681465 -0.7248255 -0.053444862 -0.39504582 -0.5554821 -1.2614071 -1.4024816 0.94571626 -0.97302675 0.0049137203 0.7491804 0.06561561 -0.09686375 0.32159117 -0.295818 -0.3737906 0.94398004 0.8950945 0.66117597 -0.2914687 0.18698102 0.20682827 1.2731087 0.086941265 1.1786985 -0.6522932 0.69105035 0.848088 0.8033119 -0.42300636 -0.2039407 0.022756062 -0.52823037 0.06734646 -0.79859316 0.86562073 0.66903687 -0.35922366 -0.8002348 0.058587413 0.27526307 -0.36986005 -0.31110603 0.47428167 -1.1762743 0.16599706 1.3811564 -0.50839007 0.2799919 -0.3278388 -0.95806146 0.9200674 0.5644622 0.041290123 -0.24409218 -0.27182984 -0.3469763 -0.4730043 -0.8139509 -0.63726103 0.6525193 0.5439713 1.5947006 0.92365944 -0.050566457 0.5927819 1.4166607 0.6510422 0.21763167 -0.6505532 0.4371163 -0.26399285 0.889058 -0.32051024 -0.4008541 0.17846225 -0.91670763 -1.3711858 -0.09687324 -0.43449742
H2B2_YEAST 0.1516939 -0.06750001 -0.075251706 -1.317796 0.3824399 -0.7869811 0.8626264 -1.1388113 -0.026723351 -0.11745838 0.89202535 -0.585378 0.32958928 -0.37278804 0.09110306 -0.51606864 0.72062737 -0.29542026 0.16616826 -1.3423359 0.00014512539 -0.8322973 -0.52837205 -0.08785363 -0.24408963 -1.1113338 -0.12248154 0.045210253 -0.20214832 -0.3156287 0.31115165 0.83635837 1.287153 -1.6937011 -0.79653955 -1.0057849 -0.34443364 0.13304667 -1.1710489 0.4438068 0.57688427 0.5903493 -0.43460292 0.077231474 -0.63243186 -0.35721594 0.30632678 -0.13583335 -0.63962764 -0.84995157 0.7353041 -0.98039895 0.8785963 -0.4316953 -0.785361 -0.62088597 -1.0319495 1.0154498 0.14869624 0.13142762 0.1921095 -0.32970876 -0.07356872 0.42209584 0.17917469 1.0147746 0.38679498 -0.18301728 -0.10976931 -0.3156848 0.84520227 -0.28038174 0.19754979 0.33950263 1.237037 -0.6277577 0.4270761 -0.25748676 -0.019707333 -0.63726205 -0.8283762 0.040069066 -0.67459965 -0.6205498 0.5933918 0.64121544 0.52848583 0.13741662 -0.3518229 -0.674296 -0.3220814 -0.89696217 -0.055966146 0.4780429 0.018489975 -0.18311226 -0.16938773 0.915696 0.37589324 -0.35962975 -0.6845494 -0.5076857 0.47349796 -0.88271344 0.47574633 -0.22539353 0.56560415 -0.03399818 -0.95974797 0.43334904 -0.17495169 1.1369445 -0.19483171 -0.06677549 -0.05699449 -0.12012382 0.18315107 0.14286143 -0.017149633 -0.5305877 1.1356914 1.0387238 -0.7918323 1.1807685 0.7610043 -0.36263818 -0.803836 0.30481273 -0.69689834 -0.6672279 -0.45506144 0.52498055 0.009115867 0.5458002 -1.1784805 0.7723874 1.1228955 -0.42448026 -0.6910293 0.22048514 0.52081805 -0.8563015 0.02722913 0.44134602 -0.98010457 0.21406081 -0.576658 0.5188936 -0.33242565 -0.111912265 0.35722572 -0.80658513 -0.43545723 -0.038268525 -0.4798061 -0.32850283 -0.68077135 -0.1836212 0.8259222 0.7553071 0.858325 -0.3575932 0.7144043 1.0769336 -0.29299492 -0.6629208 1.3416445 0.1508578 -1.1146306 -0.5670544 -1.1517776 1.2255596 -0.09805696 0.33780184 0.26353872 0.45731965 0.41301864 0.089356594 -0.5904872 -0.60187775 -0.26563358 0.2147465 -0.6343037 0.66409177 -0.86554736 0.22847612 -0.94379604 0.22446063 -0.46762285 0.041283995 -0.97222793 -0.59849995 -0.32902327 1.014807 0.3184111 0.1107672 -0.16516104 0.41384402 -0.4137668 -0.24370797 -0.09109904 1.1621466 -0.25398588 -0.15632528 -0.71510035 -0.78577745 0.8639911 -0.63261586 -1.2542031 -0.34390697 -0.58312696 -0.5698888 0.1831445 0.26506546 0.09837289 -0.23252288 -0.0107572535 -0.40122494 -0.6111264 -0.20641741 0.33759463 0.3407616 -1.316264 -0.06635719 0.42600375 1.0183887 0.96419066 0.04979079 0.64283055 0.21622697 0.21524534 0.74420977 0.59235597 0.30726123 -0.78047 0.15310407 -0.5597247 1.3736024 0.42607385 -0.24366572 0.56678885 0.4197877 -0.3758476 -0.8807837 0.24345608 -0.06761957 -0.4408536 -1.4242877 0.42756948 -0.8342622 0.3002972 -1.0859227 0.66073847 -0.18396668 1.2867305 -0.66673356 -1.3528893 -1.038573 -0.922613 -0.49282742 -0.11879786 0.6636909 0.47660273 -0.1559579 -0.45262608 -0.25229645 0.12770577 0.09423836 0.79560417 -0.20418449 0.33260188 -0.90447265 0.016547047 -1.3187699 -0.39617828 -0.11535915 -0.059853338 0.20636754 0.50538564 0.016519183 0.02913793 0.41135058 0.11033642 -0.7328681 -0.23222819 -0.25053826 -0.66040736 0.07646085 -0.6298765 -1.1602652 -0.5267122 0.47428638 -0.3719183 -0.18157138 -0.11468583 0.6420377 -0.40594187 1.1154058 -0.061386507 -0.7586303 0.22130188 -0.025598962 0.051412035 0.28613582 -0.096940145 -0.48198146 -0.77532464 -0.14917465 -0.6805824 -0.1395673 -0.24242549 0.35499305 -0.8766352 0.093954846 -0.12303422 -1.2611033 0.0067200274 0.4706808 0.8305246 0.42183906 0.30652225 -0.69318116 -0.36445075 -0.7208114 -0.06490287 -0.3623556 0.28230336 -0.23473409 1.3731667 -0.53097755 0.14791474 -0.71240246 -1.6775692 0.3463778 0.38003626 -0.060195513 0.94180715 -0.63727355 -0.51661414 0.36014053 0.104306795 0.026143234 0.67986786 -0.3464244 -0.77175933 -0.58302104 0.51916665 0.4822382 -0.6004621 -0.30245525 0.5037247 -0.4961349 0.24923399 -0.42836943 0.077919446 -0.021791946 0.56629765 -0.17794731 -0.33802655 1.3243867 -0.27429032 0.17478278 0.70460325 -0.25189984 -0.297341 -0.19297063 -1.1781248 -1.6235161 -1.0563337 0.4361298 -0.92361796 0.24256465 -0.5532609 -0.40663114 -0.8090893 0.6217158 0.6694549 0.8820974 -0.107239425 -0.5136922 0.45371217 0.42832708 0.30743295 0.47722712 -0.062331468 0.032581806 0.20065227 -0.11197041 1.1311549 -0.45564127 -1.1728168 -0.45764512 0.43863422 0.32411957 -0.10838224 0.28520316 -0.15512256 0.6040328 -0.975187 0.24162197 0.7803701 -0.3026783 -0.2496372 0.30605668 0.54843795 -0.8863548 0.14006534 0.26849517 0.8997116 -0.8373907 -0.04200564 0.58241093 0.07056455 1.0359175 -0.412901 0.24291618 0.022487532 -0.7172369 0.09759922 -0.38951522 0.23401359 0.33523297 -0.09701316 -0.9722204 -0.46030322 0.95421153 0.4370858 1.2493566 0.091353044 -0.62911165 -0.47904497 0.76403487 -0.2617165 -0.008570666 -0.6266869 -0.11157459 -0.14060654 -0.70346177 -0.7728754 0.9536048 0.020793866 -0.4409527 0.4840621 -0.47646365 -0.029890936 -0.20433863 0.33566973 -0.6423415 0.39527333 0.77254915 -0.21283206 -0.8623022 0.15673491 -0.39390498 0.5217252 0.65756947 1.057172 0.0638007 0.32373416 0.24884629 0.1802958 -0.924482 0.20228688 -0.96208495 0.14786102 -0.6147288 -0.46174297 0.98876894 0.6084451 0.28538314 -0.47361308 -0.06056249 -0.011062247 -0.019376371 -0.31431183 0.33495623 -1.6436937 -0.3370101 1.0491074 -0.46547294 -0.3042543 -0.13869044 -0.73871356 1.0193311 0.9667422 -0.47387657 -0.66691095 -0.25617963 -0.26928592 -0.4320783 -0.8334497 -0.31927583 0.28615648 -0.068575285 1.3428391 0.16942175 0.729405 1.3036683 1.3748633 0.007726258 0.2855888 0.026567325 0.078291126 -0.3603962 0.43911105 0.16941634 -0.21528336 0.8505107 -0.86109674 -0.42169094 0.02191847 -1.0311826 0.48326716 0.17795977 -0.12511198 -0.9617473 0.20781502 -0.1980766 0.6666566 -1.7769892 -0.077621564 0.49759173 0.99694574 -0.80852413 0.95367223 0.078130916 -0.5463344 0.46354875 0.7891677 -0.96781504 0.8963768 -0.9052494 0.27256563 -1.2095922 -0.51846015 -0.5659805 -0.6696924 -0.65024114 -0.023421055 0.8550359 -0.082923815 -1.11713 0.63287675 0.9066642 1.2866501 -1.1334114 -0.5486759 -0.6031536 -0.32137975 -0.082958564 -0.6308061 0.6268233 0.03671869 0.33809343 -1.355827 0.06681542 -1.5818056 0.21177247 0.8349472 -0.8484222 -0.23123387 -0.5636239 1.2254417 -0.5966673 0.5282121 0.6211135 -1.2706151 -1.1903808 -0.46261692 -0.027861243 -0.051172573 0.8961953 0.32005697 -0.56399477 0.3634805 0.1984469 0.4653334 0.8370652 0.30870253 -0.83602536 0.29485768 -1.0919511 0.92253274 -0.7006527 0.92715055 -0.54114795 0.84769 -0.9652505 0.7737398 -0.80564183 0.063239165 -0.7311901 -1.1191558 0.36051312 -0.36952415 -0.9579606 -0.44416875 0.10564534 1.3587841 1.3852594 -0.26941735 -0.3793226 -0.68176615 -0.9439055 0.43892765 0.89967334 0.44075838 -0.23762545 0.2797934 0.7127635 0.021020642 -0.96344936 -0.42163476 -0.6822633 -0.22984628 -1.1620839 0.49858946 -0.08094879 0.8889319 -0.14841622 -0.13793144 0.9551892 -0.6946552 0.030340469 0.19402479 -0.18025967 -0.11070646 0.7852238 -0.16493972 -0.15350465 -0.4598674 -0.24479184 0.6234983 1.0910004 -0.5419214 0.8818334 0.74891007 -0.23329516 -1.8143396 0.13238694 0.42632514 -0.56911373 -0.44848838 0.39782798 -0.28549248 0.7465652 -1.0151613 0.79280645 1.0150425 -0.4705504 -0.8143776 0.60144675 -0.62511766 -0.8620618 -0.33394584 -0.32553202 -0.4683395 -0.10670539 -0.6332536 0.5899558 0.067636386 0.020430347 0.5892056 -1.0148833 -0.7663344 -0.5710435 -0.9690193 -0.34985882 -1.1375945 0.032846145 1.1258981 -0.29444566 0.8674014 0.040580843 0.15513161 0.8892042 0.1519891 -1.5425453 1.5116287 0.31750494 -1.2283443 -0.08268079 0.017698038 0.6853048 0.21749428 -0.4881553 0.8769186 0.27024522 0.40168196 -0.5219829 -0.28728718 -1.4684206 -0.34189627 1.234841 -0.32932425 0.8253338 -1.0400352 -0.04113723 -1.2516885 0.5262807 -0.5483476 0.63074446 0.22169432 -0.114459395 -0.7811963 1.5834085 -0.8253528 -0.19958042 -0.7805916 0.122117236 -0.40335733 -0.49467582 -0.54711914 0.8827654 -0.23809901 -1.505399 -0.507384 -0.83200616 0.89132226 -0.25964797 -1.3707641 -1.3373953 -0.7287356 -0.5747112 0.18330519 0.5751605 -0.2679065 0.015082826 0.11967752 0.0017063975 -0.29217762 0.34176478 0.24785109 0.20510228 -1.0921428 0.11236155 0.7485639 1.4320017 1.5857954 6.0382485e-05 0.2138474 -0.7516387 0.7824793 0.46222216 0.27198187 1.1225998 -1.4144094 0.38050002 -0.90117425 1.6130596 0.39784637 -0.10894056 0.7702215 0.18735561 0.17315874 -1.2970445 0.10098324 -0.45584807 -0.5507581 -1.2954094 0.2566374 -1.406872 0.6965635 -0.8474425 0.35886618 -0.870961 0.6420699 -0.40062326 -1.5658209 -0.7726491 -1.474665 -0.29828566 -0.016557759 0.49149337 0.24971382 -0.16134799 -0.38876477 0.69551754 0.65112925 -0.100380324 0.6629621 0.882269 0.7374714 -0.8782729 -0.78283453 -1.2099086 -0.90140975 -0.26026976 -0.9442854 0.6084097 0.5100028 -0.76855457 -0.9706629 1.3381188 0.3996288 -0.4430217 0.33356515 -0.3609818 -0.8420588 0.21886644 -0.6110441 -0.79964125 -0.6232466 0.34910446 -0.918295 -0.107776955 -0.6075868 0.62160313 -0.01860936 0.7848546 -0.12515482 -0.895479 -0.56383383 0.5029174 -0.0668076 -0.0844058 0.88750666 -0.7075582 -0.9142895 0.12317332 -0.39658707 0.25903562 0.5968536 -0.118819416 -0.5823754 0.668131 -0.27814418 -1.1419907 -0.5142372 0.828611 1.5687666 -0.30295214 -0.059791528 0.17608981 0.6326433 -0.27866676 0.2842959 -0.8181756 -0.23883967 -0.10982819 1.2057487 -1.091109 0.30547962 -0.9911661 -0.9918884 0.11560005 0.523923 0.05201428 1.2263939 -0.63959765 -0.72135127 0.11153982 -1.0055767 0.95881796 1.6006609 -0.35370177 -0.53464264 -1.909735 -0.010293847 -0.07607611 -0.6503724 -0.76712 0.63866556 -0.98343515 -0.6872903 -0.6089412 0.2193077 -0.403961 0.40314665 -0.34908098 -0.21178894 0.84288913 -0.04021574 0.24377617 0.4426527 -0.5888308 -0.4750692 -0.25141254 -0.5147644 -0.31856933 -0.75783956 0.45997143 -0.6819235 -0.13862726 -0.39688838 -0.49251842 -0.6523197 0.49022323 0.66057646 1.0681608 -0.10468676 -0.7735803 0.16448767 0.6485849 -0.4552154 0.32710326 -0.40995464 -0.4684837 0.26995438 -0.34831995 1.1255211 0.5891447 -1.4185169 -0.5822071 0.43804535 1.1094646 0.05621617 0.31309304 0.08354428 -0.08880145 -1.8347114 0.6632308 1.4162945 -0.42939204 0.8308153 -0.23280203 0.0128754955 -0.91169596 -0.09602765 0.2551927 0.5178458 0.41253757 0.06952626 -0.3793008 0.7283185 1.5442674 -0.068819605 -0.20968084 -0.18120416 0.4988156 0.75404835 -0.45948714 0.46436897 0.06165383 -0.64777267 -2.1641593 -0.71700275 0.45716769 -0.0010374219 -0.116993085 0.45451564 -0.5855949 -0.29901448 0.57645524 -0.113833025 -0.6460209 -0.07402623 -0.32070392 -0.49587432 -1.2184908 -1.3123891 0.9419193 -0.86402845 0.029809723 0.6964456 0.0070127724 -0.042380758 0.32151628 -0.24273054 -0.3678231 0.89260894 0.86973256 0.5646253 -0.3337134 0.10185727 0.15610008 1.2866571 0.10115874 1.169743 -0.6250147 0.5967989 0.79045635 0.7581002 -0.4815003 -0.17940879 0.003722918 -0.48506612 0.08698131 -0.79405344 0.8818649 0.6096314 -0.33774918 -0.8356062 0.025574107 0.2754195 -0.403929 -0.28894913 0.4851772 -1.1069005 0.047179542 1.3394685 -0.43026456 0.28878412 -0.35024294 -0.8964896 0.9617394 0.53286535 0.051508855 -0.2354639 -0.27404425 -0.32784304 -0.4935637 -0.739226 -0.6002444 0.64511526 0.49821997 1.5056744 0.85431796 -0.015388834 0.6220583 1.3511333 0.6143573 0.210008 -0.531073 0.4338622 -0.2557325 0.88237363 -0.3053565 -0.38716042 0.2267931 -0.90655184 -1.315079 -0.096154206 -0.43961605
SWD2_YEAST 0.16602086 -0.057527017 -0.10451891 -1.3210665 0.384259 -0.81836265 0.8307378 -1.1707014 0.009337906 -0.1291976 0.86888385 -0.6228895 0.33149937 -0.39443898 0.1090273 -0.5256528 0.7109707 -0.2639474 0.14265817 -1.4053727 -0.07566458 -0.8447986 -0.5052369 -0.07476058 -0.23553717 -1.1458266 -0.08828616 -0.017512957 -0.19661975 -0.34354794 0.31135496 0.8353203 1.2902135 -1.7729863 -0.80378765 -1.0686129 -0.37888202 0.11704137 -1.264613 0.47132066 0.6134184 0.56790274 -0.4461814 0.062443536 -0.6117563 -0.35723257 0.30265138 -0.11477963 -0.6472784 -0.89848727 0.7161355 -1.005708 0.91198736 -0.45837632 -0.78923637 -0.5773669 -1.0695039 1.0370015 0.13962324 0.12436562 0.23844163 -0.29733375 -0.08643276 0.39312807 0.13750875 1.0590681 0.36592886 -0.1955787 -0.15228043 -0.28806818 0.817322 -0.27627715 0.19642681 0.36028633 1.256786 -0.62980175 0.44774735 -0.24320436 -0.05950061 -0.62403136 -0.82202977 0.031420518 -0.7256133 -0.5666279 0.63540834 0.704335 0.5030256 0.12049174 -0.36649546 -0.7158126 -0.3460083 -0.9130514 -0.0911248 0.49912348 0.0013412684 -0.18807895 -0.2021002 0.96036786 0.3726941 -0.34193596 -0.6939644 -0.4739348 0.46751928 -0.92695284 0.4887197 -0.25754198 0.53814334 -0.0033842847 -0.967659 0.4165709 -0.14581276 1.1594396 -0.13014261 -0.08971422 -0.06925639 -0.13280763 0.19008489 0.14042003 0.035647795 -0.5453381 1.1551028 1.0371867 -0.78824466 1.205557 0.77108794 -0.33421323 -0.80497867 0.32033733 -0.71172434 -0.70436954 -0.4871981 0.56670076 0.023456514 0.55611295 -1.2183408 0.7457889 1.1369528 -0.43512437 -0.72720265 0.20870511 0.542966 -0.86691666 0.05828977 0.46927905 -1.0163323 0.24501793 -0.5891965 0.5460615 -0.34281254 -0.13067159 0.3892907 -0.819328 -0.41945508 -0.06347582 -0.47863853 -0.29565758 -0.68997496 -0.21338268 0.82876307 0.80474854 0.88928145 -0.39937887 0.7583243 1.1139947 -0.28746614 -0.6323949 1.3577391 0.1571404 -1.1505277 -0.59472936 -1.2127924 1.2657684 -0.14097671 0.33879718 0.24518108 0.50065696 0.4269165 0.12904212 -0.61008066 -0.60429853 -0.25854632 0.18415046 -0.64712685 0.70116657 -0.89062315 0.22516565 -0.9743938 0.18806227 -0.44187304 0.016633308 -1.0178277 -0.59080726 -0.31693628 1.0190768 0.3541722 0.12921979 -0.17147906 0.4205393 -0.41606405 -0.213486 -0.079460315 1.1619891 -0.2399349 -0.14418124 -0.7205469 -0.82664126 0.8780408 -0.64792496 -1.2875861 -0.35725072 -0.6019533 -0.5915684 0.2118442 0.22273584 0.10627884 -0.21966082 0.004281185 -0.39880145 -0.66188276 -0.20813335 0.34112433 0.35174504 -1.3686119 -0.03395543 0.42304412 1.0108376 0.9830761 0.07337061 0.680559 0.27815762 0.20301056 0.7555637 0.5800783 0.28863403 -0.7626702 0.1471762 -0.5625226 1.3723663 0.44735 -0.25080904 0.58023876 0.44108573 -0.43098342 -0.90298206 0.24299805 -0.06816069 -0.50968903 -1.4680986 0.43487835 -0.82887167 0.31184587 -1.1140579 0.6433889 -0.17103158 1.3436713 -0.6991725 -1.3479605 -1.0649072 -0.9351363 -0.51176405 -0.10866674 0.7084181 0.51405036 -0.17962544 -0.46078953 -0.2598653 0.16103613 0.090714425 0.83438355 -0.1651377 0.34282723 -0.9703586 0.02156358 -1.3482565 -0.41639033 -0.096413486 -0.019337872 0.23439662 0.5024983 -0.01096316 0.015877942 0.38674843 0.13957936 -0.72070724 -0.27495512 -0.26129106 -0.65741795 0.055942256 -0.6595372 -1.186622 -0.56935745 0.44393358 -0.36428618 -0.16192022 -0.10268605 0.6904853 -0.3637977 1.1629158 -0.082471244 -0.72935075 0.2545697 -0.067551054 0.054037485 0.27950796 -0.15659595 -0.47349784 -0.78519845 -0.16590743 -0.6650203 -0.13637853 -0.28272125 0.39651346 -0.88341886 0.10441048 -0.0979807 -1.2945297 0.0033612885 0.4643824 0.8583152 0.455204 0.30099314 -0.710679 -0.3812655 -0.74341494 -0.07217239 -0.35347557 0.31985417 -0.22036137 1.4439944 -0.51099944 0.16011871 -0.67941874 -1.7390703 0.35393998 0.43213937 -0.09655408 0.9659378 -0.6172607 -0.50901145 0.3749118 0.12825347 0.04494674 0.6940403 -0.36097446 -0.82589275 -0.5832234 0.59244126 0.50168175 -0.60652846 -0.29638997 0.49923018 -0.5471658 0.29351744 -0.39128053 0.10607798 -0.029931687 0.6337505 -0.12056594 -0.33194128 1.387291 -0.30193964 0.1707424 0.73391867 -0.23195885 -0.30627635 -0.22837971 -1.2203391 -1.6957893 -1.0995601 0.44158363 -0.9750407 0.24233954 -0.5893209 -0.43069646 -0.80991143 0.61153966 0.6662323 0.88186496 -0.11100768 -0.5026517 0.47519556 0.42489377 0.3301182 0.5127558 -0.108341634 0.03476525 0.20659697 -0.10953578 1.1455032 -0.4977076 -1.182645 -0.46222326 0.44248572 0.3067242 -0.12352098 0.30164424 -0.17583199 0.617263 -0.9720385 0.26030514 0.8040781 -0.33188736 -0.2743592 0.31602597 0.5972414 -0.8749412 0.14801571 0.28875268 0.9266965 -0.90679663 -0.07135611 0.64985466 0.017633641 1.0381802 -0.41359863 0.20624036 0.028977588 -0.700619 0.08930424 -0.4457966 0.26641876 0.3424538 -0.054992657 -1.0135795 -0.4708573 0.99832743 0.4556055 1.3300627 0.046525765 -0.64599377 -0.48597118 0.7958362 -0.2717922 -0.0057927743 -0.63759804 -0.08908325 -0.13624121 -0.667176 -0.7955131 0.9512205 0.03984851 -0.45571914 0.50275886 -0.4608146 -0.003416635 -0.24780202 0.34024212 -0.69926006 0.3872275 0.75306386 -0.19292182 -0.92625326 0.17504533 -0.41005397 0.47441876 0.6659649 1.089229 0.04606865 0.3161848 0.21621513 0.13651596 -0.91694206 0.22235267 -1.0170895 0.2027347 -0.61524206 -0.49090362 0.95554143 0.6398432 0.2924486 -0.48318312 -0.07077613 -0.036904182 -0.022419373 -0.34447977 0.3195602 -1.7022839 -0.37554112 1.0918263 -0.46022692 -0.3275955 -0.15514754 -0.72393054 1.0246931 1.0072573 -0.47265974 -0.71163553 -0.27116075 -0.2832788 -0.43264136 -0.91120106 -0.31482485 0.28316468 -0.067633934 1.3416778 0.20369267 0.7794035 1.3543414 1.4156076 -0.041769635 0.28173378 -0.0056918836 0.07194689 -0.41313303 0.45285663 0.19229777 -0.1935107 0.8587079 -0.8921151 -0.4192082 0.06161348 -1.0818466 0.5095046 0.15134038 -0.09058415 -0.95084256 0.20087595 -0.21776557 0.6661293 -1.8049167 -0.069440395 0.5023256 1.0018795 -0.8219459 0.9625165 0.06815541 -0.53193706 0.4201908 0.78009874 -0.9548324 0.9092419 -0.9408116 0.24999666 -1.2086235 -0.52421314 -0.5696415 -0.6783173 -0.6716936 -0.042893257 0.8331385 -0.07479162 -1.1317312 0.65655327 0.90133923 1.298857 -1.1456046 -0.57463336 -0.6286753 -0.32317185 -0.09604672 -0.65180075 0.6242857 0.045104135 0.37028587 -1.3464509 0.105819486 -1.575087 0.19304107 0.8215372 -0.83913016 -0.23119527 -0.592025 1.2355005 -0.61228997 0.54985094 0.60421836 -1.2700645 -1.1847655 -0.46584678 0.009690404 -0.04431909 0.9022579 0.35799924 -0.5673247 0.36293814 0.20673555 0.44925782 0.84682065 0.29765865 -0.84708166 0.2759546 -1.0898877 0.9408514 -0.7174039 0.9400892 -0.5557849 0.87103873 -0.97042733 0.77228236 -0.7757916 0.0848744 -0.7391457 -1.110862 0.34793544 -0.38117543 -0.9268689 -0.42479023 0.14099039 1.350058 1.3832957 -0.27736068 -0.4302973 -0.7094507 -0.9331208 0.42540196 0.9068087 0.41970924 -0.21126992 0.28771412 0.75324506 0.0055507445 -0.9708113 -0.41548777 -0.6908613 -0.2210408 -1.1637834 0.49420682 -0.0721542 0.88452935 -0.1654358 -0.13038355 0.94052 -0.6797264 0.048881542 0.20238943 -0.1887665 -0.10288248 0.7873238 -0.20961666 -0.16090776 -0.49755892 -0.26094493 0.6426977 1.0915831 -0.5525642 0.93678933 0.7605564 -0.23481278 -1.8045837 0.10662653 0.41821185 -0.57146305 -0.44356593 0.40466526 -0.2536162 0.7304454 -1.0154215 0.78893894 0.988554 -0.47971272 -0.83925366 0.6200773 -0.6593986 -0.82671875 -0.3426343 -0.3031073 -0.45536432 -0.101168744 -0.6315756 0.57471913 0.037886277 -0.0016656965 0.57175773 -1.0352691 -0.77258056 -0.57027566 -1.0216129 -0.31367058 -1.1671314 0.05411834 1.1421319 -0.28771475 0.87410766 -0.0001855592 0.15506022 0.9043881 0.15578008 -1.5474216 1.538088 0.33989787 -1.2550167 -0.10091022 0.0064320415 0.69901794 0.19398665 -0.4941018 0.8791072 0.3352944 0.3879653 -0.5139062 -0.29163828 -1.4985667 -0.34731284 1.238263 -0.33243284 0.8808219 -1.0401448 -0.047737043 -1.2820464 0.5518759 -0.5205321 0.6379623 0.21666126 -0.10555899 -0.7772479 1.5676608 -0.84058136 -0.23736276 -0.7860722 0.12357689 -0.40406236 -0.5169073 -0.5644968 0.900346 -0.19551629 -1.5696465 -0.5332853 -0.8562267 0.8980506 -0.285363 -1.3677429 -1.313511 -0.73477393 -0.5819046 0.1688959 0.52922755 -0.26885313 0.009763204 0.12723848 0.0046756864 -0.31568992 0.35134247 0.23136896 0.19401439 -1.1001047 0.13283014 0.7825377 1.4404563 1.6046804 -0.0225828 0.22064786 -0.7609434 0.7966018 0.47148415 0.26631877 1.1146222 -1.414957 0.3702354 -0.90670633 1.6305342 0.41373494 -0.121331215 0.74557734 0.16633703 0.20654434 -1.3153828 0.09624026 -0.4846913 -0.5571794 -1.3194548 0.24147026 -1.4178249 0.67802685 -0.81687903 0.3397895 -0.88166004 0.6680631 -0.41721272 -1.5769717 -0.787487 -1.508134 -0.3240708 -0.025685221 0.48526478 0.27691266 -0.16720273 -0.38660267 0.7438124 0.6481822 -0.10253268 0.64385647 0.90309244 0.72913104 -0.90466833 -0.7795322 -1.2191582 -0.9172638 -0.27014947 -0.90968245 0.5835559 0.4732223 -0.7642629 -0.95996785 1.3539671 0.40680584 -0.44159546 0.36397418 -0.38155708 -0.803376 0.23412766 -0.60574734 -0.7994034 -0.633298 0.35001072 -0.9175322 -0.083424956 -0.5700946 0.61334234 -0.034776233 0.8185651 -0.1382768 -0.93277574 -0.5510079 0.50107086 -0.07221936 -0.06470846 0.8769962 -0.6733491 -0.9239381 0.13609566 -0.3778508 0.24967591 0.5752427 -0.101698965 -0.6012862 0.68147516 -0.29817656 -1.1335064 -0.49660406 0.8418622 1.5709618 -0.34278843 -0.04111301 0.18966441 0.61608285 -0.27941036 0.2928088 -0.8269878 -0.20717335 -0.12517035 1.2201403 -1.0982217 0.2946839 -1.0239376 -0.99475193 0.16185772 0.5426035 0.056391317 1.2414584 -0.5922342 -0.7470365 0.11869421 -0.9915428 1.0068679 1.5930114 -0.3567092 -0.5325131 -1.8929287 0.009381083 -0.022935048 -0.6556991 -0.75954694 0.67245585 -1.0224677 -0.7417536 -0.6168975 0.23455888 -0.43633866 0.40220842 -0.342531 -0.19075136 0.8636837 -0.03240871 0.29668447 0.42557606 -0.57175577 -0.4928867 -0.243626 -0.5091824 -0.32558417 -0.7635186 0.49504948 -0.6866153 -0.13139397 -0.3985149 -0.51409036 -0.62821597 0.50491846 0.691189 1.0691863 -0.09909365 -0.79852265 0.16638477 0.6465358 -0.44622514 0.35259295 -0.4066694 -0.48540667 0.25112322 -0.36753407 1.1360608 0.6019397 -1.4713966 -0.55860907 0.45228362 1.0973177 0.042307884 0.3118113 0.078730896 -0.12108377 -1.8237352 0.6741648 1.4273419 -0.4421997 0.82405216 -0.21106105 0.033354018 -0.91366893 -0.10596218 0.292727 0.50247365 0.39697662 0.050706964 -0.3522819 0.7084066 1.5502707 -0.062361192 -0.22835386 -0.15628532 0.4855003 0.7551403 -0.47727275 0.49087706 0.08099037 -0.67115444 -2.1486197 -0.71685076 0.47366384 -0.008181636 -0.11844864 0.44114688 -0.6075352 -0.27691826 0.5713358 -0.13770884 -0.6604958 -0.09608064 -0.33312166 -0.4875969 -1.2064202 -1.3478117 0.94027233 -0.868288 0.025072172 0.6817091 -0.0037178844 -0.06976499 0.27961472 -0.249837 -0.3682406 0.9235668 0.87276006 0.61141485 -0.34904847 0.116591685 0.13756414 1.2910566 0.1046473 1.1759602 -0.6356228 0.5971828 0.7980118 0.77471805 -0.4447228 -0.20608437 -0.03518322 -0.4939703 0.099509634 -0.80888194 0.9005432 0.6355414 -0.34834644 -0.82154447 0.022096617 0.2888336 -0.3933266 -0.28858456 0.46553424 -1.1045319 0.08426716 1.324586 -0.4897914 0.2751769 -0.3734753 -0.9483046 0.94845295 0.5508426 0.05355523 -0.24291967 -0.26960716 -0.33421728 -0.5308804 -0.74519634 -0.5736994 0.67523736 0.46678066 1.4984442 0.8894046 0.009659201 0.6194848 1.3561164 0.6071684 0.24021642 -0.54035205 0.44226763 -0.2627407 0.8991415 -0.3068187 -0.35173944 0.23000856 -0.89575404 -1.3060584 -0.09815231 -0.43087348
KIP1_YEAST 0.16171892 -0.06543786 -0.12890556 -1.3389851 0.3870873 -0.85596216 0.8420798 -1.1988916 0.040371425 -0.12978439 0.8708444 -0.6444907 0.33202177 -0.4079712 0.117281064 -0.53361243 0.71192366 -0.25021484 0.12800501 -1.4283613 -0.10568089 -0.85015047 -0.50453717 -0.066238455 -0.2371042 -1.1625888 -0.0828043 -0.034749947 -0.20352185 -0.35105914 0.31882575 0.83146304 1.3056599 -1.8108007 -0.8263002 -1.0747721 -0.39052024 0.10445488 -1.3102232 0.47201437 0.63345635 0.56123924 -0.4677444 0.062745534 -0.60581857 -0.35817495 0.29491448 -0.1119826 -0.66663057 -0.9305578 0.71155614 -1.0248181 0.9385496 -0.48084053 -0.79450905 -0.5746487 -1.088987 1.0495564 0.1462215 0.118271194 0.25212964 -0.26735157 -0.07189275 0.391994 0.12324834 1.078425 0.36935645 -0.21353786 -0.15499492 -0.27812323 0.8325969 -0.25935355 0.19236986 0.3806681 1.2856547 -0.6367198 0.4438038 -0.2456197 -0.08434116 -0.62168425 -0.8087724 0.042659592 -0.7533146 -0.56242657 0.6381898 0.72137696 0.5160968 0.13259718 -0.36543375 -0.7364106 -0.33713132 -0.9188572 -0.11717887 0.5101318 -0.0032210776 -0.22017439 -0.22178666 0.96221066 0.39832973 -0.31409162 -0.69821346 -0.4768498 0.4581903 -0.9623181 0.4901907 -0.28430676 0.54732275 0.0033281383 -0.97667104 0.40855148 -0.14318898 1.1618849 -0.13037571 -0.10852269 -0.08942392 -0.15244201 0.21593669 0.14810573 0.059845563 -0.55781895 1.1715404 1.0270412 -0.7840163 1.2407873 0.77985054 -0.32011333 -0.8189336 0.34161672 -0.7043429 -0.7167388 -0.48845086 0.5818001 0.03190271 0.5793637 -1.2442062 0.7364561 1.1571785 -0.4516 -0.7300334 0.21186094 0.5583952 -0.8813973 0.056053128 0.47546774 -1.0387945 0.26339442 -0.6108461 0.57597333 -0.349832 -0.13254876 0.40469137 -0.8253028 -0.41833478 -0.07551716 -0.49524516 -0.2919278 -0.71251804 -0.23065767 0.8369518 0.8292302 0.9070465 -0.42741385 0.7578184 1.1394426 -0.30661795 -0.63802385 1.3905189 0.16157198 -1.1663252 -0.6033346 -1.2282536 1.2789404 -0.1612458 0.33588162 0.23943816 0.5084862 0.44936863 0.13515292 -0.6337291 -0.6189802 -0.24592212 0.16052222 -0.6648386 0.7285679 -0.89795834 0.21981058 -0.9728686 0.16814446 -0.4592603 -0.006260708 -1.0400267 -0.58385354 -0.3206578 1.0249162 0.38317522 0.14264786 -0.15052852 0.42620784 -0.4003735 -0.1922369 -0.10484449 1.1746198 -0.25502068 -0.11772762 -0.7187076 -0.8584333 0.9148006 -0.66759914 -1.2990683 -0.36261138 -0.6269568 -0.6090003 0.24687198 0.21883869 0.10744764 -0.21589197 0.009108944 -0.40524617 -0.6781646 -0.20622118 0.34901157 0.36767158 -1.3983028 -0.015835008 0.42066947 1.0164002 1.006436 0.074278764 0.7047238 0.3110871 0.19620644 0.7549559 0.58461535 0.29808387 -0.7726956 0.1589303 -0.560495 1.3811501 0.45374933 -0.25627157 0.58046216 0.44176075 -0.43422008 -0.9155486 0.23958978 -0.06769668 -0.54680586 -1.4875171 0.4413914 -0.8329553 0.32709143 -1.1404179 0.6683939 -0.15884398 1.3623297 -0.7239489 -1.3771245 -1.084252 -0.9547987 -0.53749925 -0.105340905 0.7213718 0.5059618 -0.17498925 -0.45946366 -0.27654666 0.16591856 0.09779787 0.861049 -0.18752007 0.36550358 -1.0248 0.04111312 -1.3636397 -0.42854658 -0.10695766 -0.011205835 0.25070342 0.51512945 -0.0135742435 0.012881532 0.38565126 0.15073164 -0.7192731 -0.30057907 -0.26114157 -0.66229945 0.03725627 -0.6745044 -1.1890057 -0.58553296 0.42681822 -0.35324913 -0.1628597 -0.103401594 0.7218532 -0.36169982 1.1848043 -0.07523342 -0.7410081 0.26315197 -0.08242102 0.057851434 0.27913955 -0.16962835 -0.4743952 -0.81550586 -0.1765792 -0.6596425 -0.15184376 -0.2701313 0.39786652 -0.9102619 0.10280967 -0.0872301 -1.302947 0.016039876 0.44712016 0.8672156 0.46082264 0.2873821 -0.7138688 -0.37704286 -0.74819183 -0.07662415 -0.3676354 0.32530853 -0.22593307 1.4686711 -0.52950126 0.15723217 -0.6915941 -1.8048896 0.35782102 0.45057502 -0.09541225 0.9950989 -0.6136843 -0.5113173 0.36548296 0.124569416 0.035410352 0.68820477 -0.37648672 -0.8480528 -0.59346044 0.59554225 0.5056995 -0.6161029 -0.3107169 0.51044244 -0.5603819 0.30730495 -0.36552238 0.12917744 -0.0374356 0.63762647 -0.101434544 -0.33091503 1.4442235 -0.3086842 0.1544467 0.74189717 -0.21778376 -0.30416209 -0.24560738 -1.2488042 -1.7391886 -1.1288111 0.45182726 -1.0063684 0.24623995 -0.62079567 -0.4416911 -0.82499135 0.6294803 0.6497621 0.8812898 -0.12334048 -0.49329478 0.49905282 0.41453168 0.3405119 0.5296642 -0.12198528 0.03599791 0.20818809 -0.10955417 1.1391757 -0.5167279 -1.1893841 -0.47095624 0.45042726 0.29096016 -0.10199503 0.29166666 -0.1875986 0.6326326 -0.9706154 0.27725595 0.8076348 -0.35145435 -0.29970875 0.32081604 0.60496825 -0.8953595 0.154234 0.28923327 0.9540887 -0.96042 -0.08791745 0.67148715 0.023186764 1.0531532 -0.42922968 0.19889867 0.039320555 -0.69263655 0.0839891 -0.46602517 0.2896273 0.3396649 -0.03723336 -1.0281354 -0.4906251 1.0082896 0.45739803 1.3541266 0.031413328 -0.6514357 -0.49811697 0.8139636 -0.2886723 -0.016333878 -0.6407079 -0.06649532 -0.14113869 -0.6684862 -0.8199089 0.95177954 0.01868871 -0.46372315 0.5057115 -0.44925207 0.031757653 -0.24200572 0.34263664 -0.71420246 0.37303403 0.75800544 -0.16433834 -0.95585495 0.19202454 -0.4100875 0.45244178 0.69754136 1.1050066 0.046640564 0.30970955 0.21377924 0.14916708 -0.94181764 0.23642395 -1.0508372 0.21275714 -0.64554167 -0.4939038 0.9491062 0.6646804 0.3152885 -0.4766581 -0.079919174 -0.04417324 -0.042602714 -0.32778206 0.32340568 -1.7431619 -0.38624457 1.1038435 -0.46507284 -0.3588586 -0.16567506 -0.7486387 1.003291 1.0391228 -0.47321028 -0.72715235 -0.26139024 -0.26699343 -0.43438837 -0.9382607 -0.30855224 0.292421 -0.082006395 1.3648769 0.21986254 0.76883507 1.3856714 1.425802 -0.05066794 0.26261142 -0.019982208 0.05455688 -0.4295633 0.44932175 0.20401263 -0.18164611 0.8661734 -0.8954678 -0.4333604 0.06894586 -1.1213875 0.4831249 0.11887367 -0.08234552 -0.9460478 0.19968571 -0.23297988 0.66616696 -1.8231062 -0.044253033 0.5126761 0.98681766 -0.82674515 0.98038965 0.08365824 -0.52656364 0.38570783 0.7731345 -0.98057854 0.9020677 -0.92529976 0.25153315 -1.2297641 -0.52495974 -0.56290406 -0.6813272 -0.6415092 -0.09200941 0.8346651 -0.065178104 -1.1455745 0.64239085 0.8847505 1.2816266 -1.1245394 -0.5880844 -0.62480205 -0.3134513 -0.10210351 -0.66102844 0.6136552 0.053225186 0.3775923 -1.3265755 0.12302945 -1.6053393 0.21463118 0.8106775 -0.8787352 -0.24646744 -0.6054698 1.2701477 -0.5938867 0.55380505 0.6048831 -1.2564611 -1.1910199 -0.45106202 0.044616096 -0.041489206 0.90220994 0.3715624 -0.5576554 0.36201647 0.20429148 0.4595835 0.8495469 0.29786327 -0.85674506 0.26945332 -1.0879856 0.95557606 -0.7206546 0.9463659 -0.5524403 0.88895434 -0.9883953 0.7720324 -0.7841989 0.08763659 -0.7267977 -1.1013525 0.34812802 -0.3943536 -0.910819 -0.44523218 0.14671806 1.3628105 1.3957452 -0.26776364 -0.4007118 -0.71883196 -0.93036145 0.42534313 0.9030574 0.42045158 -0.22776923 0.25137192 0.75761217 -0.004516757 -0.9686233 -0.418263 -0.69732827 -0.20559292 -1.1796772 0.49153703 -0.07845759 0.8744038 -0.1533234 -0.12880264 0.9343099 -0.67410916 0.037603457 0.2001076 -0.18072303 -0.123283274 0.76629555 -0.2208421 -0.1590371 -0.5141708 -0.26787636 0.6407053 1.0753815 -0.54170215 0.968431 0.7827846 -0.20487091 -1.831979 0.10595281 0.41784173 -0.5823908 -0.41078165 0.39686367 -0.24774885 0.7542605 -1.0110232 0.7954069 1.0193795 -0.49163625 -0.83705914 0.6410993 -0.67659044 -0.83867174 -0.3294147 -0.31961283 -0.46809098 -0.07541163 -0.6285716 0.58545965 0.04655159 0.020397233 0.56904477 -1.0331557 -0.7967463 -0.5832901 -1.0335089 -0.29444414 -1.201751 0.05628675 1.1657922 -0.26601738 0.85341704 -0.022049721 0.13667804 0.91744894 0.15960415 -1.557739 1.5227348 0.34278014 -1.2720708 -0.08859064 0.0076051396 0.7036003 0.2010506 -0.5209042 0.8857213 0.36185303 0.40856418 -0.50086653 -0.3222554 -1.5040627 -0.32618386 1.243862 -0.33843675 0.90474004 -1.0639917 -0.029018356 -1.2818309 0.5467971 -0.5195993 0.65033823 0.23292771 -0.10821689 -0.76464874 1.5589043 -0.8583444 -0.2326348 -0.7867514 0.14161836 -0.40631938 -0.5211452 -0.58025944 0.9014717 -0.20053278 -1.5685635 -0.5422645 -0.8708142 0.9155202 -0.30911535 -1.4080031 -1.2946948 -0.75549644 -0.5832912 0.18431893 0.5383108 -0.2690041 -0.003404662 0.12126355 -0.042378724 -0.31643486 0.33822465 0.23430856 0.18611778 -1.1268448 0.15121607 0.8017184 1.4292101 1.61564 -0.043420274 0.20765208 -0.7894112 0.8152782 0.46697307 0.29024595 1.1243017 -1.3992754 0.37991858 -0.894238 1.6317562 0.40208134 -0.09911158 0.73228794 0.16364254 0.21300817 -1.3101132 0.12073631 -0.5046115 -0.5740261 -1.3503253 0.2521146 -1.4565983 0.67821854 -0.83013046 0.3282075 -0.88425815 0.6592657 -0.40625054 -1.6260649 -0.7962723 -1.5242552 -0.33030853 -0.0601391 0.4757124 0.25039244 -0.16285263 -0.36698914 0.7712306 0.6314817 -0.09112777 0.63400704 0.87959725 0.7191034 -0.93404144 -0.7813568 -1.2257326 -0.9284744 -0.264046 -0.90187395 0.5995888 0.47624367 -0.793114 -0.9234708 1.3887541 0.38793182 -0.4554229 0.36451736 -0.39731058 -0.7975 0.19728361 -0.6174644 -0.8211026 -0.65411896 0.38699552 -0.9054812 -0.06270531 -0.5637227 0.65509355 -0.048666485 0.80511665 -0.14295103 -0.9565352 -0.5539029 0.532604 -0.10297709 -0.054568402 0.85463774 -0.6801794 -0.9380301 0.15929894 -0.3590188 0.29943666 0.60386384 -0.11902845 -0.5952445 0.64134073 -0.28242978 -1.1252145 -0.48559186 0.84438324 1.5953854 -0.39388654 -0.020255292 0.2019685 0.64381534 -0.27532908 0.29067063 -0.85476726 -0.18208443 -0.15855727 1.2158196 -1.1221925 0.2978476 -1.0399221 -1.0275524 0.18296523 0.5548063 0.09208618 1.2384344 -0.5909797 -0.7551426 0.14310782 -0.98634326 1.0528681 1.6072171 -0.34632874 -0.5327558 -1.8832266 -0.005815395 -0.009354136 -0.6508027 -0.7630471 0.67757195 -1.0582427 -0.7626013 -0.64846164 0.23997235 -0.44534948 0.39414787 -0.34853673 -0.18303703 0.89062065 -0.023150938 0.30001992 0.4246812 -0.5746341 -0.5061417 -0.2308024 -0.5264166 -0.33248788 -0.79116696 0.49004254 -0.6871246 -0.098750465 -0.3876 -0.51106864 -0.6036822 0.52719134 0.66635007 1.0519989 -0.081280746 -0.78637683 0.171304 0.65606755 -0.42730573 0.37793702 -0.38415304 -0.49427313 0.24092391 -0.4010416 1.1325177 0.60472566 -1.4885923 -0.54451674 0.45518064 1.1085284 0.020361552 0.29191974 0.08311379 -0.12664673 -1.8466737 0.6779436 1.4315395 -0.4503065 0.80750334 -0.20882204 0.035194885 -0.96103525 -0.110154785 0.31427148 0.5069571 0.409736 0.039419975 -0.3593176 0.70554817 1.5404761 -0.0666862 -0.22082864 -0.15271732 0.5008684 0.75072366 -0.4725245 0.4952856 0.07954014 -0.6679403 -2.1389635 -0.72664577 0.44958338 -0.0018066211 -0.112716 0.4307275 -0.6287244 -0.2704373 0.58938664 -0.1822099 -0.69613034 -0.109249696 -0.34074655 -0.47068596 -1.2141172 -1.3569533 0.9620244 -0.89569056 0.04755151 0.6651184 -0.017753363 -0.07559017 0.28669223 -0.2714612 -0.3623609 0.9340526 0.8606776 0.6251993 -0.36524102 0.114380404 0.15924393 1.2970072 0.11618406 1.1775562 -0.6414542 0.61602974 0.81544924 0.80980736 -0.45452556 -0.22786233 -0.034112968 -0.50872695 0.07476669 -0.8060889 0.93554395 0.63850784 -0.34690604 -0.80485576 0.019739762 0.29075986 -0.3942574 -0.29856697 0.4740157 -1.1223663 0.07310576 1.3321799 -0.5189671 0.27372435 -0.39113227 -0.9730147 0.93791735 0.5599827 0.050413843 -0.24048123 -0.23754226 -0.34329543 -0.5474157 -0.74086076 -0.57741314 0.6859983 0.45954582 1.5158856 0.90740216 0.014260219 0.6221801 1.3762606 0.598085 0.22057118 -0.5249111 0.40954947 -0.25259802 0.9205923 -0.29589686 -0.3334368 0.2280833 -0.9045888 -1.3334488 -0.079027854 -0.42699435
SPO13_YEAST 0.16964303 -0.067784995 -0.15298629 -1.3532137 0.39337668 -0.8732476 0.8384365 -1.2229785 0.06991714 -0.13001765 0.8668878 -0.6602985 0.33499238 -0.41691586 0.13025622 -0.53244716 0.7079467 -0.23447856 0.12650633 -1.4599209 -0.13384996 -0.8601324 -0.51360655 -0.059269585 -0.2423801 -1.1807147 -0.07074792 -0.062048987 -0.2096907 -0.3554704 0.32545614 0.82387465 1.3147281 -1.8543285 -0.84619707 -1.0895267 -0.39401639 0.08379538 -1.3483918 0.47567993 0.65041506 0.5575664 -0.4911248 0.06126305 -0.6028586 -0.3498146 0.28705186 -0.10435491 -0.6815566 -0.94666725 0.7063228 -1.0308924 0.9585579 -0.5008502 -0.80146223 -0.55458045 -1.1016386 1.0617316 0.13424973 0.112899475 0.2608803 -0.25097242 -0.07119634 0.38016826 0.099531114 1.0913119 0.36043653 -0.23188764 -0.15777989 -0.26820815 0.83213353 -0.25212842 0.194401 0.39274547 1.3026693 -0.6413879 0.45045984 -0.24156125 -0.10414716 -0.6261176 -0.8006621 0.02701937 -0.77652943 -0.5554322 0.63946366 0.7378669 0.51715183 0.1410034 -0.37391207 -0.7582812 -0.33516133 -0.9241352 -0.1295172 0.52034646 -0.012711828 -0.22861916 -0.23430444 0.97425777 0.39953154 -0.2978571 -0.72048086 -0.47543234 0.45053786 -0.9922209 0.49526832 -0.30207327 0.5393084 0.012399001 -0.97860307 0.3985765 -0.12786192 1.1675247 -0.11081129 -0.120615855 -0.09766219 -0.1718427 0.23224303 0.15172556 0.08694421 -0.56400335 1.1912147 1.0323378 -0.7835132 1.2567779 0.78982365 -0.31809914 -0.8139024 0.34422225 -0.7117668 -0.730559 -0.49456382 0.59602386 0.037128694 0.5830747 -1.2620645 0.72981805 1.1626091 -0.46269903 -0.74516106 0.20694408 0.5805098 -0.89321405 0.05732647 0.4817453 -1.0572644 0.27458823 -0.6206775 0.5881792 -0.36816162 -0.13922863 0.4141749 -0.83263195 -0.41844958 -0.082181185 -0.500581 -0.2926412 -0.72098434 -0.24169269 0.8387548 0.8536577 0.9222186 -0.456552 0.7710802 1.1493256 -0.31417888 -0.6369766 1.4143052 0.16260754 -1.1951393 -0.6111727 -1.2557133 1.2977023 -0.17390949 0.32983565 0.23677199 0.52292967 0.4557004 0.14688186 -0.6439874 -0.6274845 -0.22393851 0.15052226 -0.67450345 0.7483368 -0.9080203 0.21441355 -0.9758584 0.14884925 -0.46771938 -0.023050977 -1.063532 -0.57734454 -0.3263662 1.0373683 0.40392855 0.15653202 -0.15770924 0.4290235 -0.40208158 -0.17651139 -0.107571624 1.1892722 -0.25995886 -0.09689321 -0.7251674 -0.87444323 0.9304612 -0.68437666 -1.3071973 -0.3705976 -0.64659256 -0.62512994 0.2662226 0.20186475 0.10811724 -0.21696138 0.019574475 -0.40606725 -0.70064133 -0.19379327 0.35813686 0.36843526 -1.4160907 -0.0060785953 0.42767933 1.0205562 1.0177823 0.08376509 0.73136556 0.3343916 0.19748124 0.7615897 0.5803545 0.29434425 -0.78676933 0.1605339 -0.5637612 1.383719 0.45206472 -0.26888496 0.58340317 0.44077003 -0.45928094 -0.93286407 0.22804776 -0.055955168 -0.57544154 -1.5015713 0.45935053 -0.8335321 0.33680296 -1.1603947 0.6722753 -0.1572301 1.3910425 -0.74758893 -1.3893365 -1.1044104 -0.95730895 -0.56334096 -0.11029896 0.74024373 0.52139324 -0.17234337 -0.45702326 -0.2969072 0.1706824 0.10957201 0.88052976 -0.18382965 0.3703775 -1.0702409 0.05788255 -1.3751498 -0.4390716 -0.10370605 0.0071068592 0.2653917 0.51527834 -0.015501969 0.0050741527 0.37819964 0.1604524 -0.7107112 -0.31181568 -0.26704326 -0.66181916 0.024902984 -0.6863137 -1.1979479 -0.5953196 0.4123843 -0.34917125 -0.15969452 -0.08691556 0.75338054 -0.3572133 1.2063712 -0.07431555 -0.74263716 0.27856266 -0.107439995 0.055094123 0.2789333 -0.17131501 -0.47364008 -0.84148693 -0.18492416 -0.6531214 -0.16530079 -0.27425066 0.4107551 -0.9206073 0.11688846 -0.07790941 -1.3082997 0.011946603 0.4425237 0.86831576 0.4653424 0.28189093 -0.712623 -0.37721428 -0.7556742 -0.08136674 -0.36472842 0.34708014 -0.2147052 1.495598 -0.53703094 0.14925884 -0.6879999 -1.8407334 0.35906947 0.47637302 -0.10431278 1.0121238 -0.61280847 -0.5087146 0.3539683 0.13585144 0.042841125 0.6964794 -0.3801514 -0.8595556 -0.5996987 0.60722095 0.5126442 -0.62028176 -0.3225601 0.52087843 -0.58161914 0.32237136 -0.34935015 0.13855258 -0.036214434 0.65366834 -0.074171655 -0.3190783 1.4762107 -0.31440488 0.15600906 0.75325423 -0.21411876 -0.30704495 -0.2716048 -1.2737844 -1.777077 -1.1512449 0.45946985 -1.0224155 0.2500093 -0.6476862 -0.4442629 -0.8406717 0.6309416 0.6516989 0.8795282 -0.12325936 -0.48077792 0.5193833 0.4089988 0.35336697 0.5528331 -0.13671553 0.030513516 0.21310121 -0.11460303 1.1361387 -0.5423113 -1.2142038 -0.48188457 0.4544503 0.2843991 -0.096880615 0.29220578 -0.1971658 0.64232016 -0.9618346 0.27584276 0.8067583 -0.36947274 -0.31912944 0.3245386 0.6189114 -0.91213727 0.15721086 0.28486255 0.98349386 -1.0125697 -0.10621502 0.6943607 0.007696921 1.0636511 -0.4384966 0.18890142 0.036050454 -0.6923544 0.07581023 -0.5069891 0.31212112 0.34094334 -0.027258066 -1.0495098 -0.501746 1.013456 0.45974153 1.3938849 0.020693269 -0.65792876 -0.51500416 0.85142267 -0.287956 -0.019768551 -0.65108454 -0.046168182 -0.14576128 -0.6544437 -0.838503 0.94871944 0.008664377 -0.46559623 0.5217191 -0.4507413 0.046006 -0.24227884 0.34684798 -0.74588627 0.37412873 0.7559147 -0.14476706 -0.982801 0.20814355 -0.4079185 0.43476093 0.7153114 1.1129348 0.04653641 0.2991634 0.20058763 0.14715761 -0.9405428 0.25500208 -1.0786774 0.22671881 -0.6492645 -0.5075721 0.9332873 0.6829048 0.31922227 -0.48158762 -0.08306511 -0.04126194 -0.04486317 -0.31998232 0.3268227 -1.7730509 -0.4030663 1.1307297 -0.4624391 -0.37363955 -0.17574555 -0.75859094 0.9939902 1.0563446 -0.469484 -0.75415355 -0.2614938 -0.2684617 -0.4356578 -0.9671048 -0.3023499 0.29523477 -0.08751823 1.3729892 0.23659545 0.77446735 1.4051077 1.4363791 -0.07055202 0.26458818 -0.043466825 0.05437515 -0.4511853 0.45345357 0.20816496 -0.17646566 0.86263305 -0.924066 -0.4367138 0.07070437 -1.1484005 0.48530382 0.117204726 -0.06856318 -0.9450682 0.19448987 -0.2480678 0.67746997 -1.8696405 -0.012314102 0.53493094 0.98103577 -0.8145966 1.0253628 0.08742158 -0.521613 0.39483827 0.77176106 -0.99057484 0.9313842 -0.9419588 0.23619802 -1.2484175 -0.52342 -0.5626248 -0.69929534 -0.6316054 -0.09527716 0.81216043 -0.04253592 -1.161129 0.6187396 0.86129814 1.2728959 -1.1284987 -0.61581826 -0.63537854 -0.30560935 -0.11096808 -0.6622511 0.6097049 0.05134934 0.38310736 -1.3409253 0.15816186 -1.6386012 0.22290672 0.80520797 -0.88188654 -0.2448087 -0.62212735 1.3147179 -0.60110795 0.543128 0.59511435 -1.2490824 -1.1882612 -0.42615217 0.048335314 -0.045132615 0.916053 0.39096415 -0.5734197 0.36270788 0.18564472 0.4559533 0.8457884 0.29553312 -0.8642527 0.2724091 -1.0666316 0.9620715 -0.7001924 0.968064 -0.57455957 0.8924409 -0.9971641 0.77606034 -0.81285715 0.10929485 -0.7427432 -1.1016352 0.33621675 -0.40976477 -0.90426767 -0.45790106 0.15109722 1.3735716 1.4323905 -0.28538835 -0.42112765 -0.7233803 -0.9264909 0.4282468 0.90558994 0.40631422 -0.21227176 0.2310727 0.7781328 -0.028969415 -0.9597689 -0.42895678 -0.7153194 -0.18983452 -1.1828526 0.50682974 -0.061884526 0.88289934 -0.1486086 -0.12668051 0.9193117 -0.668417 0.021178149 0.23302495 -0.20497078 -0.12561119 0.77558976 -0.24558018 -0.19310859 -0.5292128 -0.2707825 0.65335435 1.0721068 -0.5585332 1.0072658 0.79809666 -0.21512105 -1.8558774 0.09376645 0.41483364 -0.58326524 -0.38713703 0.39175272 -0.2439703 0.74977165 -0.994192 0.78613126 0.9979777 -0.518523 -0.8423418 0.649597 -0.70111525 -0.8470651 -0.35335824 -0.31582844 -0.45573056 -0.07243498 -0.64439344 0.57453215 0.051838014 0.018607412 0.5752166 -1.0764385 -0.8078407 -0.5831137 -1.0585076 -0.27211636 -1.2209942 0.032355685 1.1963619 -0.25221246 0.87313455 -0.04351555 0.12105934 0.9197376 0.18104866 -1.5786889 1.5539308 0.34428194 -1.3004773 -0.08710597 0.015122829 0.70114845 0.20749378 -0.5545984 0.90515625 0.3892852 0.41092438 -0.47752804 -0.32672265 -1.5523902 -0.3290217 1.250351 -0.33858132 0.94071066 -1.0868018 -0.026477206 -1.2928456 0.5713029 -0.5133647 0.674687 0.24630941 -0.09987018 -0.7773174 1.5588267 -0.8736439 -0.23243353 -0.8020779 0.15069771 -0.411676 -0.5362895 -0.57835364 0.91058254 -0.19750394 -1.5957992 -0.5527632 -0.8960459 0.91681236 -0.33115083 -1.4220407 -1.2945406 -0.7708899 -0.59885657 0.19594847 0.5299447 -0.27303177 -0.0125532225 0.12687431 -0.043815337 -0.32690907 0.35160807 0.23189482 0.16859186 -1.147116 0.1557756 0.8185401 1.436063 1.6220415 -0.06112466 0.21063115 -0.8241028 0.8407502 0.48927215 0.29301766 1.1252857 -1.4116061 0.3723802 -0.92540944 1.6443936 0.39455098 -0.107729815 0.7092601 0.1452542 0.218221 -1.3287766 0.11117498 -0.5266458 -0.5804579 -1.3684998 0.26962307 -1.4972783 0.68571097 -0.82593405 0.31126076 -0.9110664 0.65408194 -0.40855306 -1.6652478 -0.8061192 -1.5507597 -0.34697944 -0.07196982 0.4546637 0.252055 -0.15244657 -0.36636484 0.81084806 0.63320655 -0.08079477 0.6293799 0.8899884 0.72454715 -0.95533127 -0.78836906 -1.2153792 -0.96194804 -0.27655774 -0.9044959 0.6024749 0.4604361 -0.80264914 -0.90743667 1.4148765 0.40497142 -0.4427934 0.39359528 -0.40738618 -0.7990247 0.1901777 -0.64585334 -0.8486974 -0.6497504 0.39920992 -0.9159461 -0.049122643 -0.54235154 0.6703608 -0.056016825 0.80676895 -0.15986226 -0.9869114 -0.5566727 0.53815264 -0.13366266 -0.031000515 0.85363656 -0.66662306 -0.9501238 0.15467376 -0.32415897 0.31340542 0.5990472 -0.12655859 -0.583566 0.6460898 -0.2910264 -1.1408367 -0.4975378 0.8633785 1.6143936 -0.43451932 -0.020375282 0.2065408 0.67249143 -0.28330207 0.30511773 -0.888874 -0.16782606 -0.15006202 1.2140958 -1.1520164 0.2950901 -1.0522717 -1.0326539 0.18558645 0.59956586 0.07743658 1.2374194 -0.5713156 -0.76453555 0.13841467 -0.9846189 1.1199023 1.620523 -0.3314645 -0.49420497 -1.8974552 -0.018357223 0.001866607 -0.6352476 -0.7575767 0.6968314 -1.0890228 -0.8040209 -0.69209576 0.24075337 -0.45589083 0.40583336 -0.345494 -0.16773754 0.917892 -0.0030939402 0.31104323 0.41815963 -0.5842521 -0.5173638 -0.23162305 -0.515908 -0.31983525 -0.7921254 0.5071653 -0.67531943 -0.08034818 -0.39553177 -0.5146523 -0.57665235 0.5407219 0.6806006 1.055635 -0.07113023 -0.78058684 0.18316154 0.66325206 -0.41420957 0.39706528 -0.3889409 -0.52918226 0.23894107 -0.43779892 1.1344718 0.62531406 -1.540192 -0.53643864 0.470441 1.1216397 0.025579493 0.2929325 0.08926773 -0.1447714 -1.8504329 0.6930684 1.4401857 -0.46146035 0.80505747 -0.22364363 0.040715322 -1.000601 -0.11589673 0.3309621 0.5071692 0.4270304 0.016387243 -0.35982418 0.69408965 1.5565734 -0.06305604 -0.22290748 -0.15312661 0.5167001 0.7654114 -0.4955492 0.5169632 0.074943684 -0.6831054 -2.149723 -0.724558 0.4401639 -0.009798374 -0.13088661 0.41149777 -0.64351434 -0.260714 0.63514847 -0.19778034 -0.740676 -0.10441093 -0.34502465 -0.47988752 -1.2221099 -1.3798399 0.96799886 -0.92321694 0.06189502 0.66525376 -0.040016707 -0.095573515 0.28971487 -0.30270278 -0.36940634 0.97943866 0.84187746 0.6598448 -0.38386047 0.122798964 0.18465132 1.3097242 0.107305735 1.1753374 -0.68077886 0.6219 0.82366204 0.8160446 -0.43225408 -0.21979998 -0.022108901 -0.5246645 0.07656728 -0.82451576 0.9403873 0.6504286 -0.35974228 -0.82097006 0.01969563 0.27870744 -0.40262812 -0.293085 0.4699462 -1.1261564 0.085046545 1.3360283 -0.5450957 0.27406892 -0.40962374 -1.025275 0.92009753 0.5613056 0.038692933 -0.23606184 -0.23752314 -0.38230455 -0.56438655 -0.7495344 -0.57182246 0.70727706 0.4490028 1.5175188 0.9437464 0.026884656 0.6096575 1.3897592 0.6007174 0.22115336 -0.5378608 0.44467363 -0.2555165 0.92269963 -0.2842051 -0.32654193 0.21240993 -0.9154409 -1.3419635 -0.08143191 -0.43106216
