AMA1_YEAST 0.2313106 -0.1886091 -0.058339596 -1.2354665 0.4808539 -0.6054271 1.1303093 -1.0991986 0.048646815 -0.015469655 1.0513867 -0.7564592 0.5817741 -0.33790544 0.34293926 -0.49928448 0.798991 -0.38864583 0.44598085 -0.94569564 0.16805588 -0.74503565 -0.7590954 -0.11252394 -0.23608044 -0.8204845 -0.57433796 0.5265969 -0.3214211 -0.43963563 0.4866565 0.9741223 1.184223 -1.2432396 -0.730428 -0.77895015 -0.120385505 -0.22057489 -1.0197544 0.27063715 0.06409105 0.9075042 -0.678395 0.20645843 -0.7922259 -0.21496212 0.22143275 -0.1757833 -0.50550973 -0.6213284 0.91660684 -1.0504923 0.82442355 -0.14323968 -1.0434902 -0.81356615 -0.7669984 0.7410705 0.15003416 0.31966248 0.34021786 -0.48250988 -0.16543525 0.44912738 0.3073743 0.9026327 0.48481888 -0.52575755 0.14392574 -0.5696036 0.9839673 -0.42166102 0.21917495 0.2658843 1.2411902 -0.5953314 0.4578175 -0.29447937 0.032196924 -0.623024 -0.79645073 -0.11957626 -0.6227469 -0.8877163 0.47488266 0.24758866 0.8157597 0.31545818 -0.2695458 -0.51942116 -0.3847483 -0.9653837 -0.06951755 0.56033134 0.15958074 -0.06760918 -0.003442794 0.6678234 0.45468336 -0.578799 -0.6590371 -0.67053354 0.48337215 -0.87440693 0.3473369 0.02470079 0.6340984 -0.30416992 -0.8184533 0.59270173 -0.36782265 0.90593135 -0.5926678 0.22736956 -0.16805749 -0.19175455 -0.0026873797 0.16999102 -0.5029295 -0.26717514 0.9885619 1.1172516 -0.6248865 1.1170719 0.5629964 -0.3202935 -0.6079118 0.35076278 -0.61342424 -0.64175147 -0.20079821 0.27075914 0.0268524 0.5187522 -1.1256241 1.0007315 0.85326886 -0.20732836 -0.654035 0.23325977 0.32817125 -0.73953474 0.11902579 0.34191734 -1.0010171 0.16750951 -0.2774065 0.6080063 -0.35296875 -0.011198387 0.15367372 -0.7441473 -0.8540938 0.039525032 -0.5269127 -0.4252402 -0.7587612 0.27376223 0.9496896 0.4275694 0.48997775 -0.33771297 0.4677486 0.7478385 -0.37016895 -0.901899 1.0675044 0.24128532 -0.92956096 -0.40770376 -0.68048954 0.92951775 0.11981046 0.26863977 0.4624197 0.38477647 0.41105777 -0.40974477 -0.4553311 -0.73436004 -0.18457943 0.43639404 -0.5687554 0.68933547 -0.7203323 0.45227844 -0.8146946 0.5316315 -0.52393115 -0.00966971 -0.6602682 -0.5921182 -0.35755742 1.2472732 -0.014002889 0.21427643 -0.16060305 0.41601256 -0.4768861 -0.35295188 -0.15685612 1.2767522 -0.2414119 -0.18293837 -0.70935404 -0.7666443 0.8949262 -0.4580779 -1.3292577 -0.3829957 -0.78855395 -0.29044294 0.051917754 0.2546531 0.23391092 -0.13999954 -0.052523516 -0.7719606 -0.5259123 -0.1985862 0.22116104 0.2130323 -1.2363342 0.012296207 0.42053512 1.0337815 0.99669456 0.046276044 0.8154577 -0.2656915 0.29703477 0.66599697 0.6021996 0.6875606 -0.9266604 0.11587976 -0.4263935 1.3777621 0.5121964 -0.0088157505 0.63471293 0.27343854 -0.14725372 -0.8464283 0.24455333 -0.24516347 -0.31613913 -1.3861113 0.3588643 -0.85650784 0.24695174 -1.1360936 0.7049273 -0.29318437 1.1715329 -0.351506 -1.5314379 -0.9078462 -0.9987285 -0.6458986 -0.11310544 0.51109284 0.29840174 -0.12065351 -0.37785527 0.0038798153 0.13000917 0.1532646 0.67425203 -0.2301349 0.3428396 -0.64813536 -0.14035356 -1.2391583 -0.21870205 -0.06253447 -0.15029041 0.15771645 0.49825507 0.071734816 -0.18476842 0.56874454 -0.021888532 -0.7940771 0.11730559 -0.2859901 -0.59560126 0.2210874 -0.4941913 -0.852331 -0.37488514 0.43979555 -0.6454221 -0.11681135 -0.18126959 0.3776452 -0.5462732 0.8635495 -0.026289683 -0.9486452 0.03867767 0.40844712 0.096637964 0.36839062 0.21602605 -0.6594075 -0.97427636 0.30264473 -0.7846097 0.13473737 -0.15107724 0.056631837 -0.8751833 0.18621731 -0.23931158 -1.1913925 -0.046782836 0.42827153 0.67441577 0.20773578 0.17005967 -0.5496832 -0.060901135 -0.50733197 -0.036819395 -0.553357 0.28293455 -0.4177661 1.074567 -0.6798912 0.2675755 -0.8760263 -1.3254504 0.51381266 0.14888498 0.3147871 0.91071445 -0.5590893 -0.6842313 0.35464346 -0.13424428 0.09239769 0.7165719 -0.27240866 -0.8225738 -0.7916069 0.1931773 0.3615645 -0.7235233 -0.55863535 0.657941 -0.41141477 0.0867319 -0.65915304 0.06841424 -0.3780669 0.40014106 -0.58620083 -0.5187348 1.1057961 -0.116678804 0.2982831 0.7231171 -0.2609222 -0.52781445 -0.13026714 -1.0953485 -1.3249576 -0.7930202 0.58101493 -0.83854127 0.23805185 -0.28186154 -0.35108396 -0.77681935 0.7387758 0.68117356 1.0367311 -0.052594654 -0.6663912 0.27778196 0.4230045 0.1646126 0.5671009 0.116174385 0.066856734 -0.05960019 -0.14770874 1.2074652 -0.4942106 -1.1619184 -0.45308632 0.44129837 0.4891464 -0.21273944 0.26789883 -0.17097935 0.47762358 -1.0422392 0.32293868 0.8518063 -0.13464227 0.08411871 0.30683872 0.2730813 -0.8492734 -0.08045762 0.11899546 0.6834634 -0.5811874 0.29265833 0.21548478 0.28668293 1.0614815 -0.3034104 0.29508218 -0.042832248 -0.6874113 0.051863823 -0.10814637 0.26009762 0.24303979 -0.21538818 -0.82522315 -0.6150115 0.55985135 0.29046795 0.8893881 0.47300142 -0.5836092 -0.3732217 0.31453535 -0.32848725 -0.13630134 -0.62709093 -0.21881019 -0.26782054 -0.6417075 -0.85620403 1.0372941 -0.24904759 -0.42242262 0.43980366 -0.48354876 -0.26598713 0.005991038 0.20742479 -0.3664419 0.2512099 1.1455857 -0.08525352 -0.4961631 0.2375341 -0.27277893 0.7590796 0.8344458 1.1158993 0.24478203 0.5021266 0.23288189 0.5515058 -0.9128441 -0.09053731 -0.83218634 -0.10781075 -0.33807826 -0.6127029 1.2498926 0.4560067 0.18851438 -0.43918756 0.009849116 0.20283355 0.016782578 -0.29317972 0.45132786 -1.1410031 -0.1261239 0.87119156 -0.39668515 -0.13972926 -0.2000436 -0.7506882 0.9079293 0.72672296 -0.34065375 -0.29917026 -0.089353815 -0.18739508 -0.63316447 -0.47621158 -0.3588313 0.16877232 0.1694571 1.2823328 0.2080006 0.44815025 1.1563922 1.2636108 0.2094498 0.09822962 0.24251594 0.01566496 -0.28602415 0.57682204 0.1492277 -0.32403523 0.84518456 -0.99322635 -0.45170382 -0.23264599 -0.7036867 0.8062854 0.11363095 -0.16450596 -0.94677603 0.04216218 -0.02849105 0.862347 -1.83737 -0.07129545 0.39530736 1.0540377 -0.4461227 1.373251 0.1423158 -0.5096608 0.7996963 0.8414269 -1.3637487 0.9276465 -0.99424165 -0.006399274 -1.4483917 -0.5223653 -0.56799036 -0.3650569 -0.83319765 0.023902446 1.0196437 -0.49140477 -1.1734343 0.9152379 1.0523719 1.1911256 -1.2936603 -0.70128804 -0.5860139 -0.40710798 -0.17112808 -0.91758585 0.6607031 -0.104460604 -0.032357574 -1.2801758 -0.026536807 -1.7638981 0.48999637 0.90946317 -1.0086675 -0.58310515 -0.8703635 0.9333805 -0.9636747 0.81791145 0.4290923 -1.2914673 -1.5672634 -0.62287 -0.179346 -0.102859735 0.88154036 0.43021116 -0.5291835 0.27731586 0.060247555 0.75298005 1.0519545 0.21994135 -0.46424127 0.3184526 -1.2334108 0.79103506 -0.7666479 1.0753934 -0.89081204 0.94331044 -0.9841166 1.0719082 -0.95954907 -0.15365338 -0.8741904 -1.2889206 0.4353951 -0.3338688 -0.8872736 -0.6447947 0.025807738 1.6820564 1.7251499 -0.39841163 -0.53014684 -0.49755573 -0.91385573 0.47199303 1.0084382 0.5199965 -0.3243822 0.47949374 0.6794456 0.03952548 -0.8079405 -0.41354546 -0.6759889 -0.17653754 -1.3432283 0.57230234 0.057962656 0.8961274 -0.3053875 -0.2345996 1.0730478 -0.80110407 0.069286495 0.34827942 -0.24110371 -0.3453815 1.0610473 -0.012428194 -0.045361035 -0.3758176 -0.22747856 0.551067 1.1132953 -0.38090563 1.185283 0.7025664 -0.01755543 -1.8848181 0.2715752 0.46972796 -0.2872142 -0.5851046 0.5924916 0.017192062 0.7605365 -1.1091104 0.6464582 0.7775836 -0.26516616 -0.73298097 0.7662589 -0.78236496 -0.9552151 -0.71635777 -0.2847315 -0.3536404 -0.11524933 -0.6022681 0.5865868 0.24181071 -0.0403183 0.7331003 -1.2132723 -0.6604672 -0.67396337 -1.0553668 -0.46699777 -1.3866521 -0.07925853 1.1313441 -0.12840284 1.0638765 0.28172183 -0.041813597 0.8465403 0.11839305 -1.6845018 1.6954854 0.20028313 -1.2638212 -0.12058224 0.37736174 0.5719813 0.13521197 -0.47359997 0.91145 0.36992824 0.4173904 -0.59272456 -0.44366652 -1.8165028 -0.5274416 1.1738106 -0.20489322 0.9088426 -0.9852509 -0.31193587 -1.324018 0.6264409 -0.907714 0.8197446 0.4325436 -0.017153844 -1.0294735 1.586715 -0.9850347 -0.102673545 -0.8917769 0.19359691 -0.3526137 -0.45453015 -0.59269553 0.9282168 -0.22141284 -0.48314705 -0.7520381 -0.9143842 0.9576251 -0.14013173 -1.5694431 -1.5616534 -1.0270443 -0.6099795 0.30279565 0.77902853 -0.37461752 0.24774563 0.28939125 0.045446217 -0.34799457 0.5997733 0.31051978 0.13676503 -1.4916818 0.17544961 0.32791084 1.2219374 1.9798497 0.08464737 0.3143836 -0.7601357 0.7925684 0.3234093 -0.0054226816 1.5275102 -1.4426091 0.45144337 -1.1964484 1.982429 0.26957902 -0.11291614 0.9108168 0.21273407 0.4779733 -1.3613741 0.19180611 -0.81881857 -0.47613132 -1.3237164 0.33921874 -1.4380956 0.7672876 -0.92001957 0.5862249 -1.1310301 0.5201991 -0.5939753 -1.7956667 -0.9962062 -1.7120831 -0.5996603 0.4148463 0.2994374 0.39952397 -0.50092685 -0.5438386 0.5426856 0.83943796 -0.03274423 1.0494726 0.8205763 0.763953 -0.9724322 -0.9200764 -1.2693347 -1.1317859 -0.11892758 -1.3334851 0.7571878 0.66836643 -1.2044113 -1.1816435 1.2525768 0.73762083 -0.38519537 0.17963648 -0.6754271 -0.9812286 0.5109828 -0.25930434 -0.5888439 -0.94422466 0.099978074 -1.0182697 -0.15252937 -0.8902645 0.53296846 0.021116734 0.92727137 -0.30707455 -1.025995 -0.39524946 0.48040625 -0.025266746 -0.12837493 0.9903055 -0.6820454 -1.3564042 0.13395098 -0.10917351 0.39471304 0.38092023 0.0095644295 -0.46093544 0.85594964 -0.33254558 -1.3665683 -0.7878338 0.6245555 1.7965511 -0.14143445 0.009039521 0.58626544 0.91996425 -0.11220348 0.09353404 -0.9002063 -0.2907962 -0.071208626 1.0424408 -1.3732837 0.40691733 -0.9697554 -0.821654 0.33589697 0.52765554 0.17605034 1.6202502 -0.5998271 -0.76814127 -0.189794 -0.969657 0.8851441 1.7475711 -0.47972313 -0.5314305 -2.1940684 -0.15385784 0.06774446 -0.84586394 -1.0987582 0.72858465 -0.8885989 -0.73703015 -0.4578578 0.14812404 -0.5546093 0.31427634 -0.16172895 -0.3264782 0.8118977 0.009171598 -0.11713329 0.9059578 -0.43671626 -0.43546054 -0.69175 -0.5445269 -0.01985085 -0.85371304 0.6589722 -0.8397338 -0.4116937 -0.42044985 -0.40581968 -0.58815765 0.6017837 0.7145623 1.2342837 -0.2581331 -1.0838801 0.003558457 0.4132678 -0.38121575 0.18484125 -0.46025306 -0.56864583 0.46229085 -0.2798318 1.2910722 0.42502925 -1.4294027 -0.56574357 0.27623016 1.1571707 0.31158894 0.38599077 -0.13968027 -0.3761708 -1.9911454 0.58825046 1.4371898 -0.2775332 1.0819178 -0.4186782 -0.11657143 -0.861395 -0.21859157 0.19945103 0.4632356 0.1876376 -0.13449681 -0.3998106 0.69887626 1.6110735 0.021392852 -0.49933642 -0.044300787 0.7507875 0.91196895 -0.62349844 0.3388761 -0.1389781 -0.55848384 -2.5570776 -0.8918674 0.72606134 -0.25762028 -0.5023584 0.57351506 -0.40665638 -0.2195355 0.4881553 0.04120034 -0.7113259 0.14416197 -0.5094043 -0.75411457 -1.2140399 -1.5019526 1.0110892 -0.96067864 0.0015200377 0.70573354 0.35184795 -0.06265563 0.3222726 -0.43840656 -0.21609536 1.054461 1.0827893 0.9567908 -0.24200916 0.29271013 0.4009647 1.3641212 0.211003 1.0891048 -0.6205728 0.99606156 0.8506557 0.9514528 -0.5131419 -0.4490315 0.09917852 -0.52830076 0.15705217 -0.9383056 0.8205528 0.75929844 -0.24399893 -0.80272305 0.23637891 0.28794616 -0.35544065 -0.39383292 0.35237482 -1.3746183 0.23269628 1.5988648 -0.6925727 0.25023252 -0.41702515 -0.98951864 0.8664704 0.79100263 0.12018451 -0.252985 -0.337679 -0.11413817 -0.5094938 -0.77870005 -0.71031845 0.55518985 0.6925141 1.5819049 0.956097 -0.40054855 0.5090194 1.5834731 0.5982413 0.23287943 -0.80440974 0.38044664 -0.08550446 0.8663854 -0.40694183 -0.42149395 0.1349363 -1.0646851 -1.465512 -0.24502648 -0.17706357
BRE1_YEAST 0.19585383 -0.19323537 -0.00391452 -1.3425566 0.5003335 -0.7802989 1.1686785 -1.2118481 -0.038038842 -0.057651874 1.0420322 -0.6864066 0.31625628 -0.4099184 0.24408883 -0.5925329 0.8098736 -0.41254872 0.38278958 -1.1193652 0.24468237 -0.8111899 -0.71136093 -0.18465999 -0.32409495 -1.079398 -0.4697316 0.36044148 -0.31134477 -0.35626012 0.41670987 0.99771976 1.3027788 -1.4875288 -0.78587687 -0.8422077 -0.17046641 -0.08914844 -1.0527256 0.342746 0.25738028 0.9385409 -0.6466068 0.2153545 -0.8809286 -0.3128937 0.304537 -0.26291412 -0.6307856 -0.73678124 0.926806 -1.0047588 0.9077128 -0.3517033 -0.91626334 -0.7990434 -0.8311125 0.97402763 0.22292277 0.22152853 0.27819657 -0.47920555 -0.088344365 0.5728405 0.27487227 0.93803823 0.5042763 -0.43843055 0.040757082 -0.5363747 1.1306186 -0.34622163 0.25672948 0.2821611 1.2736245 -0.65360916 0.47944376 -0.32783633 0.13781142 -0.71897805 -0.86850035 0.0024546422 -0.65557104 -0.8811877 0.52496415 0.42095754 0.7961981 0.21944378 -0.27687383 -0.58861846 -0.3667456 -0.9994148 -0.011766566 0.5344031 0.13262218 -0.09209989 -0.022561777 0.8621398 0.43222147 -0.5798383 -0.73956245 -0.7276107 0.61449146 -0.8738319 0.3741628 -0.1119844 0.6551111 -0.17300025 -1.0199974 0.54569113 -0.2317924 1.062707 -0.47656816 0.11773694 -0.18041375 -0.11028676 -0.012336325 0.1454291 -0.33525667 -0.37444115 1.1463804 1.190036 -0.7861136 1.240501 0.7316343 -0.39076817 -0.77377623 0.36802667 -0.66790116 -0.64668995 -0.20678 0.3430676 0.0100662075 0.60250044 -1.1992654 1.0387866 1.015217 -0.281329 -0.6888951 0.30754733 0.42407984 -0.87741286 0.047212936 0.41439235 -1.0139282 0.11997071 -0.39886045 0.5610161 -0.38294828 -0.1310185 0.218026 -0.79051626 -0.7088208 0.025556032 -0.5701429 -0.4892376 -0.7535635 0.18474944 1.0243857 0.5743881 0.64422876 -0.42562068 0.59533376 0.9407424 -0.30312625 -0.9340268 1.3192472 0.24239652 -1.0568753 -0.4007547 -0.8334888 1.0743059 0.10462428 0.31261647 0.5370797 0.45446396 0.3371203 -0.33260393 -0.4569109 -0.7120664 -0.2574095 0.4823118 -0.61845565 0.6377236 -0.84915817 0.37649265 -0.9446036 0.40203184 -0.5572597 0.07567328 -0.77875614 -0.57322955 -0.3406235 1.2291569 0.19311313 0.12275055 -0.17127636 0.46386206 -0.49290252 -0.299272 -0.16906725 1.4003319 -0.2727444 -0.26052782 -0.77010584 -0.732979 0.90327907 -0.5620723 -1.3075833 -0.37157226 -0.78544414 -0.43587324 0.09525561 0.32987535 0.18253583 -0.20304787 -0.069092356 -0.6061176 -0.59034765 -0.08023944 0.2681367 0.3171361 -1.348057 -0.08223369 0.48935992 1.1890154 1.0005844 -0.07780966 0.75957227 -0.07502293 0.28932536 0.6823685 0.57167304 0.58160454 -1.0398846 0.11220818 -0.5200664 1.4864445 0.53035045 -0.16364828 0.61176956 0.3367322 -0.13652942 -0.8910934 0.24596488 -0.1968625 -0.29826075 -1.459789 0.385741 -0.8715599 0.29818615 -1.1603212 0.7881048 -0.26266712 1.2055176 -0.46812522 -1.5578064 -1.0276963 -0.9879023 -0.5929546 -0.051221125 0.5083925 0.37667477 -0.18776625 -0.4744627 -0.011273902 0.12604769 0.1369878 0.68818223 -0.2576343 0.3826065 -0.7702323 -0.04834594 -1.3603989 -0.26279673 -0.17335564 -0.16601548 0.13111821 0.5691502 0.14473233 -0.12552953 0.673545 -0.008889219 -0.8240485 0.051126085 -0.3106206 -0.5816683 0.17563072 -0.5110606 -0.9738971 -0.45154843 0.5548943 -0.6011691 -0.17143649 -0.18055087 0.5498557 -0.63536143 1.0200634 -0.010594841 -1.0438133 0.101256676 0.17379689 0.10274257 0.4367077 0.23511949 -0.60937274 -0.9255396 0.026462704 -0.7835105 0.02397018 -0.13600603 0.1278801 -0.9090123 0.19809198 -0.3188537 -1.2690299 -0.011982843 0.48303834 0.729779 0.2136476 0.14786795 -0.6453309 -0.2242007 -0.64805186 -0.018259514 -0.5407456 0.27717328 -0.33929548 1.1926436 -0.74699056 0.14794019 -0.9506321 -1.548565 0.49549493 0.27044606 0.2191157 0.9040756 -0.6851404 -0.70363164 0.30972764 0.017259635 0.06857137 0.6835158 -0.3410148 -0.8132144 -0.8044841 0.28718424 0.4984487 -0.7799825 -0.4265157 0.6428616 -0.33337408 0.074804544 -0.7111736 0.014677975 -0.22350359 0.4084324 -0.55432546 -0.49705395 1.264225 -0.17380822 0.20413789 0.74053067 -0.25924626 -0.43532228 -0.1025307 -1.1425616 -1.3835895 -0.95028156 0.6108571 -0.8373353 0.24978152 -0.5025634 -0.34100494 -0.8557411 0.72471094 0.7881487 1.0546443 -0.12882334 -0.7375487 0.35524985 0.3721099 0.20071287 0.47396964 0.105492875 -0.027320405 0.07816793 -0.1154232 1.2574048 -0.46621805 -1.3978057 -0.38254923 0.4966842 0.48724037 -0.17242973 0.18094659 -0.15920474 0.6145559 -1.095936 0.2167911 0.88670135 -0.18074563 0.013025321 0.4593186 0.3792879 -0.9926182 0.0071543716 0.24520482 0.79029644 -0.7813126 0.21817121 0.30133152 0.14286883 1.1077423 -0.3278065 0.23275036 -0.036027014 -0.84622383 0.08259823 -0.254781 0.30674738 0.320654 -0.18576631 -0.9403423 -0.5870776 0.67909837 0.32462645 1.0480686 0.39015126 -0.6860899 -0.44196934 0.4707682 -0.27313638 -0.13570428 -0.66424 -0.19060683 -0.28358233 -0.8272722 -0.85577 1.0745158 -0.11292538 -0.43385214 0.45389378 -0.5877795 -0.26947623 -0.039073564 0.2043845 -0.38892686 0.38207868 1.0818491 -0.09601278 -0.69032514 0.18050884 -0.3962198 0.80402535 0.76219034 1.1213945 0.13632406 0.4617869 0.33838755 0.4667698 -1.0244584 -0.047801368 -0.9543778 -0.16823627 -0.52394474 -0.47476706 1.3403189 0.5496834 0.2969971 -0.4510769 0.011804341 0.15813251 0.02196383 -0.24376918 0.5066203 -1.4514165 -0.17225313 0.945578 -0.50681555 -0.26556772 -0.1405531 -0.80116904 1.0226184 0.85860264 -0.34143573 -0.40739945 -0.10322289 -0.25498658 -0.5881369 -0.67247814 -0.41059935 0.31224892 0.07423866 1.4648376 0.22372296 0.5282671 1.2682052 1.3943715 0.3332144 0.26450777 0.23999977 0.10081973 -0.22824152 0.58803254 0.093613 -0.3920588 0.8392614 -0.9769887 -0.4261412 -0.21680173 -0.83319014 0.57012445 0.14820477 -0.2773665 -1.0119362 0.37072834 -0.18412966 0.8239754 -1.8900957 -0.060265094 0.50950074 0.9924463 -0.89024067 0.8964521 0.085908815 -0.4634586 0.5336541 0.77188915 -1.050964 0.9622905 -0.9566424 0.2638282 -1.2919483 -0.50979614 -0.67205775 -0.720995 -0.7206783 -0.01851356 0.9161024 -0.092427775 -1.2524611 0.701799 1.1295979 1.3956802 -1.2914972 -0.566591 -0.7199439 -0.43887147 -0.18879114 -0.7360065 0.6844107 -0.025271386 0.4629882 -1.5650138 0.062424414 -1.7818797 0.3337795 0.91038954 -0.9686527 -0.21331045 -0.45195735 1.3458374 -0.6485627 0.7007592 0.6019319 -1.4231579 -1.2925014 -0.53230447 -0.017894983 0.002512604 0.9949991 0.37266058 -0.5627624 0.47317472 0.17301784 0.5388986 0.9637893 0.44119126 -0.99789476 0.31394747 -1.2549304 0.9784112 -0.774585 1.0449232 -0.642272 0.83855575 -1.0269186 0.85853505 -0.9384478 0.025037225 -0.74248445 -1.2174515 0.43094316 -0.41397202 -1.0298826 -0.519218 0.16065231 1.5172063 1.5567024 -0.23349595 -0.33773577 -0.8283928 -1.094117 0.47419754 1.0086145 0.3869915 -0.23896426 0.30396968 0.8828926 0.0652504 -1.1161612 -0.41673303 -0.7843001 -0.13117427 -1.3261318 0.5308012 -0.14793016 0.8953083 -0.17217469 -0.1772091 1.0879633 -0.79934365 0.00016747415 0.04198602 -0.15829045 -0.3283779 0.9475292 -0.17030442 -0.015001714 -0.34160262 -0.3116798 0.59562624 1.1170182 -0.43912452 0.9423759 0.8192415 -0.08564509 -1.9477545 0.22902074 0.51008546 -0.5878975 -0.47866648 0.50179803 -0.15035239 0.87585783 -1.0943522 0.8409773 1.1017954 -0.39737654 -0.8843397 0.6177383 -0.51187384 -1.0124307 -0.38418084 -0.28292623 -0.5141736 -0.061634094 -0.6190949 0.67043257 0.07364339 0.024594009 0.6570151 -1.040383 -0.8299732 -0.5768348 -0.93700993 -0.60259336 -1.2361042 0.010057107 1.1917632 -0.33543578 0.9606629 0.055319726 0.4015635 0.9743775 0.1665701 -1.7133992 1.5893015 0.26261902 -1.2511051 -0.09732488 0.12553647 0.78166735 0.2618345 -0.44681934 1.0183731 0.30345705 0.5115113 -0.7167319 -0.35312706 -1.4933138 -0.37792015 1.350327 -0.47455102 0.88146585 -1.1411221 -0.13938767 -1.2821443 0.5896542 -0.5933322 0.7190051 0.27454463 -0.042060986 -0.5923208 1.727755 -0.8552603 -0.18295476 -0.7805253 0.11976369 -0.5671204 -0.38028738 -0.6477401 1.029255 -0.22313231 -1.3795509 -0.5668833 -0.75185907 0.951645 -0.17239738 -1.4351108 -1.5286105 -1.0012542 -0.70636797 0.18969676 0.5103313 -0.3499043 0.11281632 0.14849764 0.054028302 -0.38885 0.45985138 0.3373826 0.26732212 -1.2473297 0.045623086 0.6745362 1.6266209 1.7762289 0.043925703 0.32585987 -0.64944625 0.8090551 0.4313028 0.13619097 1.3052438 -1.6899278 0.30921143 -1.0173448 1.7175555 0.3732301 -0.22274135 0.94010437 0.27891216 0.20468894 -1.400414 0.2142663 -0.6255804 -0.5916696 -1.4088509 0.31870717 -1.5323889 0.83246326 -1.0619588 0.45367616 -0.9565944 0.63980925 -0.40387195 -1.681329 -0.7007286 -1.600932 -0.36529088 0.07810542 0.5153372 0.25112033 -0.3245319 -0.47335005 0.751944 0.8185399 -0.042936996 0.675489 1.0138643 0.7510202 -1.0354196 -0.9030208 -1.4245648 -0.94640714 -0.3453537 -1.1124672 0.7848962 0.5099375 -0.8520452 -1.1863548 1.5525434 0.394342 -0.6457244 0.39602894 -0.43856913 -0.91406274 0.27367413 -0.60012007 -0.6876596 -0.618817 0.19926827 -1.0904292 -0.10057097 -0.76999694 0.67797303 0.09753145 0.86979735 -0.15348363 -0.97053236 -0.50294524 0.5374335 0.067900285 -0.16309187 1.0291115 -0.8029405 -1.1077453 0.040654168 -0.4052924 0.41709715 0.6223771 -0.13575402 -0.6276268 0.7733419 -0.31106973 -1.2803493 -0.58929276 0.87389046 1.5499384 -0.3245649 -0.1449271 0.16853502 0.693036 -0.23998395 0.39203566 -0.9107162 -0.28313255 -0.19413939 1.3294725 -1.343432 0.27575478 -1.0219848 -1.1451131 0.23284075 0.64179814 0.034873098 1.3970711 -0.74383867 -0.8371073 0.13976148 -1.1456401 0.953709 1.8676841 -0.39462328 -0.7616472 -2.0255446 0.029876411 -0.20696846 -0.79934776 -0.88403636 0.66619706 -1.0696397 -0.7357118 -0.48811364 0.17877352 -0.49503878 0.44036356 -0.42419285 -0.41659576 0.92071015 -0.04489196 0.097986534 0.66872275 -0.6075404 -0.60075635 -0.3331182 -0.6835109 -0.3535673 -0.85324407 0.40193975 -0.82424426 -0.1611509 -0.3974232 -0.53879905 -0.7977261 0.54656136 0.6797931 1.3368151 -0.112793684 -0.91842943 0.16208269 0.6448395 -0.44879076 0.43264228 -0.5132536 -0.47636166 0.25188577 -0.39608207 1.3558073 0.6278417 -1.498442 -0.6228497 0.46791685 1.1678374 0.10370674 0.26189464 0.09450859 -0.019919187 -1.8462181 0.7632306 1.6535821 -0.47432286 1.0107756 -0.2522201 -0.14156413 -0.9881646 -0.09218132 0.2564727 0.5628021 0.23263863 0.08531732 -0.4359101 0.6776919 1.81198 -0.12244504 -0.365806 -0.16377342 0.60899675 0.80073965 -0.46664768 0.54951626 0.07735862 -0.6579597 -2.5095413 -0.7834302 0.4930487 -0.17182943 -0.042336486 0.5838987 -0.72343314 -0.41483212 0.53246987 -0.10725955 -0.7667063 -0.12878394 -0.38289076 -0.6374904 -1.3514292 -1.5605693 0.9140721 -0.8524369 -0.03045138 0.8462019 0.004106149 -0.15658273 0.27524796 -0.25274736 -0.24849609 0.9683633 1.0020616 0.657224 -0.32435715 0.07966531 0.14818503 1.2821162 0.14339828 1.273882 -0.6568562 0.61949944 0.7982864 0.8453574 -0.60473764 -0.2638731 -0.043298855 -0.38610512 0.009877816 -0.79203784 1.0036702 0.63681567 -0.37956244 -0.8273486 0.027338356 0.27675325 -0.38243213 -0.30307478 0.53418714 -1.154419 0.0795099 1.3916876 -0.40552637 0.3144585 -0.37624136 -0.81228685 1.0868598 0.6099015 0.09987096 -0.15860987 -0.21216038 -0.35066852 -0.38760573 -0.83346695 -0.74938136 0.6816367 0.6007905 1.5937185 0.9089905 -0.11520995 0.7769533 1.4414387 0.73830247 0.13556324 -0.6330471 0.56303966 -0.35640833 1.0552583 -0.24489626 -0.6959808 0.27591848 -1.071191 -1.3668865 -0.18154001 -0.5430615
CDC20_YEAST 0.20528436 -0.15981181 -0.031608954 -1.3900238 0.46067098 -0.81613487 1.0653863 -1.215978 -0.03448838 -0.091959484 1.019962 -0.6195778 0.28747502 -0.3727453 0.1993621 -0.5615049 0.770873 -0.4117241 0.2957372 -1.233708 0.15700336 -0.8094111 -0.6243846 -0.13596916 -0.31602725 -1.1268653 -0.318845 0.21011202 -0.2924005 -0.34199178 0.36637476 0.9557676 1.3659538 -1.6315974 -0.8318937 -0.9157745 -0.22634585 0.012636517 -1.0897406 0.37459257 0.39604488 0.79912585 -0.5832053 0.16935377 -0.7919772 -0.32088414 0.31362495 -0.22738759 -0.67390376 -0.78817004 0.8932397 -1.018915 0.9297274 -0.39296708 -0.8967903 -0.7466152 -0.91734654 1.0014366 0.19685824 0.18836315 0.2595311 -0.39717484 -0.05727571 0.52393454 0.22939344 1.0023657 0.44854954 -0.3387059 -0.013501406 -0.45546666 1.04299 -0.3104576 0.23585403 0.3017714 1.2688544 -0.6576106 0.40803418 -0.32330164 0.05596012 -0.7050197 -0.8768862 0.00852858 -0.6434062 -0.79686457 0.5596898 0.47149768 0.71900463 0.18873285 -0.30677694 -0.653905 -0.370168 -0.9884651 -0.00881186 0.5123243 0.112305515 -0.09497879 -0.07303823 0.92654926 0.41547403 -0.47928873 -0.71093816 -0.6898749 0.5863002 -0.8668954 0.39796495 -0.14782482 0.6410501 -0.12995929 -1.0463207 0.46879074 -0.22685295 1.1463755 -0.38624096 0.03546526 -0.15307526 -0.12692486 0.101162694 0.18223877 -0.2241527 -0.44494438 1.1828147 1.1418226 -0.8234326 1.243293 0.7685923 -0.39187923 -0.8386275 0.35183057 -0.7113474 -0.63955885 -0.3051501 0.4218243 -0.022633607 0.5951559 -1.1834302 0.9427838 1.0761694 -0.3474218 -0.6822856 0.2884458 0.47891045 -0.8510754 -0.019565294 0.46386942 -0.9993027 0.1677053 -0.49821126 0.5369551 -0.37988237 -0.17129864 0.29089037 -0.8101282 -0.5877164 -0.010008011 -0.55988115 -0.48780593 -0.7149649 0.0389224 0.9795733 0.6557397 0.72759205 -0.40287003 0.6375764 0.9730843 -0.32820943 -0.8420542 1.3945328 0.19643445 -1.0676107 -0.47219178 -0.99305487 1.1510128 0.05440714 0.31677645 0.4207561 0.4627143 0.39085817 -0.16472788 -0.52021664 -0.6931762 -0.2663245 0.37094095 -0.61081195 0.6542061 -0.855921 0.31335044 -0.95391995 0.36024556 -0.5550849 0.07996981 -0.8550496 -0.55124193 -0.3419285 1.1398615 0.28035983 0.09633684 -0.16546674 0.432021 -0.5120317 -0.30209932 -0.16661991 1.348661 -0.31107125 -0.23078042 -0.7583931 -0.7034158 0.9120504 -0.65938324 -1.256662 -0.37091184 -0.7167354 -0.52354574 0.1472822 0.33622336 0.1350768 -0.25240877 -0.076920845 -0.50247556 -0.6178271 -0.117248 0.28514907 0.3317087 -1.3564854 -0.10536594 0.47119036 1.1579386 1.0060579 -0.055840295 0.7199407 0.064459436 0.26390418 0.717304 0.58911616 0.49355313 -0.9634972 0.123696916 -0.52269554 1.4791021 0.49074194 -0.19503225 0.5522377 0.3418323 -0.20400862 -0.91185284 0.26321653 -0.16478802 -0.28609166 -1.4262623 0.41263542 -0.8712769 0.29753384 -1.1189812 0.7499451 -0.2619379 1.260919 -0.6138777 -1.484234 -1.0543591 -0.9538649 -0.542842 -0.059659988 0.5625434 0.4081576 -0.17473239 -0.46910617 -0.12757911 0.09919914 0.13848189 0.7478902 -0.26171532 0.4028097 -0.8858159 0.0006077066 -1.3658041 -0.32266983 -0.18307115 -0.134637 0.17458935 0.5250691 0.09828081 -0.08607068 0.55805486 0.026271889 -0.79734206 -0.030185858 -0.30159557 -0.642229 0.11855539 -0.55763453 -1.0608608 -0.42564783 0.57187605 -0.517447 -0.16929965 -0.14085197 0.6095469 -0.60601825 1.0643225 -0.010547397 -0.9757293 0.1802727 0.06560591 0.09235244 0.37154123 0.13618155 -0.5657748 -0.89515895 -0.06667314 -0.7512994 -0.04234979 -0.15448718 0.21176648 -0.9233796 0.16428176 -0.28642154 -1.2866993 -0.020125596 0.4993477 0.7802561 0.29437438 0.25092182 -0.64932775 -0.29859033 -0.70099473 -0.016205465 -0.5137488 0.30381796 -0.27234736 1.2690306 -0.713703 0.13008408 -0.8859165 -1.6361829 0.41253415 0.3156112 0.088748485 0.9689808 -0.69728255 -0.6254647 0.319487 0.030304944 0.08369413 0.72144264 -0.3421707 -0.7626807 -0.6823866 0.3609868 0.4995563 -0.7350707 -0.38332486 0.6272297 -0.3855543 0.120078325 -0.59261304 0.028268045 -0.12873863 0.45035377 -0.40697125 -0.42429706 1.3050795 -0.18861997 0.18005376 0.7602089 -0.27775657 -0.3909117 -0.17640841 -1.1726466 -1.5121392 -1.0186933 0.566588 -0.85589105 0.25743708 -0.5560962 -0.35111284 -0.8794584 0.7270368 0.75372916 0.98829144 -0.117301404 -0.66716766 0.40602604 0.39041182 0.24854346 0.4700453 0.053457633 -0.015605832 0.116163075 -0.10564605 1.2146833 -0.46751884 -1.3331144 -0.40226135 0.49353275 0.40675816 -0.11020592 0.20904596 -0.16043366 0.66366476 -1.0638517 0.20885146 0.8301823 -0.23784558 -0.10259011 0.41471517 0.450315 -0.98530245 0.02923132 0.24078514 0.8767981 -0.8559346 0.10904825 0.38645425 0.11265985 1.0909015 -0.39023232 0.23766059 -0.0442774 -0.8321689 0.08255545 -0.3190215 0.28876993 0.33126277 -0.18710005 -0.96998405 -0.57434464 0.7906112 0.3612621 1.1165746 0.32924286 -0.68695927 -0.4539745 0.59778285 -0.26975462 -0.115674965 -0.6678496 -0.13819389 -0.24279827 -0.81832856 -0.83257645 1.0566615 -0.072469704 -0.45494226 0.47027946 -0.5624011 -0.18705072 -0.10487664 0.2556082 -0.44829094 0.39399338 0.95921296 -0.1336335 -0.7830772 0.16026694 -0.39823326 0.7325285 0.74971837 1.0559878 0.088617675 0.40700093 0.33193913 0.36428347 -1.0220665 0.0606803 -0.95784163 -0.023083905 -0.6169535 -0.44021654 1.2205852 0.58491 0.3218691 -0.4560877 0.009541765 0.11215036 -0.014958057 -0.2557411 0.44302 -1.5377175 -0.23707484 0.9844764 -0.5470342 -0.29348582 -0.13933076 -0.83610994 1.0445895 0.92097664 -0.41122177 -0.50393885 -0.16444504 -0.24155152 -0.54313165 -0.73227674 -0.41216218 0.31214902 0.0022946198 1.4399942 0.19366479 0.5822274 1.3419844 1.4212871 0.18974042 0.30872056 0.1823383 0.11381141 -0.26754278 0.5110414 0.0943582 -0.34862438 0.8247102 -0.9578174 -0.43387088 -0.13042684 -0.9578913 0.61726767 0.1694951 -0.09529927 -1.027784 0.16522592 -0.18328631 0.80341935 -1.9342175 -0.032590594 0.5119921 1.0827079 -0.82065654 1.0290941 0.1563356 -0.55762297 0.52381366 0.85313386 -1.1416376 0.9468122 -1.0154923 0.1704586 -1.3512083 -0.46872672 -0.60054433 -0.6338761 -0.80053145 -0.012930751 0.9111944 -0.1417252 -1.2309893 0.7460475 1.0285931 1.3382639 -1.2531167 -0.5930565 -0.70218897 -0.39584696 -0.13751526 -0.7802215 0.67694885 -0.04938968 0.25537062 -1.4205924 0.112818874 -1.7592187 0.32776666 0.85789365 -0.9587385 -0.3082538 -0.6817221 1.2563496 -0.71173716 0.6889035 0.60086274 -1.3571554 -1.3391647 -0.52000016 -0.09554476 -0.0879697 0.92102784 0.41703877 -0.5376982 0.38258934 0.12680908 0.55541027 1.0239042 0.26492178 -0.8511245 0.29379788 -1.1884979 1.0075186 -0.791029 1.0426539 -0.69915503 0.92018914 -1.053096 0.8788338 -0.881612 -0.0010461509 -0.73246837 -1.2257452 0.362439 -0.47091237 -0.9293084 -0.48310313 0.12545799 1.4873203 1.5417877 -0.27098358 -0.47536007 -0.6976509 -0.9453471 0.46617517 1.0079658 0.4252092 -0.20520802 0.37408695 0.8517397 0.07016763 -0.95309955 -0.45761022 -0.76318973 -0.22441478 -1.3629307 0.49290028 -0.062643416 1.0052674 -0.20214067 -0.12435212 0.9857378 -0.8072638 0.041869026 0.23623271 -0.24768825 -0.2077465 1.0032676 -0.17867385 -0.08923853 -0.35074583 -0.2700267 0.6660298 1.1389132 -0.5411511 0.9852902 0.811598 -0.14783578 -1.9389757 0.14928351 0.43846488 -0.4967575 -0.5585142 0.4800757 -0.1830918 0.7723319 -1.1675873 0.71804786 0.9715411 -0.42783293 -0.8572715 0.6954768 -0.7152824 -0.9388489 -0.4605968 -0.25792366 -0.41129693 -0.15017791 -0.621424 0.58843654 0.07622669 -0.091008104 0.69343406 -1.112812 -0.7836919 -0.6153338 -1.1165301 -0.4372653 -1.2616284 0.010000358 1.2562736 -0.26049966 0.9572461 0.0967808 0.13379027 0.9194816 0.1658085 -1.6328748 1.6207441 0.3013036 -1.301114 -0.092866145 0.14458229 0.6387501 0.23020403 -0.5429053 0.9288222 0.35949823 0.4590651 -0.5682573 -0.31798112 -1.6794366 -0.41290775 1.3061442 -0.3541193 0.95099235 -1.0934343 -0.18703552 -1.3424964 0.59286505 -0.65212387 0.7395893 0.32709464 -0.0467726 -0.8244724 1.612668 -0.8994234 -0.2134587 -0.8514536 0.16016155 -0.45816943 -0.50802845 -0.5922225 0.99512196 -0.23570769 -1.4663023 -0.5901815 -0.8771548 0.97961384 -0.21763106 -1.4644642 -1.4946417 -0.9047649 -0.62876874 0.19725013 0.651974 -0.35892296 0.08570588 0.14271507 0.04714947 -0.35239482 0.49083957 0.30333245 0.20137681 -1.2857656 0.10987246 0.6639283 1.489045 1.7652391 0.009764406 0.2759198 -0.6860235 0.893853 0.4558816 0.21418214 1.2765692 -1.5495712 0.33873156 -1.0196172 1.8357903 0.4216558 -0.16637823 0.8602536 0.20804514 0.26150832 -1.4207349 0.105873786 -0.66244155 -0.52706546 -1.372549 0.28694013 -1.4618486 0.70317525 -0.956325 0.39160243 -0.96054953 0.7124283 -0.48458323 -1.7037026 -0.89251715 -1.6157346 -0.4200311 0.17592578 0.4432514 0.29055756 -0.31502435 -0.39674768 0.723567 0.73923653 -0.06218499 0.7557158 0.94895697 0.81074136 -1.0399914 -0.9161466 -1.3638654 -0.97842264 -0.31194293 -1.0471977 0.7050331 0.4761065 -0.9281966 -1.1189557 1.4970533 0.529357 -0.46368945 0.36039138 -0.5203968 -0.91677904 0.29434687 -0.57174337 -0.75399 -0.67639637 0.33261767 -1.0429155 -0.13688324 -0.67789274 0.5879874 -0.021810362 0.90955925 -0.1767552 -0.94170713 -0.45667326 0.564197 -0.008136494 -0.083246745 0.9788062 -0.7569196 -1.0853486 0.06854869 -0.29912585 0.34968996 0.60025364 -0.07137458 -0.6039031 0.7773154 -0.3560787 -1.2775269 -0.6500729 0.8236008 1.6982337 -0.3198197 -0.08486139 0.26663327 0.8014229 -0.2466803 0.31387335 -0.88379496 -0.26087037 -0.14686806 1.2587066 -1.338621 0.33428505 -0.9870269 -1.0161476 0.2421261 0.6231331 -0.014027406 1.4542928 -0.674009 -0.7734259 0.050427716 -1.0615233 1.0847874 1.81383 -0.4253058 -0.5634368 -2.1132717 0.036927428 -0.08585298 -0.7374413 -0.9197157 0.7474477 -1.0935479 -0.7577861 -0.55586416 0.27864632 -0.50588924 0.4297811 -0.3495928 -0.22786558 0.9251606 0.033879656 0.07833203 0.65704924 -0.5752751 -0.52475494 -0.40761867 -0.58174497 -0.28211948 -0.8067545 0.5828852 -0.7503622 -0.13913989 -0.44334546 -0.49293077 -0.6988639 0.57679427 0.8003773 1.2448276 -0.14478774 -1.018589 0.10997947 0.5754953 -0.47153273 0.38303235 -0.50204784 -0.50618345 0.28679833 -0.36401772 1.2875904 0.56602055 -1.4973211 -0.52824044 0.47485057 1.2114354 0.18660991 0.22894306 0.04647078 -0.15773131 -1.9519008 0.62786096 1.5677742 -0.45874932 1.0365797 -0.225442 -0.04296203 -0.9491145 -0.13435411 0.28718075 0.532903 0.32744315 0.03564608 -0.45659742 0.6717265 1.6690356 -0.071547724 -0.4057698 -0.14996444 0.58767515 0.82496095 -0.52882046 0.471177 0.017754108 -0.6974816 -2.5014863 -0.86994463 0.48803103 -0.15105619 -0.19743215 0.48276415 -0.5873454 -0.30514646 0.5938577 -0.025159681 -0.7752464 -0.022540977 -0.43931976 -0.63274306 -1.303015 -1.4692796 0.96582955 -1.0102383 -0.0011109933 0.8096836 0.13097195 -0.12782331 0.29411116 -0.30175504 -0.31183174 0.95554096 0.9467983 0.6925206 -0.2853051 0.18753536 0.2054221 1.2890326 0.14204308 1.1984649 -0.614012 0.7435675 0.8274084 0.87971956 -0.46737325 -0.3216448 -0.018547913 -0.49061394 0.08551889 -0.82514524 0.912155 0.7232068 -0.35649046 -0.83415055 0.09525504 0.28881583 -0.3514001 -0.3314457 0.45913538 -1.2086029 0.17627864 1.4559798 -0.5665657 0.31300586 -0.34405947 -0.96066266 0.9239238 0.6326502 0.11175343 -0.2632475 -0.27154326 -0.31306237 -0.48935464 -0.84746283 -0.68710643 0.6407829 0.5909896 1.6163965 0.94532824 -0.1430044 0.70926696 1.491951 0.651235 0.25232983 -0.66519207 0.41976523 -0.2325126 0.896626 -0.35342863 -0.43679145 0.18376577 -1.0343122 -1.3770919 -0.16515517 -0.4016417
CDC4_YEAST 0.18785429 -0.14686093 -0.060289968 -1.3855693 0.45016313 -0.8268786 1.0459294 -1.2439226 0.017046252 -0.11867505 0.94918597 -0.63854575 0.29642415 -0.36294597 0.17844117 -0.5721989 0.76782155 -0.37656984 0.2403739 -1.3293035 0.06838292 -0.7937402 -0.55852354 -0.10821006 -0.31626207 -1.1598592 -0.20551234 0.07457807 -0.29369467 -0.32835907 0.34827614 0.89421904 1.3646507 -1.7524142 -0.82801163 -0.9704406 -0.26002687 0.059783183 -1.1989957 0.3981141 0.45588368 0.7304318 -0.53141236 0.11992944 -0.7066475 -0.3262754 0.30568218 -0.21365754 -0.69733757 -0.8678282 0.83336973 -1.0566995 0.94783187 -0.45554513 -0.8677941 -0.65770155 -0.9979104 1.0529909 0.1740159 0.16723317 0.2657556 -0.34465715 -0.055960305 0.4910889 0.18737407 1.0829748 0.39598092 -0.3039121 -0.059179444 -0.40617687 0.96607184 -0.28248915 0.2471202 0.29344332 1.2875131 -0.6611755 0.42590532 -0.31422755 -0.0033505186 -0.6672123 -0.8203205 0.028955637 -0.68353045 -0.7176273 0.59972805 0.5759479 0.6604153 0.18859982 -0.32424718 -0.70205045 -0.37355465 -0.98009247 -0.04440697 0.50356376 0.06731237 -0.11205368 -0.12260695 0.99181664 0.38967094 -0.41608864 -0.71766824 -0.64083815 0.5512461 -0.91471994 0.4208775 -0.23506193 0.5906145 -0.07182383 -1.0671277 0.3932187 -0.22212324 1.19368 -0.29185343 -0.013300393 -0.16013081 -0.13769203 0.147555 0.21067554 -0.11383734 -0.5343741 1.1967466 1.1093731 -0.80080765 1.2463474 0.81174254 -0.33944845 -0.83824193 0.35888243 -0.7097652 -0.6737751 -0.37340635 0.5095889 -0.008481167 0.5905716 -1.1982601 0.8701983 1.1122872 -0.37379515 -0.6964948 0.25129822 0.55806047 -0.88030845 -0.0019639619 0.48166215 -1.030164 0.19739686 -0.54252636 0.5395665 -0.3919747 -0.20316258 0.35095888 -0.7909406 -0.5324389 -0.030158816 -0.5602654 -0.4384444 -0.7259971 -0.09007755 0.94959474 0.7407069 0.8197392 -0.40470728 0.71375483 1.0458776 -0.34269518 -0.77809465 1.3679295 0.19011322 -1.1197953 -0.55709887 -1.0841702 1.213414 -0.015032452 0.31080574 0.33783856 0.4832379 0.41118744 -0.021820359 -0.56136584 -0.674978 -0.2913977 0.29222172 -0.6256597 0.6972672 -0.9070308 0.27109125 -0.95183265 0.32865328 -0.53 0.052990854 -0.9362193 -0.57112294 -0.33024734 1.0867319 0.31782565 0.10084185 -0.14930385 0.44186628 -0.4945786 -0.25705984 -0.13603121 1.2703903 -0.2912569 -0.22728434 -0.74692935 -0.7227637 0.92664564 -0.6787954 -1.2935432 -0.3518209 -0.6933194 -0.5905277 0.16370714 0.29216498 0.14244345 -0.23588447 -0.059300836 -0.44385582 -0.6660008 -0.12402286 0.3297236 0.3397057 -1.3844193 -0.082400165 0.45026898 1.0898409 0.9991628 0.008770565 0.7260895 0.15979218 0.24594942 0.7330916 0.56431574 0.41896802 -0.9138494 0.12889087 -0.5414521 1.4761615 0.50532925 -0.22673848 0.5593728 0.37161386 -0.29047564 -0.92914784 0.261401 -0.16196644 -0.35982907 -1.4554693 0.44089884 -0.89258856 0.31043217 -1.1134027 0.7287124 -0.23747772 1.3315315 -0.6612512 -1.4539943 -1.061523 -0.96921647 -0.567117 -0.054783836 0.62117374 0.46055532 -0.19662729 -0.4829551 -0.17922917 0.13466072 0.17221656 0.8063861 -0.22664148 0.3671012 -0.9705617 0.007955365 -1.3835622 -0.3599625 -0.17646128 -0.09406873 0.20118934 0.5157939 0.089668065 -0.027710602 0.537618 0.08126452 -0.7740558 -0.121522136 -0.3188131 -0.67413145 0.08453429 -0.62553823 -1.1240419 -0.4604091 0.530726 -0.47234517 -0.16260959 -0.15081 0.6659517 -0.5607984 1.131631 -0.01848057 -0.8763118 0.2559369 0.02546867 0.07815872 0.3513341 0.042143986 -0.5424533 -0.8917501 -0.10069442 -0.710046 -0.08716051 -0.22078 0.2853418 -0.92842954 0.13428202 -0.2455278 -1.3226302 -0.02646396 0.508098 0.8262234 0.33143747 0.2959053 -0.64807063 -0.33534992 -0.74574417 -0.035183944 -0.49098152 0.31366384 -0.27283296 1.3586175 -0.6683618 0.10758983 -0.81520367 -1.73666 0.43738288 0.37057555 -0.0031675622 1.010294 -0.66106236 -0.588933 0.35525393 0.07598543 0.096919246 0.71990675 -0.31837928 -0.7649993 -0.6048182 0.47164917 0.5168718 -0.7415669 -0.3184828 0.5920779 -0.4712874 0.16434911 -0.5271749 0.051466078 -0.08224115 0.49816477 -0.26944125 -0.38705355 1.3714483 -0.21032728 0.14416283 0.76676935 -0.27674678 -0.34624353 -0.20543522 -1.2198659 -1.6337962 -1.0940166 0.5349409 -0.9256997 0.26763147 -0.5721561 -0.38538375 -0.8889274 0.72025084 0.7148983 0.958919 -0.11023647 -0.60676026 0.4610143 0.3938475 0.30632085 0.5051034 0.0019293465 0.0142496545 0.14707035 -0.14355935 1.2075977 -0.4953702 -1.2985219 -0.40434253 0.49225414 0.34474993 -0.08695105 0.225486 -0.17234823 0.6668871 -1.0321707 0.20593035 0.8433329 -0.2922808 -0.17862348 0.39538625 0.51535803 -0.97279066 0.0678989 0.2467933 0.90582895 -0.9273832 0.050365336 0.4804361 0.06755403 1.0754318 -0.4163374 0.22439273 -0.01889009 -0.79203176 0.06503072 -0.3671903 0.3174491 0.3519503 -0.1447428 -1.0042197 -0.5762141 0.8666016 0.38245577 1.2200109 0.25596008 -0.7062864 -0.4613568 0.6859402 -0.27434745 -0.09199112 -0.6666774 -0.115202084 -0.20125149 -0.8019879 -0.83323973 1.0407299 -0.007972565 -0.46291184 0.5264746 -0.52394295 -0.123017974 -0.17800474 0.3013696 -0.5114317 0.41461462 0.8646106 -0.1609304 -0.8729592 0.16007152 -0.42429793 0.62933254 0.74515635 1.0614066 0.031172201 0.38919213 0.28740868 0.27124605 -1.0118178 0.120270416 -0.99378574 0.090248376 -0.6361706 -0.4481752 1.1419326 0.6201536 0.3215617 -0.45543313 0.00020168768 0.0606281 -0.02120892 -0.32109845 0.4034776 -1.6247866 -0.29143018 1.0604116 -0.5761257 -0.3179473 -0.1581802 -0.814048 1.0504134 0.9821338 -0.44245428 -0.6233901 -0.18090598 -0.2590487 -0.49488086 -0.80891454 -0.38604325 0.30291986 -0.044540387 1.4409708 0.17608288 0.6728087 1.4097903 1.4704007 0.09135358 0.32826507 0.103989564 0.09463562 -0.3185535 0.507887 0.13599136 -0.30311942 0.8463625 -0.94639206 -0.41983303 -0.06534766 -1.0174556 0.54653597 0.1512295 -0.14062959 -0.99899125 0.28759223 -0.19995758 0.74693847 -1.9150977 0.0011952221 0.51924795 0.98959994 -0.8810112 0.9285547 0.15479948 -0.50526685 0.49814638 0.7680793 -1.0099064 0.943669 -0.96069694 0.27693513 -1.2556185 -0.46900928 -0.629896 -0.69897646 -0.6981772 -0.0080482215 0.8489014 -0.06273233 -1.2595198 0.6401862 1.0103239 1.3833789 -1.2612156 -0.5273021 -0.67676634 -0.3308034 -0.12885574 -0.6903154 0.66484123 -0.01376475 0.4313574 -1.493837 0.12175665 -1.7362499 0.3328049 0.86414623 -0.96768963 -0.22511573 -0.52111137 1.3497251 -0.596619 0.59984624 0.63627315 -1.3753821 -1.2204635 -0.48150128 -0.007146828 -0.054718636 0.9802464 0.4368508 -0.5367073 0.44508612 0.1900011 0.4760689 0.96496165 0.3152686 -0.99672997 0.3434905 -1.1621773 0.95014024 -0.76106715 1.0321419 -0.6249413 0.8194305 -1.0256248 0.81976396 -0.88892764 0.048044126 -0.7241915 -1.1141584 0.38117605 -0.404005 -1.0037173 -0.51451135 0.1706492 1.4319601 1.493235 -0.22791153 -0.39282703 -0.82914865 -1.0061678 0.4708997 0.97734445 0.40214127 -0.1642871 0.27045178 0.86422795 0.006894307 -1.0243219 -0.3873465 -0.77589583 -0.19345242 -1.3020735 0.48212653 -0.12276994 0.95041704 -0.15581293 -0.15087679 0.9586555 -0.7799475 -0.00995703 0.1476 -0.21243067 -0.25337508 0.8684763 -0.19722058 -0.08628926 -0.4377369 -0.2761456 0.6481408 1.0817024 -0.49221623 0.9594694 0.8212632 -0.12612636 -1.9370968 0.14622372 0.50189525 -0.5932786 -0.4377645 0.4456138 -0.20668705 0.81869066 -1.0447708 0.8273186 1.0485376 -0.49922907 -0.8861096 0.5931504 -0.5836178 -0.9208239 -0.39301905 -0.26630455 -0.47463065 -0.071282014 -0.63606596 0.5943844 0.0476719 -0.007824924 0.6650895 -1.0237107 -0.8362679 -0.59633976 -1.0102818 -0.45937562 -1.2064464 -0.013086081 1.2238364 -0.34618676 0.89610654 -0.008231476 0.26446894 0.90746504 0.13527891 -1.6512167 1.5663762 0.32155144 -1.2560458 -0.101494305 0.07392444 0.6908939 0.2581313 -0.50862974 0.99155414 0.31946164 0.4722671 -0.6086717 -0.32168397 -1.5571915 -0.38583577 1.3087355 -0.40479612 0.92139244 -1.1575873 -0.113410294 -1.2856655 0.61195755 -0.54190576 0.6818612 0.2813415 -0.018858667 -0.69488204 1.6474296 -0.887712 -0.2563848 -0.82029927 0.11502953 -0.5147867 -0.50021446 -0.6463546 0.9672551 -0.23433946 -1.5591611 -0.55208296 -0.7741538 0.9705808 -0.29525498 -1.4096175 -1.4310386 -0.89664465 -0.68019915 0.17945293 0.5291303 -0.30980664 0.023104068 0.10250984 0.03492944 -0.38980955 0.46686608 0.28904086 0.21944952 -1.1692929 0.053404786 0.7470169 1.5014414 1.6787915 0.006877402 0.29258305 -0.7239622 0.86108506 0.48102304 0.22409679 1.2200378 -1.5766473 0.33420563 -0.94333744 1.67058 0.45556968 -0.13952614 0.8816472 0.19767365 0.1851142 -1.3938673 0.17467095 -0.60332227 -0.5443492 -1.3419688 0.2939623 -1.5430868 0.7632607 -0.92618084 0.39456117 -0.9437083 0.695962 -0.40979767 -1.6354984 -0.74594223 -1.5799502 -0.34907562 0.03460957 0.5454258 0.23585504 -0.23713106 -0.41692662 0.7996422 0.75060725 -0.04254216 0.6630624 0.99843234 0.7830695 -1.0382928 -0.8626189 -1.3497405 -0.95510614 -0.34786838 -0.99039215 0.6858671 0.45784014 -0.77293533 -1.1306374 1.5468023 0.38939932 -0.5456345 0.42066038 -0.48084494 -0.8881446 0.21447158 -0.6401456 -0.7738679 -0.57980573 0.34953195 -1.0425483 -0.09900765 -0.69287586 0.7107479 -0.0020708852 0.8545741 -0.10511151 -0.91025513 -0.48890373 0.5737096 0.0030566389 -0.13594888 0.98864734 -0.7262317 -1.0234771 0.10064231 -0.37308568 0.3569906 0.6449968 -0.16086808 -0.6040901 0.7409986 -0.3492614 -1.2227571 -0.59318566 0.9301146 1.6159585 -0.42345846 -0.093912974 0.21080571 0.7071068 -0.27751863 0.39927933 -0.94563866 -0.25370812 -0.19378307 1.3003447 -1.2908132 0.27021703 -1.0449207 -1.1042781 0.19120362 0.66603607 0.0028576404 1.3277324 -0.66916215 -0.78703344 0.16056004 -1.1074923 1.1068146 1.8065822 -0.34909287 -0.61329365 -1.9904406 0.06539787 -0.13074887 -0.7529522 -0.81104326 0.71755517 -1.1335807 -0.7684584 -0.5628232 0.24105567 -0.45254472 0.42672998 -0.39140546 -0.26565728 0.9160626 -0.01509556 0.18940018 0.5229357 -0.6358001 -0.53384006 -0.3062737 -0.59794307 -0.3859958 -0.84275055 0.45406592 -0.74831814 -0.10212176 -0.4140413 -0.5242205 -0.7048434 0.5707271 0.6626645 1.222398 -0.020855948 -0.86470044 0.1390295 0.6751704 -0.45007223 0.42070276 -0.4866121 -0.4848734 0.20046604 -0.44407505 1.2584805 0.643741 -1.5404073 -0.5497888 0.47018033 1.1394929 0.1066385 0.27956268 0.085567854 -0.054348454 -1.8519299 0.7037792 1.5929427 -0.48597598 0.9331542 -0.23655826 -0.06178791 -0.99141216 -0.13068232 0.26386705 0.5547077 0.3394584 0.046589088 -0.45478177 0.67648137 1.672276 -0.11861635 -0.3090366 -0.24403806 0.5769439 0.76574886 -0.5052771 0.554819 0.07559323 -0.7242936 -2.4162765 -0.8096572 0.4080963 -0.13303688 -0.099579066 0.54776156 -0.72246945 -0.33974087 0.6002233 -0.11048415 -0.7477323 -0.09594806 -0.3369485 -0.55868304 -1.3370395 -1.4601285 0.9597644 -0.91805893 -0.013923448 0.8014269 -0.008746803 -0.16467254 0.25661796 -0.2766363 -0.3122149 0.96511745 0.9146102 0.6395797 -0.40640697 0.10728593 0.10644302 1.287894 0.14617635 1.179608 -0.7416491 0.6233022 0.8302041 0.8485782 -0.5073277 -0.2161896 0.007822216 -0.42922896 0.07358634 -0.7873799 0.9764472 0.6331589 -0.36328554 -0.8276115 0.033496235 0.32337686 -0.42960578 -0.3309732 0.5293467 -1.1239856 0.13740563 1.3811742 -0.5071485 0.3349151 -0.38468897 -0.9237364 0.9969832 0.55746865 0.08483297 -0.23793805 -0.2313429 -0.34457207 -0.49086443 -0.8084022 -0.6978262 0.6892137 0.56483483 1.5389729 0.9124723 -0.03974595 0.7292652 1.4416755 0.660638 0.197332 -0.60101354 0.48791626 -0.30199778 1.0192834 -0.28848383 -0.5342139 0.20868787 -1.0017922 -1.3699539 -0.1335958 -0.5251178
CDH1_YEAST 0.16833907 -0.11943414 -0.098486386 -1.3681175 0.43542987 -0.8414335 0.98281413 -1.2225567 0.069202185 -0.1750816 0.9089705 -0.6482763 0.32817364 -0.369429 0.18371126 -0.5884239 0.75762826 -0.3222168 0.19395863 -1.4171393 -0.032249056 -0.81386817 -0.51624316 -0.080312595 -0.25334617 -1.1412451 -0.12465179 -0.009588426 -0.26532918 -0.34196755 0.31275123 0.8465909 1.340699 -1.8398819 -0.841338 -1.0468897 -0.32292622 0.076896265 -1.3079944 0.4602458 0.56302124 0.633067 -0.47739157 0.079558745 -0.63040805 -0.33791128 0.28797582 -0.16562715 -0.71587527 -0.9275748 0.7893137 -1.0545017 0.9729549 -0.48488158 -0.8468276 -0.6094206 -1.057329 1.0637287 0.14098242 0.14220102 0.2716772 -0.3206404 -0.06078722 0.44574958 0.16730845 1.1389433 0.34575388 -0.26780966 -0.09976524 -0.3575735 0.8923009 -0.2417459 0.23554416 0.31965667 1.2940166 -0.6538146 0.4231065 -0.30016333 -0.07359861 -0.60758597 -0.81765205 0.058906727 -0.7358559 -0.6302726 0.62970555 0.66141146 0.60841095 0.18090364 -0.3452118 -0.73796684 -0.38099986 -0.9612831 -0.09506599 0.5166519 0.025074724 -0.18762295 -0.16156144 1.0163043 0.4103957 -0.3471213 -0.71565527 -0.56953657 0.48875433 -0.96610945 0.46227193 -0.30658656 0.5615338 -0.022765761 -1.042319 0.37266827 -0.227693 1.2139976 -0.19609095 -0.07077101 -0.15157127 -0.13135532 0.19536713 0.21329442 -0.016060317 -0.583722 1.198231 1.051821 -0.79095757 1.2900162 0.825031 -0.31386146 -0.8441057 0.37800983 -0.72780836 -0.7251662 -0.4744669 0.59367335 0.022176905 0.60578835 -1.2397369 0.7674862 1.158174 -0.40659952 -0.7339332 0.21942604 0.5781439 -0.9076797 0.03904306 0.46451503 -1.0432482 0.22263685 -0.59407216 0.5657798 -0.38994092 -0.16967112 0.40877438 -0.7843071 -0.48621708 -0.042970754 -0.55534804 -0.39820597 -0.7144754 -0.17276075 0.9161175 0.7970279 0.90499306 -0.40971294 0.75718147 1.1376917 -0.3275095 -0.7185643 1.353022 0.16253737 -1.1606975 -0.6155834 -1.1613232 1.2555832 -0.108970545 0.31458575 0.24491887 0.5055229 0.43414512 0.088181786 -0.59165555 -0.6299521 -0.31135952 0.18844137 -0.66432154 0.7353338 -0.91182727 0.25469306 -0.9657997 0.29111785 -0.5083739 0.025131961 -0.996583 -0.5977777 -0.29476613 1.0517206 0.36388254 0.1308696 -0.14490624 0.43852225 -0.4658332 -0.21764874 -0.08932418 1.2086319 -0.28669578 -0.18063799 -0.7502762 -0.78359437 0.9320396 -0.69205177 -1.3616985 -0.31499332 -0.6727518 -0.62715447 0.21615791 0.2565456 0.14100596 -0.19729736 -0.03765536 -0.46289548 -0.7289602 -0.14981191 0.3517143 0.3459883 -1.4034191 -0.050956555 0.41499487 1.0360144 1.0050809 0.057608027 0.7421707 0.25955024 0.20813318 0.748845 0.5675307 0.3630714 -0.8245902 0.11301267 -0.5593511 1.4556122 0.4759315 -0.23969242 0.56661093 0.39730018 -0.3946455 -0.93702877 0.27262434 -0.16816996 -0.48446625 -1.5006735 0.45146576 -0.91321933 0.3184606 -1.1413648 0.6898192 -0.21848008 1.3719006 -0.69424826 -1.4307377 -1.1041934 -1.0092478 -0.56827384 -0.04708274 0.6838838 0.5327569 -0.21923247 -0.48056012 -0.2143245 0.18865848 0.17941794 0.84712774 -0.17266831 0.36988494 -1.0288166 -0.022571888 -1.4080461 -0.3935967 -0.1403397 -0.07721586 0.2828814 0.5242976 0.03689046 0.019450814 0.46425286 0.12058363 -0.7766758 -0.2509665 -0.33248705 -0.6712196 0.058441482 -0.6709467 -1.1917422 -0.5374994 0.48459944 -0.4242823 -0.13493 -0.1495813 0.7327237 -0.4875267 1.1968043 -0.069817424 -0.7966839 0.29502717 -0.03479876 0.06247876 0.30872306 -0.10725571 -0.5376769 -0.8911007 -0.16269779 -0.65142554 -0.10868367 -0.26837593 0.380686 -0.92414904 0.08904831 -0.18639483 -1.3513153 -0.024492178 0.4871009 0.88290626 0.37839136 0.31998616 -0.69777995 -0.3404092 -0.7742014 -0.07022469 -0.4645745 0.3256306 -0.2723511 1.429874 -0.6326666 0.12760429 -0.7657334 -1.835331 0.42870274 0.43211016 -0.095892996 1.0473559 -0.64423084 -0.52552396 0.36129743 0.09199667 0.08442225 0.7289165 -0.343481 -0.79178894 -0.5668273 0.5550101 0.49861613 -0.68258077 -0.26161605 0.55546343 -0.5604537 0.24225397 -0.43593436 0.1074096 -0.06410566 0.5986265 -0.15693852 -0.3625205 1.4433217 -0.24160881 0.12280955 0.7976502 -0.23872876 -0.3194706 -0.25322556 -1.2720492 -1.7411137 -1.1547102 0.50944096 -0.9925741 0.2725065 -0.6002711 -0.4260654 -0.86448574 0.6947177 0.69296724 0.9128243 -0.11819796 -0.5282017 0.47737798 0.39865294 0.3691153 0.52310765 -0.039366696 0.022819716 0.14548552 -0.17253041 1.2288027 -0.52387697 -1.2293872 -0.42375293 0.4647529 0.2999777 -0.08484794 0.25409847 -0.18010184 0.648752 -0.9904388 0.23853748 0.8482648 -0.34120518 -0.24747677 0.35135776 0.5670365 -0.9638731 0.13713586 0.28842473 0.9417092 -0.9898678 -0.017595446 0.57918626 0.021293 1.061702 -0.4461525 0.24263966 7.0273134e-05 -0.74453205 0.07377488 -0.43106866 0.3312058 0.35160577 -0.06354423 -1.0278387 -0.5218306 0.9500489 0.4303724 1.2941363 0.14974765 -0.685148 -0.47461167 0.7643439 -0.31277308 -0.046967342 -0.6736773 -0.108084604 -0.17045279 -0.7593897 -0.82697964 1.0150758 0.026117597 -0.46834454 0.5501512 -0.4693308 -0.041062545 -0.2536682 0.33781186 -0.5871485 0.4001791 0.7881123 -0.18447351 -0.9547161 0.18315992 -0.43481493 0.5013776 0.71970886 1.0827372 0.0216708 0.3400676 0.22940555 0.20001996 -0.9975537 0.15481685 -1.041853 0.17186657 -0.6618198 -0.49648213 1.0435214 0.6562145 0.33611688 -0.49351126 -0.026874792 -0.0024160475 -0.047509775 -0.3530469 0.35180074 -1.6996176 -0.34033164 1.1135991 -0.53136015 -0.30955803 -0.17488988 -0.7926639 1.0511343 1.0630548 -0.46857476 -0.6873852 -0.22235051 -0.29627785 -0.47595936 -0.9002059 -0.35868576 0.29680905 -0.06583752 1.4143018 0.16533417 0.7515681 1.4442675 1.5088456 -0.010851282 0.27115548 0.032478157 0.038226545 -0.37595266 0.47996372 0.18790029 -0.2495702 0.90615875 -0.95941716 -0.4222374 -0.020666674 -1.0587199 0.5543243 0.12832005 -0.076008156 -0.98893946 0.1870217 -0.21497646 0.7655457 -1.9078604 0.02196877 0.50422484 1.0297086 -0.850225 1.0220587 0.14628659 -0.5143948 0.4574256 0.8072921 -1.0469124 0.9284113 -0.9800313 0.22305036 -1.2810416 -0.48522338 -0.5876469 -0.664754 -0.68462116 -0.03824926 0.87090045 -0.095878266 -1.2103348 0.6801885 0.9452195 1.3295627 -1.2137005 -0.5769676 -0.64399457 -0.3343257 -0.11750428 -0.7416994 0.6599552 -0.006797619 0.33523425 -1.3686769 0.14002267 -1.6939017 0.30480543 0.80558646 -0.9539105 -0.29042643 -0.63964194 1.303302 -0.6272877 0.6124425 0.6222366 -1.3286912 -1.2364284 -0.4743081 -0.009381747 -0.08960643 0.92994547 0.4422287 -0.55719197 0.35537666 0.17999074 0.51127875 0.9753537 0.23472416 -0.91472405 0.31423578 -1.1558294 0.9824604 -0.7371745 1.0294048 -0.6320311 0.88479805 -1.0135647 0.8129619 -0.8591197 0.040497232 -0.7019514 -1.141426 0.38468868 -0.42486086 -0.9404837 -0.49686342 0.14276014 1.4415886 1.4777 -0.25597525 -0.4380272 -0.74072057 -0.95061284 0.42767388 0.9712497 0.4157431 -0.2016528 0.2994157 0.83465147 0.03240605 -0.96753645 -0.41454306 -0.7789483 -0.23578675 -1.3074516 0.48698825 -0.10290992 0.9721352 -0.17787237 -0.13592112 0.92244464 -0.7580844 0.031883746 0.21805449 -0.23771891 -0.18460323 0.88791406 -0.21833315 -0.09417788 -0.47551337 -0.26826358 0.66750866 1.0595086 -0.51599956 1.0305456 0.8363096 -0.15915778 -1.9328022 0.14489895 0.43773943 -0.5788069 -0.47560492 0.43980393 -0.1954886 0.7917584 -1.0829366 0.7687508 1.0080429 -0.48557836 -0.8547331 0.6564633 -0.69776046 -0.9129044 -0.38882947 -0.27852517 -0.43928328 -0.106163934 -0.6467875 0.5744162 0.03319634 -0.0406724 0.6625992 -1.0423628 -0.8338472 -0.6005126 -1.0967801 -0.3786028 -1.2384803 0.0123421345 1.2461349 -0.29497787 0.9003094 0.0158231 0.12381228 0.9197385 0.14826567 -1.6152763 1.5732319 0.31815153 -1.3075897 -0.09703399 0.09838764 0.63198864 0.22707006 -0.5637526 0.92615795 0.366309 0.4282249 -0.5412696 -0.3121327 -1.6134679 -0.39037865 1.2631369 -0.3536715 0.9871117 -1.1163405 -0.08552383 -1.3147739 0.6220068 -0.5694836 0.6812686 0.30861855 -0.05940041 -0.7871726 1.5783637 -0.89710015 -0.23887882 -0.82454616 0.15026721 -0.4548606 -0.54645455 -0.60736275 0.92882854 -0.24254031 -1.5461708 -0.59380925 -0.8632067 0.97852117 -0.30768433 -1.4696634 -1.3581522 -0.845846 -0.6336049 0.19783229 0.6080423 -0.28607726 0.057396214 0.09648268 -0.04475097 -0.36587304 0.4329633 0.2597258 0.19530076 -1.176462 0.110976696 0.7284961 1.4119825 1.6956717 -0.02572389 0.25682688 -0.7557166 0.88552713 0.4716552 0.24910286 1.2039977 -1.4797032 0.35982227 -0.94100714 1.7186455 0.44143867 -0.11671255 0.79624194 0.15216163 0.23983166 -1.3900864 0.154665 -0.62685424 -0.567444 -1.3706691 0.28042978 -1.5336611 0.6779124 -0.8830613 0.37103158 -0.9479038 0.69747376 -0.43544984 -1.6767632 -0.8441286 -1.6158243 -0.41694522 0.065081425 0.46306324 0.2622169 -0.24476829 -0.37742728 0.790926 0.71964395 -0.05405155 0.6875437 0.93926543 0.7955173 -1.0181572 -0.86947423 -1.3151392 -0.9548713 -0.33404332 -0.9887775 0.66726243 0.46961364 -0.83071196 -1.0320481 1.4901087 0.44001818 -0.4759594 0.3823897 -0.5097779 -0.83946574 0.21064743 -0.61894155 -0.8190489 -0.6425382 0.42123073 -0.9863242 -0.070841566 -0.64583427 0.6611648 -0.047286175 0.87387323 -0.14750767 -0.92206544 -0.47732306 0.5751151 -0.0641963 -0.07219465 0.9371939 -0.74592876 -1.0534289 0.122533776 -0.29758334 0.33359176 0.62035656 -0.11215435 -0.60044014 0.71266073 -0.34415093 -1.2126305 -0.5878553 0.8594681 1.6696972 -0.42201048 -0.039343994 0.24430089 0.7711376 -0.26362938 0.32594302 -0.9267518 -0.22137058 -0.19462378 1.2415946 -1.2732607 0.30403525 -1.0429555 -1.060996 0.23890921 0.6121877 0.008892435 1.3476245 -0.62013483 -0.7542366 0.08991831 -1.060783 1.1311278 1.7455734 -0.35938472 -0.52801317 -1.9858072 0.02252687 -0.060099207 -0.6959646 -0.8053724 0.7306739 -1.1236572 -0.7889475 -0.6062001 0.27960053 -0.49278173 0.42464408 -0.31727943 -0.18055093 0.9341583 0.032538775 0.19901593 0.5019125 -0.5873904 -0.5170365 -0.32433113 -0.55602187 -0.32490152 -0.82973653 0.5419146 -0.7152555 -0.080406114 -0.42875904 -0.52346283 -0.6290939 0.57437956 0.70845866 1.1255894 -0.07379526 -0.86757153 0.12140985 0.6354827 -0.43312806 0.38681802 -0.43550324 -0.49892086 0.23107901 -0.44964758 1.2295446 0.60819227 -1.502601 -0.51140803 0.43206206 1.1367563 0.11642369 0.25961706 0.052769274 -0.1579791 -1.8711866 0.6426524 1.5277767 -0.45872587 0.9169322 -0.2182949 -0.0047516674 -0.982399 -0.11360457 0.2931015 0.5404893 0.37111986 0.05054127 -0.4194889 0.682839 1.587889 -0.0801414 -0.29224798 -0.19196054 0.56723607 0.77180415 -0.5160281 0.52274215 0.043121267 -0.6817445 -2.3379636 -0.82044905 0.4144186 -0.072484404 -0.18184915 0.48427707 -0.6447522 -0.28969646 0.6102637 -0.14164123 -0.76445496 -0.07829585 -0.3805563 -0.5476874 -1.2934239 -1.4204895 0.9650979 -0.9637991 0.0260141 0.76423323 0.06518136 -0.11018982 0.27399963 -0.29395497 -0.31501234 0.9449722 0.87491924 0.6657771 -0.38536033 0.16354558 0.14241536 1.3033923 0.13903067 1.1474451 -0.7061418 0.68324363 0.8269677 0.8821429 -0.47167158 -0.30244344 -0.013626409 -0.51087713 0.08420803 -0.8354047 0.96101415 0.6866219 -0.3332692 -0.8268425 0.07708602 0.31449166 -0.41283005 -0.34240395 0.4831935 -1.1445174 0.16380402 1.4011745 -0.5846353 0.3293419 -0.40203562 -1.0249059 0.932104 0.6014288 0.07181901 -0.251104 -0.25964707 -0.33199185 -0.5610957 -0.79457176 -0.64813465 0.6785487 0.53005445 1.541085 0.9131001 -0.058089424 0.6968177 1.4547597 0.6272704 0.23427434 -0.5802643 0.38351345 -0.22054613 0.9298123 -0.31220227 -0.40008202 0.21474123 -0.98880833 -1.3699658 -0.13501182 -0.4219838
CBF3C_YEAST 0.17362387 -0.09264848 -0.12264345 -1.3771132 0.43953857 -0.8780694 0.95286566 -1.2367586 0.11268041 -0.17862904 0.87345934 -0.6912494 0.33328113 -0.38291392 0.1924588 -0.57564825 0.75476193 -0.27888563 0.16140328 -1.4573206 -0.10188314 -0.82329935 -0.47688603 -0.05905832 -0.22491534 -1.1680315 -0.08014068 -0.07247701 -0.25475478 -0.3628533 0.30940238 0.843267 1.3251442 -1.9008433 -0.83729887 -1.0879732 -0.3678423 0.07521901 -1.3899164 0.48514056 0.61548764 0.6026557 -0.49277773 0.058163967 -0.60464185 -0.3411361 0.2725944 -0.13677914 -0.7191109 -0.97092944 0.7643018 -1.0742209 0.98369646 -0.49280754 -0.824842 -0.55141586 -1.103949 1.086597 0.14200193 0.13424744 0.30621925 -0.2879366 -0.07335792 0.43396387 0.11322999 1.1661395 0.32728752 -0.27544585 -0.13814698 -0.30643764 0.8760834 -0.23400895 0.24118817 0.3537322 1.3174047 -0.6458332 0.4465375 -0.28360698 -0.09255004 -0.5759778 -0.7986401 0.04613021 -0.77677923 -0.59794533 0.65329105 0.7218422 0.57573026 0.17413265 -0.36728892 -0.77427864 -0.3901906 -0.9471429 -0.1277574 0.5269363 0.018209012 -0.19881378 -0.20571208 1.0401365 0.41403183 -0.32760355 -0.72718877 -0.5137739 0.46960238 -1.0019604 0.47649917 -0.34959364 0.5454173 -0.002502342 -1.0437955 0.361963 -0.19593154 1.21704 -0.120753884 -0.09964949 -0.16375509 -0.15134792 0.20649998 0.22061764 0.0457212 -0.59639573 1.2268636 1.0416383 -0.78609425 1.3068558 0.82687324 -0.2740087 -0.83898544 0.38950717 -0.74708015 -0.7644213 -0.51266617 0.63147044 0.045919012 0.6060322 -1.2636904 0.7398045 1.1893532 -0.43635985 -0.7635513 0.20701455 0.5964068 -0.9257753 0.08142369 0.47862974 -1.0734075 0.26506191 -0.60993356 0.58301914 -0.39774477 -0.16727917 0.4407517 -0.7852989 -0.4534038 -0.06766256 -0.5482607 -0.36413702 -0.7320084 -0.22225451 0.90709466 0.8407397 0.94482 -0.45768884 0.7888315 1.1804295 -0.3209758 -0.6639506 1.3628387 0.15409216 -1.1970412 -0.6427809 -1.2182583 1.299929 -0.15172128 0.30619308 0.23101278 0.52929854 0.46417966 0.12799339 -0.62733644 -0.62460446 -0.28962722 0.13496451 -0.68266183 0.74960995 -0.9391728 0.23856519 -0.98197985 0.2384407 -0.48755375 -0.0013569618 -1.055729 -0.6015101 -0.28766462 1.05444 0.40805125 0.15609239 -0.12812574 0.4313334 -0.43895268 -0.17730562 -0.075466454 1.2111006 -0.2777518 -0.15633754 -0.731509 -0.82302886 0.95844966 -0.69652206 -1.3629969 -0.3267673 -0.68078 -0.65146 0.24364467 0.22972749 0.1438843 -0.19032009 -0.0074747675 -0.45105565 -0.7601766 -0.16062142 0.36594546 0.35860202 -1.4514467 -0.036441762 0.40167382 1.0056995 1.0261645 0.06978088 0.771049 0.32538784 0.20511161 0.75673586 0.5707325 0.34345773 -0.8064888 0.11768922 -0.5574067 1.4360046 0.49520585 -0.24694462 0.582148 0.4038918 -0.43872294 -0.94745755 0.25925913 -0.15546997 -0.5621736 -1.5454351 0.47113004 -0.8877959 0.32526752 -1.1686454 0.6809173 -0.19648707 1.4233006 -0.71950173 -1.4145402 -1.12193 -1.0058597 -0.5874957 -0.063484706 0.72882074 0.553046 -0.23151784 -0.48361135 -0.23819947 0.20872252 0.17261608 0.8800381 -0.1587731 0.3832002 -1.0754477 -0.0095728515 -1.4229132 -0.41825834 -0.114676274 -0.041858613 0.32256433 0.53821474 -0.00293007 0.028188167 0.42213985 0.17163074 -0.7504554 -0.30371138 -0.3219978 -0.67979026 0.014010139 -0.6743352 -1.2059429 -0.5792439 0.44624582 -0.39899027 -0.13015892 -0.14324461 0.775237 -0.43483233 1.2379833 -0.09889338 -0.7448129 0.30307785 -0.0838825 0.057460602 0.29459813 -0.16764927 -0.5124368 -0.87985736 -0.18983036 -0.6440105 -0.12924905 -0.30760422 0.41572937 -0.9446643 0.089518525 -0.14159288 -1.3748398 -0.018617406 0.47298682 0.9109016 0.4192957 0.32349694 -0.73065823 -0.35022548 -0.7778833 -0.0886514 -0.42962897 0.35574105 -0.25812805 1.4913038 -0.6121803 0.12858458 -0.72706443 -1.9072881 0.4391882 0.48784682 -0.12483802 1.0611545 -0.6327264 -0.5266657 0.36245358 0.12938231 0.07508638 0.73837405 -0.36242548 -0.83356553 -0.5594494 0.6175635 0.51788056 -0.67482406 -0.26553726 0.5566032 -0.6050679 0.30279097 -0.39213797 0.13399738 -0.05574317 0.66665727 -0.09662189 -0.34852383 1.4919194 -0.28390002 0.10958291 0.8250644 -0.22000618 -0.33618417 -0.28936663 -1.315196 -1.8094326 -1.186227 0.4994738 -1.0543503 0.2732344 -0.63954973 -0.45225224 -0.8556393 0.67692137 0.69169647 0.91358256 -0.12457785 -0.49094594 0.4992591 0.3946999 0.39452478 0.5488987 -0.07021732 0.013133633 0.15957944 -0.16925983 1.234023 -0.5568156 -1.2361964 -0.4206438 0.4696358 0.27830377 -0.09894741 0.2773252 -0.19446732 0.6569508 -0.97908217 0.2616397 0.85288996 -0.3683703 -0.29297718 0.34581485 0.59287196 -0.95784664 0.16812897 0.29982704 0.96304274 -1.0550071 -0.054328468 0.6480942 -0.02827596 1.0709866 -0.45461643 0.22567682 0.016399523 -0.72413254 0.05433977 -0.49726105 0.346791 0.34571767 -0.018876217 -1.0608912 -0.53216773 0.99675256 0.44282904 1.3710631 0.07825263 -0.68684095 -0.4964504 0.8139028 -0.313192 -0.03431232 -0.67183447 -0.09422904 -0.17767179 -0.7166269 -0.85696554 1.0074952 0.042356912 -0.50287807 0.56651795 -0.4560264 -0.017219523 -0.28467226 0.34818265 -0.65589625 0.38043347 0.7594231 -0.17871927 -1.0152377 0.16955854 -0.4455626 0.45807385 0.72281075 1.1049353 0.016442237 0.30797443 0.19179423 0.15664361 -0.9953839 0.19305074 -1.0873655 0.22910522 -0.6826267 -0.52668494 0.99421763 0.68769056 0.34119764 -0.49495104 -0.034991562 -0.018173406 -0.03454328 -0.37504455 0.3260539 -1.7494712 -0.3764703 1.155809 -0.5147087 -0.33185464 -0.16716985 -0.77585936 1.0446876 1.0971752 -0.47156894 -0.74727696 -0.23610623 -0.29947236 -0.4510776 -0.9682887 -0.34471145 0.2844946 -0.07809566 1.4080896 0.20133547 0.79414433 1.4764571 1.5274278 -0.04948875 0.25618458 -0.021110512 0.022497432 -0.43477717 0.49114966 0.2193019 -0.21507812 0.9002223 -0.96568066 -0.41991886 0.017482655 -1.1218427 0.5284057 0.1410789 -0.08608612 -0.98463315 0.23222464 -0.24189228 0.72059196 -1.9198254 0.04589282 0.53337884 0.967171 -0.8709149 0.997569 0.14852579 -0.47773862 0.45404685 0.77912337 -1.000667 0.96918017 -0.9494669 0.25026372 -1.2673753 -0.46213087 -0.59794617 -0.67320585 -0.6435488 -0.041095283 0.83012867 -0.0383758 -1.2537835 0.601453 0.931246 1.3413048 -1.226776 -0.56985956 -0.6697362 -0.32035637 -0.12337444 -0.6938793 0.64495116 0.027017713 0.4368837 -1.4368781 0.17974041 -1.7277985 0.31585005 0.80568486 -0.9586471 -0.23876101 -0.55622274 1.3785719 -0.6009259 0.56523126 0.66110915 -1.3196472 -1.2013261 -0.44868138 0.036442757 -0.046447795 0.97043914 0.45591 -0.5705649 0.41766235 0.20507817 0.4510672 0.93194693 0.2910399 -0.98421067 0.34452093 -1.1236596 0.97450036 -0.7212278 1.0354191 -0.6063357 0.8483491 -1.0155917 0.77620095 -0.8753132 0.09959831 -0.7032003 -1.0893439 0.37498677 -0.39963683 -0.9685168 -0.52352166 0.15943216 1.4226798 1.5068852 -0.25313058 -0.41073713 -0.8288817 -0.9586899 0.45385942 0.95709974 0.39127967 -0.18512361 0.25057697 0.8581512 -0.0043384694 -1.0172461 -0.38189805 -0.75699234 -0.20343322 -1.2702712 0.49545386 -0.119616516 0.9406523 -0.17975463 -0.13198434 0.9123302 -0.73321176 -0.012321536 0.19188662 -0.23113191 -0.21830595 0.8596166 -0.27367163 -0.100752555 -0.5178296 -0.25025344 0.68440247 1.0462385 -0.49581537 1.0419928 0.8399689 -0.13687678 -1.930806 0.13644469 0.47171912 -0.6070036 -0.41294762 0.42794552 -0.19531053 0.81829125 -1.0025254 0.81223804 1.0474187 -0.5548221 -0.8968701 0.62289834 -0.6550811 -0.91015434 -0.38678184 -0.28637996 -0.45784435 -0.052183677 -0.6609948 0.5490885 0.026401974 0.044757873 0.6500597 -1.061711 -0.8564852 -0.6056005 -1.0569271 -0.38478598 -1.2370943 -0.004606361 1.240944 -0.3285875 0.8964162 -0.07687456 0.19980837 0.9324346 0.13681021 -1.6251348 1.5684508 0.32155916 -1.2818884 -0.10388571 0.068816 0.6832889 0.22185785 -0.54746956 0.97934884 0.36629167 0.4560671 -0.56837684 -0.34018615 -1.5603107 -0.35822693 1.2614514 -0.38363585 0.97084904 -1.1531885 -0.08140838 -1.2922372 0.6307728 -0.52086097 0.7007952 0.2849826 -0.03487221 -0.73881704 1.6097145 -0.8808017 -0.25049487 -0.80718565 0.10967242 -0.4875597 -0.5175337 -0.64092475 0.9399438 -0.22198974 -1.596726 -0.54716545 -0.8361488 0.9712083 -0.34568426 -1.4218551 -1.3513708 -0.88316983 -0.6868287 0.19061416 0.53501385 -0.27965847 0.005057896 0.09772036 -0.039210085 -0.3929813 0.44121575 0.24800396 0.19235997 -1.1626486 0.07159305 0.7852249 1.4244891 1.6849957 -0.04712407 0.2625639 -0.7921524 0.89392775 0.48594657 0.27309754 1.1869336 -1.5290956 0.3419725 -0.9497533 1.6333414 0.4379474 -0.12146219 0.82524043 0.13070194 0.23283295 -1.3717948 0.16221921 -0.62011594 -0.5639315 -1.3905287 0.3111296 -1.5639358 0.7393532 -0.87704325 0.36125493 -0.973612 0.6759476 -0.40907112 -1.6739912 -0.7706304 -1.608335 -0.36795184 -0.019718423 0.5007488 0.23206526 -0.18517198 -0.39363444 0.8323931 0.7116249 -0.043729883 0.632349 0.95902663 0.80354357 -1.0224961 -0.8417218 -1.3094882 -0.9710691 -0.33956707 -0.9584971 0.6860809 0.46256486 -0.7848703 -1.0391039 1.5200979 0.3982295 -0.50755614 0.4265789 -0.47727445 -0.8403106 0.15975873 -0.6258941 -0.83212715 -0.59615666 0.41254273 -1.0040975 -0.038610198 -0.6387792 0.72695804 -0.021789275 0.834322 -0.14722906 -0.93530416 -0.52629185 0.57734066 -0.06458777 -0.11448461 0.9240945 -0.68754435 -1.0059147 0.107780516 -0.31480658 0.34120354 0.633001 -0.1550168 -0.59046525 0.6922403 -0.332011 -1.2064017 -0.5512354 0.9328672 1.6623096 -0.4895518 -0.04521866 0.18779068 0.72551864 -0.25353837 0.37862042 -0.9593392 -0.20774646 -0.18606307 1.2807659 -1.2709962 0.26809618 -1.0841438 -1.1179854 0.21065705 0.67522293 0.0215078 1.3075713 -0.6152933 -0.7903822 0.15138261 -1.0875064 1.1383811 1.7821611 -0.3527945 -0.543161 -1.9359637 0.022464685 -0.08717797 -0.6716302 -0.7710061 0.74819714 -1.1552576 -0.80315095 -0.6102426 0.26055348 -0.46695533 0.46607646 -0.35520402 -0.22093938 0.9459954 0.01438285 0.239792 0.48506594 -0.6242947 -0.546096 -0.29259384 -0.56318736 -0.36296293 -0.8380297 0.47015357 -0.7140071 -0.06131911 -0.40452364 -0.5437868 -0.6175686 0.5831227 0.66457045 1.1556927 -0.018695647 -0.7945755 0.14856625 0.6795728 -0.41466108 0.41009057 -0.44339654 -0.5191217 0.16432886 -0.5121533 1.2319266 0.6737189 -1.5677342 -0.50600284 0.472975 1.1117617 0.09125366 0.28308538 0.08340642 -0.10616497 -1.8298664 0.71844226 1.5490837 -0.4756743 0.8654466 -0.25664893 -0.034856543 -1.0167674 -0.115773916 0.3258911 0.52486926 0.3789554 0.024698002 -0.43337277 0.656358 1.6248026 -0.11647742 -0.26113942 -0.2287416 0.5753003 0.7612197 -0.52095044 0.5747553 0.07156093 -0.7260826 -2.323066 -0.77983683 0.40121767 -0.10169675 -0.14670302 0.48756972 -0.71425277 -0.3122442 0.6384218 -0.18514603 -0.7837012 -0.11337636 -0.36310104 -0.55104595 -1.3037207 -1.460115 0.9660395 -0.9515896 -0.0046984465 0.7594301 -0.019502858 -0.16603048 0.2517682 -0.30099788 -0.32734737 0.9808128 0.86194247 0.65900654 -0.4376162 0.105759345 0.12416696 1.3050007 0.13137569 1.1458944 -0.7632818 0.6082099 0.84105307 0.8560776 -0.4827597 -0.2314076 0.0037562798 -0.4781076 0.042838752 -0.8178215 0.9827816 0.64729446 -0.34547856 -0.80270594 0.038412575 0.30465558 -0.42932558 -0.33542705 0.49767092 -1.1088537 0.16435096 1.3609902 -0.55963176 0.33396316 -0.4009891 -1.019528 0.94309235 0.5621792 0.04223645 -0.23753627 -0.22937055 -0.3703607 -0.5486631 -0.79996413 -0.64417773 0.7164057 0.52052885 1.5147165 0.93546563 -0.0036870986 0.6720359 1.4281483 0.6455834 0.1670456 -0.58251613 0.45179263 -0.27820215 1.0090619 -0.24513079 -0.4545097 0.20687898 -0.9624031 -1.3777775 -0.11961168 -0.51631945
DIA2_YEAST 0.18075855 -0.09554364 -0.16048619 -1.3924325 0.433989 -0.90416104 0.9469158 -1.2527827 0.12792861 -0.16019677 0.869167 -0.71088 0.33705115 -0.39417663 0.19310252 -0.5636306 0.7540478 -0.2567359 0.15271078 -1.4676288 -0.14542188 -0.82621205 -0.48050493 -0.058632936 -0.24949135 -1.1979008 -0.06653606 -0.09232078 -0.24743032 -0.36591467 0.29756752 0.84803486 1.342819 -1.9256098 -0.85155886 -1.0910513 -0.36367494 0.064969495 -1.4125744 0.47624686 0.63110477 0.5958009 -0.5105423 0.058372907 -0.60294354 -0.33342013 0.26854828 -0.1254802 -0.7250085 -0.98337585 0.7605681 -1.0789224 1.0006163 -0.50425637 -0.82745516 -0.5408767 -1.121847 1.0944624 0.14683966 0.115271926 0.32682115 -0.26063046 -0.073992066 0.42620176 0.08913183 1.1738006 0.3280885 -0.28049186 -0.1391867 -0.2948868 0.8822275 -0.24338332 0.24089013 0.37580946 1.3229648 -0.6481555 0.44517416 -0.27976677 -0.10471867 -0.59492904 -0.77930164 0.034600493 -0.79540104 -0.60235244 0.65987355 0.74228305 0.57975334 0.16643402 -0.36467943 -0.7888016 -0.37584558 -0.95973593 -0.14055547 0.53404737 0.010363723 -0.20165251 -0.21645555 1.0413493 0.4236882 -0.32075545 -0.7372247 -0.5127056 0.46309927 -1.0210527 0.49218306 -0.35338274 0.53907883 0.0055567324 -1.0519812 0.34749165 -0.1662204 1.2203274 -0.10771068 -0.10650916 -0.16574228 -0.16888921 0.22564754 0.2130554 0.07208722 -0.59512043 1.2442635 1.0503734 -0.77527034 1.3155855 0.8277907 -0.2829993 -0.8385773 0.38770765 -0.74710196 -0.7674464 -0.5154461 0.627706 0.04674129 0.61520374 -1.2798773 0.7418853 1.187082 -0.46398926 -0.7647028 0.21102677 0.59851915 -0.9312024 0.07562738 0.49438414 -1.0918682 0.27361518 -0.6267539 0.59873503 -0.41241267 -0.17905462 0.45271802 -0.79914105 -0.45254222 -0.084849514 -0.5512371 -0.3518934 -0.7514533 -0.23970011 0.91291624 0.8563251 0.934463 -0.48604563 0.78953516 1.1807088 -0.32907882 -0.6520732 1.3985795 0.16767836 -1.2163136 -0.6425927 -1.2464157 1.3153112 -0.15415083 0.3108447 0.22816698 0.5311624 0.4776424 0.14002654 -0.6450899 -0.62778443 -0.27439314 0.12541124 -0.681625 0.7705511 -0.9469131 0.23890974 -0.98696107 0.20475554 -0.4905111 -0.023663197 -1.0800656 -0.585456 -0.30083558 1.0535703 0.42979717 0.16558082 -0.11651482 0.44121656 -0.42908368 -0.15678225 -0.09959887 1.228121 -0.27919593 -0.1244419 -0.73635846 -0.83249956 0.979375 -0.7123629 -1.3513472 -0.34168264 -0.69890887 -0.6590858 0.26889417 0.21500349 0.14003302 -0.19331555 -0.0041210386 -0.4392945 -0.76159054 -0.14848125 0.3816428 0.3696437 -1.4701412 -0.02469157 0.40296555 1.0008947 1.04153 0.08338678 0.78556776 0.3491042 0.20091759 0.7555855 0.56052035 0.33325258 -0.82193464 0.13617267 -0.55585444 1.4291992 0.49877772 -0.26479906 0.5849932 0.41786692 -0.45946124 -0.95944875 0.2419333 -0.124643125 -0.5789369 -1.548794 0.4745296 -0.87989795 0.33792558 -1.1787918 0.69743335 -0.18144247 1.442789 -0.743605 -1.4212466 -1.1258446 -0.9943616 -0.6048191 -0.059117895 0.7350763 0.54464847 -0.21466812 -0.4870929 -0.2784551 0.2052511 0.16040018 0.9087409 -0.17734125 0.40410477 -1.1181232 0.02449494 -1.4307951 -0.4322217 -0.12840246 -0.017423902 0.3172796 0.5451384 -0.0012331425 0.017098129 0.416864 0.17933317 -0.7306898 -0.31275067 -0.30990726 -0.6812611 0.0007164457 -0.6873943 -1.2087743 -0.5812622 0.43944058 -0.3882793 -0.13716951 -0.13999236 0.79644245 -0.41529232 1.2528675 -0.089480214 -0.7476105 0.31559214 -0.10604717 0.05512472 0.29510403 -0.16576831 -0.48923013 -0.8965184 -0.20358455 -0.64343786 -0.14234181 -0.29749027 0.40784058 -0.9607593 0.10792323 -0.13447592 -1.370823 -0.0028820294 0.46201712 0.91098076 0.4358228 0.31041571 -0.7384419 -0.3503107 -0.77727175 -0.08582479 -0.42437354 0.36661318 -0.24035855 1.5148251 -0.6046301 0.1293353 -0.71852154 -1.9357086 0.43406034 0.50708276 -0.1355833 1.0720949 -0.6208981 -0.5350386 0.34194478 0.12400443 0.06879848 0.74446917 -0.37326425 -0.84597856 -0.5767098 0.6160528 0.5269325 -0.68212795 -0.2892706 0.5631153 -0.6004178 0.3270127 -0.36752298 0.14322133 -0.06020799 0.67383987 -0.068712056 -0.34397092 1.518665 -0.30321774 0.10735524 0.8235302 -0.2214037 -0.31979918 -0.31011775 -1.3289417 -1.8321787 -1.1943997 0.50738055 -1.0773745 0.27307683 -0.6693669 -0.4653371 -0.8687433 0.6753863 0.6792043 0.91640073 -0.12938984 -0.48945704 0.52814656 0.3888276 0.39335588 0.56180286 -0.098170035 0.011496736 0.1726116 -0.1592416 1.2057629 -0.5702278 -1.2524601 -0.44039747 0.4675278 0.2569177 -0.090395436 0.27458933 -0.21306059 0.67002565 -0.96887034 0.2660833 0.83723193 -0.38697448 -0.3131606 0.34487858 0.6182827 -0.95835054 0.15619233 0.28546578 0.98835266 -1.1037152 -0.0729658 0.66813886 -0.03749993 1.0733615 -0.4553152 0.2079783 0.019232461 -0.7311465 0.0382311 -0.52310985 0.3642517 0.33827478 -0.021916779 -1.0722216 -0.5488829 0.99051315 0.4418798 1.3938454 0.06477939 -0.6897597 -0.50188094 0.8339834 -0.30788583 -0.048136543 -0.67792284 -0.06125245 -0.17695594 -0.7007173 -0.86910576 1.0023234 0.021562664 -0.5121511 0.55750704 -0.454154 0.012557515 -0.2733319 0.36228862 -0.6830593 0.36937207 0.763607 -0.15869364 -1.0447178 0.18727247 -0.44266123 0.44985485 0.7510715 1.1088892 0.021969276 0.29962635 0.18302284 0.16254584 -0.99581516 0.21874936 -1.110344 0.2353517 -0.7004995 -0.5261596 0.9805433 0.7100281 0.3555865 -0.48091173 -0.051670425 -0.026418133 -0.037106473 -0.35863787 0.3287513 -1.7852026 -0.38855514 1.1631962 -0.5053562 -0.3628073 -0.17466708 -0.79707325 1.0267674 1.102047 -0.4754896 -0.770718 -0.24120072 -0.28123513 -0.4657631 -0.9966763 -0.3295342 0.3007209 -0.085892856 1.4208596 0.2313784 0.78759867 1.4964142 1.5177352 -0.055854727 0.26997334 -0.028792504 0.02602124 -0.4571684 0.48788384 0.21738294 -0.2092842 0.88002545 -0.9663191 -0.42854685 0.03659702 -1.1633197 0.5222691 0.12089788 -0.06515336 -0.9927886 0.1847074 -0.25747123 0.7570833 -1.94085 0.05980801 0.53808427 0.987401 -0.8672562 1.080537 0.13847877 -0.49700642 0.4233868 0.8222211 -1.0490992 0.9659239 -0.9538488 0.2026041 -1.2844447 -0.48647577 -0.56871897 -0.7005162 -0.64209074 -0.092707105 0.8228531 -0.057632316 -1.2076827 0.63057965 0.8920832 1.2937238 -1.1973532 -0.6093909 -0.649208 -0.28029987 -0.112642355 -0.7296071 0.61558664 0.0079202 0.3709695 -1.3589569 0.19366302 -1.7041111 0.29649144 0.78309804 -0.96682894 -0.27702364 -0.645547 1.3546755 -0.6315268 0.5689567 0.6296996 -1.2785956 -1.1811683 -0.4337093 0.038594373 -0.056732174 0.92274475 0.48290795 -0.5708313 0.33916157 0.19368942 0.46059188 0.954773 0.2322038 -0.941823 0.2866363 -1.0947889 1.0175017 -0.72158986 1.0458392 -0.61416686 0.9020129 -1.0118473 0.8068085 -0.8690871 0.10133363 -0.7130028 -1.1183392 0.34915277 -0.42960006 -0.9323285 -0.49485683 0.15690443 1.4309782 1.4999329 -0.2654818 -0.4335545 -0.76073503 -0.9335801 0.4139834 0.9518224 0.42427737 -0.1743957 0.23403768 0.8545904 -0.011751373 -0.99159116 -0.42748603 -0.77758884 -0.20709683 -1.2657291 0.49731377 -0.098968215 0.92672205 -0.16489746 -0.15856348 0.88886935 -0.71020585 0.023795234 0.26338434 -0.2280998 -0.18613395 0.8398376 -0.28385958 -0.13839863 -0.53006494 -0.25079396 0.6978096 1.0598571 -0.5344694 1.0648501 0.86168206 -0.155418 -1.9259969 0.13781561 0.40158796 -0.6066061 -0.40279573 0.40115115 -0.22159033 0.8061003 -1.0153584 0.78740627 0.99699944 -0.542739 -0.8583737 0.66339636 -0.7338144 -0.8945543 -0.37182555 -0.26250812 -0.45817265 -0.07490502 -0.6528845 0.54740494 0.03607726 -0.02289422 0.6185088 -1.0781509 -0.8511657 -0.63011754 -1.1180732 -0.3001831 -1.2786645 0.0018760221 1.2746719 -0.26658034 0.86704767 -0.05993878 0.085612975 0.9262721 0.17113887 -1.6118948 1.5677439 0.33003736 -1.3342541 -0.09232081 0.07569615 0.6573154 0.2369899 -0.62417763 0.9466133 0.4147041 0.4455691 -0.5064905 -0.33410552 -1.6281699 -0.36417708 1.2522587 -0.3207474 1.0193609 -1.1501583 -0.04641751 -1.319276 0.62844753 -0.5405356 0.6987514 0.30136183 -0.062252697 -0.7957825 1.5739882 -0.9117531 -0.2317362 -0.8195875 0.16497941 -0.44365668 -0.54360616 -0.5988833 0.93033296 -0.22900446 -1.6015836 -0.57704216 -0.88210213 0.975638 -0.37170133 -1.4885825 -1.304551 -0.8481045 -0.64430696 0.20328926 0.59082097 -0.25157788 0.03333248 0.09493115 -0.095425285 -0.35803482 0.41000012 0.25950462 0.16080715 -1.1970875 0.1319309 0.7787449 1.3932518 1.6956946 -0.07607163 0.25314495 -0.8233169 0.92691463 0.48992524 0.2850029 1.1674387 -1.4711522 0.37356046 -0.9362278 1.6869729 0.44095445 -0.10698553 0.7551783 0.13083407 0.24750124 -1.371774 0.14933166 -0.6060215 -0.58170074 -1.4183301 0.31195423 -1.5689361 0.68451077 -0.85241044 0.3349316 -0.96592426 0.672341 -0.42608857 -1.7242051 -0.84200925 -1.607067 -0.41264772 -0.003538285 0.4456723 0.25066394 -0.1933678 -0.36508274 0.83536154 0.67054325 -0.036457334 0.65524197 0.90311164 0.792612 -1.0246346 -0.8499212 -1.2796983 -0.9664858 -0.32433254 -0.94675624 0.6567092 0.45673275 -0.8306149 -0.9653121 1.5006895 0.440347 -0.44225344 0.41840166 -0.47894168 -0.8123594 0.15736853 -0.64437455 -0.87600756 -0.6411235 0.47041458 -0.976081 -0.028408546 -0.604158 0.70484793 -0.06321827 0.8457823 -0.17400412 -0.9532856 -0.49527147 0.5874795 -0.14898364 -0.023136863 0.90264755 -0.7151138 -1.0290883 0.15049155 -0.27881646 0.3577023 0.5905174 -0.13395841 -0.58041936 0.7000707 -0.33000326 -1.2105248 -0.5546156 0.8780231 1.6876656 -0.49000022 -0.016715255 0.22424439 0.78103644 -0.25268617 0.32898265 -0.9538196 -0.16038594 -0.19084735 1.2284012 -1.2481176 0.29959992 -1.0512886 -1.0776836 0.2569357 0.6458778 0.027073916 1.3048404 -0.58470756 -0.7745439 0.112701796 -1.0049574 1.1976974 1.7368095 -0.31177464 -0.47388014 -1.950284 -0.005970896 -0.008273812 -0.6624225 -0.7735015 0.7430755 -1.1309717 -0.8257837 -0.7092458 0.26574025 -0.49995777 0.43082267 -0.3136451 -0.1610563 0.9658967 0.028743383 0.24703659 0.47963935 -0.6013226 -0.55004805 -0.289265 -0.5371583 -0.29981065 -0.82536334 0.55195296 -0.69498414 -0.033327986 -0.414177 -0.5467916 -0.5646022 0.58224905 0.6862865 1.0932808 -0.056818705 -0.8216998 0.15238549 0.6596982 -0.40891436 0.4176697 -0.399422 -0.54524195 0.21788344 -0.49966928 1.1860492 0.628831 -1.5854454 -0.492555 0.45679975 1.1238239 0.057094455 0.24271815 0.05497104 -0.16430949 -1.860902 0.6618685 1.5164204 -0.47721878 0.8659916 -0.21668284 0.025694754 -1.0351639 -0.12443207 0.3206741 0.5137987 0.3950551 0.02941479 -0.41339725 0.652144 1.5658004 -0.060689546 -0.25331917 -0.16774859 0.5603845 0.7506341 -0.51574075 0.55738187 0.050569747 -0.6928652 -2.2695193 -0.814685 0.39595848 -0.0606444 -0.18097104 0.43940943 -0.69269145 -0.2647106 0.6518879 -0.20529647 -0.8260856 -0.10842868 -0.3583295 -0.53746074 -1.273874 -1.4268703 0.9997587 -0.99011284 0.029449115 0.7223466 -0.014516966 -0.14381824 0.2770693 -0.31022143 -0.33194786 0.98950976 0.8312909 0.6773143 -0.44442996 0.13065347 0.1792296 1.3471032 0.130053 1.1399444 -0.73838603 0.6758868 0.8058871 0.8640958 -0.46889248 -0.28731984 -0.017637104 -0.5319625 0.057482246 -0.8613316 0.9872137 0.6953379 -0.34250298 -0.8071057 0.08810736 0.30285293 -0.39863518 -0.35101464 0.4844044 -1.1316965 0.14160664 1.3968693 -0.62298137 0.3045395 -0.43168947 -1.0880144 0.9024371 0.5804822 0.04906384 -0.2644061 -0.23770377 -0.37066478 -0.6030473 -0.7976014 -0.6202385 0.7055945 0.4958923 1.5237345 0.9576119 0.0012113793 0.6949218 1.4450922 0.63482535 0.24016091 -0.5430929 0.4073079 -0.23520268 0.96099037 -0.26632795 -0.35776496 0.19109096 -0.97376555 -1.3853449 -0.11308467 -0.4466997
ELOA1_YEAST 0.18728426 -0.09647008 -0.17538258 -1.4056371 0.44324985 -0.92240393 0.93823314 -1.2910309 0.14110735 -0.14813682 0.8593006 -0.7303764 0.33441645 -0.42416668 0.19732434 -0.56575364 0.75409406 -0.24923354 0.15988946 -1.4915894 -0.16788846 -0.8335445 -0.48894203 -0.05213593 -0.27729768 -1.228981 -0.06656026 -0.09553391 -0.23808841 -0.3804257 0.31474093 0.85844713 1.3699102 -1.9664569 -0.86950636 -1.1187313 -0.3644796 0.049472842 -1.4466472 0.48500645 0.6370647 0.6069397 -0.54195863 0.060033932 -0.6042364 -0.33136234 0.26543674 -0.13372354 -0.7280202 -1.0020256 0.75006557 -1.0885209 1.0245233 -0.5146078 -0.8390191 -0.528856 -1.1355252 1.1051486 0.15535545 0.09360489 0.34812087 -0.24504712 -0.069106884 0.4169979 0.05449263 1.1828887 0.33385813 -0.2924473 -0.16137749 -0.28694507 0.8838073 -0.25563732 0.23591983 0.39005783 1.3446891 -0.66254735 0.4572832 -0.2778839 -0.118041135 -0.61983657 -0.77709377 0.024931625 -0.8223605 -0.5882568 0.66414666 0.7577115 0.57348746 0.1615793 -0.37693974 -0.8065785 -0.3808413 -0.9708318 -0.15437385 0.5457288 0.0068846103 -0.2045793 -0.23367509 1.0503367 0.42458853 -0.32027966 -0.7716903 -0.5123632 0.4658113 -1.0410941 0.4863509 -0.36393097 0.5359406 0.0049481206 -1.053199 0.35646075 -0.1341627 1.228151 -0.09600357 -0.10655278 -0.17378922 -0.1773767 0.22537313 0.20423725 0.095633954 -0.6040031 1.2666162 1.0740525 -0.7768971 1.3232954 0.84493524 -0.28827894 -0.8362319 0.38775316 -0.7545729 -0.7632043 -0.5046706 0.64205325 0.050308462 0.63867074 -1.2905868 0.75611174 1.1832052 -0.46851555 -0.7781055 0.21347646 0.6154493 -0.93581593 0.073852405 0.5161765 -1.1157119 0.27866003 -0.632001 0.6062272 -0.4356966 -0.1837549 0.46139365 -0.82864034 -0.4578123 -0.09658192 -0.54655457 -0.33983198 -0.76512164 -0.24757597 0.9166113 0.874912 0.9331965 -0.50705075 0.80085367 1.1905253 -0.32952204 -0.66436315 1.4339986 0.18330196 -1.2396293 -0.6434286 -1.2777342 1.3394828 -0.16468929 0.3143422 0.24578375 0.56356364 0.46819463 0.1460394 -0.65304327 -0.64017236 -0.2410759 0.13587937 -0.69229674 0.7969832 -0.9685435 0.22890466 -1.0006107 0.18610653 -0.4958855 -0.03869629 -1.0863565 -0.5873943 -0.31679958 1.0716804 0.43254745 0.1681104 -0.13223696 0.45879638 -0.43524748 -0.14346085 -0.1084785 1.2579854 -0.28295976 -0.10400968 -0.74177474 -0.86312836 0.9942246 -0.72521937 -1.3615375 -0.36927345 -0.7272658 -0.66202754 0.27898628 0.2037393 0.13682455 -0.19663876 0.0073105674 -0.4364776 -0.7585579 -0.14364533 0.38115007 0.3752816 -1.5022218 -0.010254043 0.41142926 1.0142666 1.0605185 0.08106548 0.8051288 0.37492263 0.20746976 0.7629387 0.5678377 0.3361841 -0.82434195 0.14865336 -0.56294465 1.4362509 0.5012077 -0.27241266 0.5830698 0.42781875 -0.46536517 -0.9839672 0.22938125 -0.10453397 -0.59809226 -1.5676506 0.48804495 -0.87298816 0.34733728 -1.1945165 0.7118016 -0.18514815 1.466358 -0.7623527 -1.4545043 -1.1512641 -0.9990679 -0.62632066 -0.06378037 0.75530916 0.5481844 -0.20936666 -0.50174874 -0.28947085 0.20356691 0.15543595 0.9240924 -0.18789697 0.40973744 -1.1540202 0.04984509 -1.460041 -0.44465712 -0.1176334 0.012208724 0.3059174 0.5446087 -0.0047363834 0.008538181 0.4178877 0.1902821 -0.71730226 -0.29557505 -0.31019875 -0.66342235 -0.016259253 -0.69461477 -1.2090895 -0.5783863 0.4271702 -0.3907511 -0.14794983 -0.1339662 0.806254 -0.4012476 1.2669594 -0.083468296 -0.7685853 0.32751378 -0.11444396 0.05816603 0.29467136 -0.16387433 -0.4870395 -0.90894246 -0.20698823 -0.63818413 -0.14714703 -0.29423633 0.4148652 -0.97782815 0.13175556 -0.118608214 -1.3787789 -0.009198468 0.46101967 0.9065181 0.4426943 0.28746483 -0.741214 -0.35063398 -0.7781016 -0.084923744 -0.42672104 0.37805486 -0.22620761 1.5320681 -0.59650826 0.12356822 -0.7113383 -1.9607041 0.43484566 0.5242917 -0.12973033 1.0927277 -0.62158704 -0.5476837 0.3483287 0.12920614 0.06646235 0.756097 -0.3754606 -0.87082416 -0.5972076 0.6277835 0.5403767 -0.69665575 -0.31965873 0.57751 -0.60930765 0.33625168 -0.37492576 0.1449153 -0.086557716 0.6924899 -0.059692368 -0.34169042 1.5565733 -0.31494573 0.122690514 0.8394236 -0.21683258 -0.32990363 -0.31589618 -1.3599758 -1.8598843 -1.209899 0.5164526 -1.0971317 0.26716262 -0.6946368 -0.46254128 -0.87982154 0.6811818 0.6899067 0.9236126 -0.1328075 -0.50585043 0.54200584 0.38292694 0.39392927 0.5841336 -0.13729827 0.0035732961 0.18208657 -0.15612812 1.1969073 -0.5835279 -1.2896266 -0.4438553 0.47754472 0.2633051 -0.101387836 0.26382142 -0.22281627 0.68994564 -0.9696623 0.276149 0.8496228 -0.39400288 -0.32360673 0.3513523 0.6291679 -0.9644742 0.14530477 0.28334525 0.9978206 -1.1386396 -0.089148715 0.6921803 -0.037329413 1.1025914 -0.45560288 0.19484958 0.027546193 -0.72753847 0.037307575 -0.5540159 0.38548887 0.34187543 -0.017417092 -1.104351 -0.5551779 0.9983731 0.43985534 1.4429185 0.06755118 -0.6981171 -0.5123443 0.8469076 -0.2980677 -0.06386247 -0.67908406 -0.041385375 -0.18152966 -0.6803223 -0.89693046 1.0038993 0.009307003 -0.51051056 0.5597198 -0.4637656 0.015014097 -0.27019706 0.3658378 -0.7181847 0.37613907 0.78272617 -0.13425599 -1.0599055 0.19373901 -0.43500474 0.44634312 0.76674545 1.1342864 0.03063352 0.29463702 0.17676738 0.17092116 -1.0120194 0.24382968 -1.1428761 0.24400708 -0.70925814 -0.53940815 0.9849679 0.7284404 0.36150518 -0.4771848 -0.0571405 -0.027843166 -0.024271077 -0.35622486 0.33895674 -1.8236319 -0.40135399 1.1768374 -0.5110157 -0.39242524 -0.18217485 -0.7947525 1.0199876 1.0996907 -0.46937016 -0.7855059 -0.22790311 -0.27218357 -0.46864504 -1.0151186 -0.32777768 0.30888575 -0.08381189 1.4263437 0.2643658 0.7942604 1.50646 1.5238898 -0.05884598 0.2825425 -0.044996344 0.03466373 -0.47951114 0.50015056 0.22278121 -0.203712 0.8731848 -0.98528755 -0.43046394 0.034578398 -1.2021356 0.49477294 0.109955154 -0.080852285 -0.9803423 0.24406476 -0.27463466 0.71054494 -1.972503 0.06753454 0.56481856 0.9320586 -0.88954264 1.0753443 0.13360167 -0.47899047 0.42056775 0.7972034 -1.0258147 1.0088482 -0.94661856 0.23020166 -1.2741053 -0.4943825 -0.5712702 -0.73709965 -0.6150904 -0.11068101 0.7935116 0.0005962495 -1.2647719 0.56620574 0.89734316 1.3191319 -1.2017466 -0.6198058 -0.69575125 -0.27049598 -0.12695566 -0.689284 0.6100446 0.023668552 0.460898 -1.4295402 0.23437025 -1.739709 0.30758846 0.7906326 -0.97220796 -0.23488516 -0.5800723 1.4288125 -0.6059918 0.5675888 0.6506236 -1.2919384 -1.1710849 -0.41040048 0.06573269 -0.022083547 0.9518336 0.498107 -0.5826669 0.3968548 0.18816233 0.4176107 0.9198009 0.2826591 -0.97637284 0.3040175 -1.0931084 0.9888083 -0.70478755 1.0612112 -0.61137414 0.8780059 -1.0307895 0.7858819 -0.8923744 0.13365442 -0.73057294 -1.0951898 0.35255545 -0.4309336 -0.9477576 -0.5133827 0.16883814 1.4226763 1.5198977 -0.2686256 -0.4199238 -0.84359366 -0.9677191 0.4273897 0.93577015 0.38728732 -0.17231265 0.18885595 0.8774921 -0.042457018 -1.0301709 -0.42040324 -0.77387965 -0.16713639 -1.2372736 0.49537423 -0.106060244 0.8985277 -0.14201172 -0.15160102 0.8969316 -0.68563133 -0.025798447 0.2326795 -0.21120039 -0.227833 0.824827 -0.30810243 -0.16508153 -0.55193335 -0.2653044 0.71094507 1.0703418 -0.52178276 1.0777061 0.8663926 -0.15292065 -1.9366956 0.12658706 0.41815227 -0.62483025 -0.33371657 0.42246205 -0.22359717 0.8439735 -0.9638586 0.8389992 1.0082644 -0.5768086 -0.88945246 0.6431186 -0.69643074 -0.9050592 -0.3706852 -0.2640975 -0.49183285 -0.04042363 -0.6646254 0.55112803 0.029173493 0.033645228 0.61593455 -1.1120818 -0.88263106 -0.6289613 -1.0787952 -0.3114261 -1.2709168 -0.012834171 1.2811238 -0.28508872 0.86946994 -0.100657 0.16009423 0.934941 0.17582078 -1.6453217 1.5769073 0.33894134 -1.3311436 -0.08553165 0.032728285 0.7111291 0.23511067 -0.59632754 0.9987582 0.435681 0.45870247 -0.5068112 -0.34556252 -1.5869588 -0.3273794 1.2696881 -0.34977958 1.0173578 -1.1951735 -0.036623828 -1.3220625 0.6507085 -0.49638137 0.7122857 0.29827356 -0.058265023 -0.7571883 1.6144158 -0.92350394 -0.24843882 -0.8281119 0.16705073 -0.48898947 -0.5227171 -0.6105668 0.96854985 -0.21813728 -1.6220148 -0.55873406 -0.87712854 0.96572566 -0.405627 -1.4929377 -1.3259809 -0.8886051 -0.66648626 0.19670253 0.5345818 -0.25933662 -0.0079641305 0.10184523 -0.09235877 -0.37309712 0.42014098 0.24877077 0.16127005 -1.2125337 0.11351672 0.81990796 1.4347694 1.6864494 -0.08669732 0.2558699 -0.8388996 0.9264632 0.515122 0.3035877 1.1817106 -1.4944599 0.3502675 -0.9579437 1.6439573 0.43470806 -0.11211831 0.75874174 0.12614128 0.21847275 -1.3831344 0.15828449 -0.5945338 -0.58727014 -1.433561 0.34225184 -1.6260508 0.7325504 -0.8487723 0.31914413 -0.9975689 0.6743454 -0.40052918 -1.7730186 -0.8000403 -1.6281996 -0.3738188 -0.063750535 0.48672482 0.22858712 -0.16337858 -0.39529592 0.8873481 0.6830017 -0.032152086 0.63003594 0.91085726 0.7994502 -1.0515523 -0.83210164 -1.3093088 -0.9913399 -0.32252496 -0.91892165 0.6618688 0.44443735 -0.8029123 -0.97593534 1.5451332 0.4206959 -0.48062238 0.47730303 -0.47022346 -0.7998606 0.1242844 -0.67723507 -0.88166064 -0.5998999 0.44675365 -0.9973326 -0.026019933 -0.61058414 0.75126594 -0.029698957 0.8225975 -0.15936714 -1.0021836 -0.53308946 0.59628177 -0.14743042 -0.06414698 0.8835032 -0.6836757 -1.0214369 0.13243249 -0.27623153 0.39531377 0.6169218 -0.1706086 -0.58236516 0.6876912 -0.32445693 -1.2091292 -0.53880626 0.94246304 1.6681721 -0.5465363 -0.035664324 0.18218118 0.75990176 -0.27101487 0.3740695 -0.9972006 -0.1466215 -0.1832765 1.2573998 -1.2443157 0.26768592 -1.0777752 -1.1208702 0.22223018 0.6924743 0.04288735 1.2912682 -0.591927 -0.8104612 0.18582231 -1.0531209 1.2389165 1.7677166 -0.29515254 -0.50075674 -1.935302 -0.010495388 -0.03092855 -0.6645863 -0.75377893 0.7595383 -1.1661451 -0.83685744 -0.75451493 0.25102288 -0.5145217 0.47161216 -0.36462867 -0.19697574 0.9948225 0.018548012 0.2745049 0.4889208 -0.63374346 -0.5747073 -0.25606278 -0.5593077 -0.34127808 -0.8545483 0.50436884 -0.7133233 -0.03412436 -0.39995235 -0.54753476 -0.5659175 0.5911588 0.6635674 1.125396 -0.017654441 -0.80156714 0.18456817 0.6883476 -0.39030778 0.45316988 -0.43298972 -0.5818126 0.17775477 -0.5549972 1.1973584 0.6785989 -1.6432693 -0.49343613 0.49289173 1.1351637 0.0188465 0.24828954 0.09429328 -0.10561092 -1.8415179 0.74024904 1.5415933 -0.49583095 0.8386255 -0.25045136 0.005249651 -1.0673937 -0.13458607 0.3453885 0.5126987 0.40153474 0.014320094 -0.42476463 0.65379876 1.611552 -0.07851525 -0.22365159 -0.18532072 0.5752902 0.75553715 -0.52000886 0.6095013 0.08121091 -0.72634155 -2.2761827 -0.77157515 0.38482955 -0.06980722 -0.12424824 0.4654169 -0.7504334 -0.2868133 0.6694923 -0.24478355 -0.8564991 -0.14486018 -0.34788394 -0.5293387 -1.2744608 -1.4590231 1.0010191 -0.9897343 0.02320961 0.7132069 -0.09711909 -0.18437792 0.27328706 -0.31592923 -0.34201738 1.0406579 0.8456044 0.6986605 -0.4841997 0.07232277 0.18878272 1.3594508 0.12851855 1.1645393 -0.78058994 0.6240084 0.8332685 0.84832966 -0.49491322 -0.23050478 0.003511753 -0.5044909 0.029724127 -0.862272 1.0200304 0.6638561 -0.35027876 -0.82145345 0.031595416 0.27456966 -0.3981889 -0.34597474 0.50090593 -1.1314863 0.12745564 1.3736954 -0.59180194 0.30437094 -0.4383022 -1.0585141 0.93082064 0.54354453 0.030844534 -0.23623912 -0.20708223 -0.41165698 -0.6031008 -0.793566 -0.63006973 0.74634856 0.49333522 1.5061427 0.9858515 0.051589068 0.67984194 1.4505512 0.6371424 0.21159568 -0.5469762 0.47402564 -0.29188126 1.0231404 -0.23250121 -0.4020716 0.18385789 -0.972141 -1.3963647 -0.099436015 -0.52573764
